-0.15932053
-0.09227616
-0.23197903
-0.22168612
-0.28739762
0.13463308
-0.17650469
-0.040700205
0.020608265
-0.060513083
0.21731532
0.15363991
0.21190114
0.21800186
-0.019562148
0.1254068
0.00017298477
0.14466001
-0.025268743
0.12739311
0.02011313
-0.061050136
-0.07694208
0.075310476
0.19233587
0.061009385
-0.04255333
-0.018767811
0.08912859
-0.21820334
0.08114062
-0.034191437
0.177784
-0.032784905
-0.077006295
0.07771428
0.14506112
0.051342487
0.2815032
-0.24964254
-0.06599439
-0.25671214
0.05704707
0.16786331
-0.08276751
0.029531157
-0.12223881
-0.1953943
0.21228792
0.1605356
0.15301639
0.24018145
0.18555146
0.22896685
0.26619133
-0.0057015293
-0.114704356
-0.031775672
0.041322473
0.025280742
-0.011039811
0.07659658
0.037956722
-0.21809451
-0.10851501
-0.10631109
0.025095293
-0.16662198
-0.16473953
-0.051409237
-0.109854616
-0.14677379
-0.19426847
0.18138264
0.119330056
-0.30753043
-0.3707569
-0.15224564
-0.056036253
-0.27025023
-0.18350184
-0.18474616
-0.3969681
-0.28346515
-0.25445357
0.2042486
0.054530896
-0.14318235
-0.1093409
0.109033
0.054191433
0.10034096
-0.044712953
0.0267035
0.20191132
-0.11046127
0.031647183
0.22284147
0.2552589
0.13369493
0.08548152
0.13298625
-0.0787904
-0.14186543
0.14234237
0.27135235
0.13116165
-0.21732177
-0.33143494
-0.25308436
0.0819532
0.0038769166
-0.105714224
-0.07992812
0.16983078
0.25800154
0.10248385
-0.020084027
0.11632683
-0.010360009
-0.15301467
0.15369609
0.25413054
-0.12237644
-0.05894628
0.015162812
-0.2530408
-0.27032292
0.0696198
-0.12644792
0.18962106
0.0693236
0.023357227
-0.18376005
-0.05288008
0.21247685
0.21660544
-0.0077477694
0.020427275
0.18651418
-0.19320284
0.19370022
-0.0097849965
-0.019795073
0.107600026
-0.22316614
-0.026139885
0.22098368
0.09531728
-0.09845361
-0.090468876
0.13221751
0.077781744
0.15162688
-0.1258174
0.06650304
0.06747084
0.10165562
0.26468444
0.12738976
0.14008431
0.086495996
0.116291344
0.01632277
-0.20563868
-0.24418679
-0.19539365
-0.12995188
0.1331285
0.085406624
-0.18371509
-0.22235097
0.18654898
0.1816766
0.122199565
0.24808714
-0.1014354
-0.25208393
-0.2681111
-0.13074346
-0.10345131
0.22358751
-0.028630553
-0.027758468
-0.2529811
-0.012352364
0.030556079
-0.035962276
0.19229963
-0.13044508
0.091398254
-0.11162368
0.026165668
0.041489497
0.16951159
0.21285746
0.14672598
0.039958622
0.012823223
0.23485145
-0.058323704
0.1682221
-0.04325325
0.21874955
0.27311903
0.19311939
0.20223668
0.15296483
-0.0636205
0.020015683
0.07905219
-0.03900978
0.033474244
0.09057991
-0.21952179
-0.2459825
-0.20625061
-0.03529594
-0.08172843
0.012975657
-0.117919326
-0.19771364
-0.0018188558
0.11222235
-0.12549481
0.28133067
0.17073244
0.3025832
-0.08540549
-0.12845339
0.1542484
-0.045846682
0.0025062005
0.23855644
0.21216139
-0.17994076
0.22179396
0.092247106
0.24891765
0.02993971
-0.31577393
-0.28578362
-0.16675831
-0.25523895
0.06647289
-0.06474427
-0.1545161
-0.18403654
-0.12662703
-0.16151096
0.09116934
-0.049373835
0.20422898
0.237309
-0.06891159
0.03602593
0.1564709
-0.021387061
-0.2573225
-0.026209347
0.039817523
-0.21722241
-0.32626024
-0.17851701
0.004791147
-0.20876466
-0.14238198
-0.17376457
-0.06872053
0.058518767
-0.03128351
0.2215274
0.17444526
0.29165062
0.22459555
-0.011687597
-0.10883971
0.10522337
-0.016729409
0.1310742
-0.029695598
0.21800663
0.08181941
-0.019728469
-0.18581443
0.13591684
0.032198474
0.10861579
0.117793076
-0.06736084
-0.19137983
-0.11002286
0.006117671
0.18721136
-0.0034001572
-0.13598423
-0.07371834
0.022074977
0.20728289
0.1879769
-0.048516102
0.039355095
0.20493922
0.0985056
-0.0252668
0.08717638
0.10941326
-0.02339176
0.089598134
-0.011274238
-0.10045836
0.009618629
0.20871693
0.05346324
-0.21806821
0.101404116
0.07586259
0.124130026
0.005208154
0.068507135
0.03865698
0.18316102
0.10745318
-0.08700095
0.111901626
-0.019959325
0.13399446
-0.102976896
-0.12510145
0.17433351
-0.035483863
0.039899178
0.030023616
0.012558887
0.017091405
-0.2086309
0.24465673
0.25873432
-0.102423385
0.060225617
0.20971769
0.0929839
0.10644854
0.16622709
0.10791176
-0.045344673
-0.23484989
-0.19511595
-0.18989557
-0.017166203
-0.12605906
0.19071347
0.12865503
-0.04843315
-0.118635096
0.11347581
0.035083987
0.09223135
-0.0354862
-0.060743324
0.073539235
0.09263259
-0.009264972
-0.015618496
-0.2444756
0.11485542
0.037843466
-0.19993864
-0.09241564
-0.06502275
0.26477966
0.2434579
0.2024317
-0.26762512
-0.26769143
0.03209647
0.11521086
0.13433719
-0.091444656
0.170526
-0.16741742
0.1363294
0.02562228
-0.010727288
0.14397712
0.20442691
0.18275236
0.18615888
-0.0047058268
-0.23153952
0.10217285
0.24481374
0.08795869
-0.29516026
-0.22163527
0.115821145
0.005739051
-0.11495208
-0.32730305
-0.1561011
-0.047107574
-0.25980064
0.040536426
0.10758548
0.106661536
0.12887658
-0.07954271
0.13665287
0.07724799
-0.06893721
0.014443238
0.22904998
0.036261734
-0.038635988
-0.024604002
-0.123711236
-0.110308595
-0.026108988
0.10346294
-0.056854937
-0.08492443
0.09431926
0.120423995
-0.046222642
-0.092858694
0.060794707
-0.07397252
0.2045338
-0.006932498
-0.017912453
0.2855384
-0.009203932
0.08946305
0.3041099
0.044164766
0.04046018
0.3136849
0.09940523
0.23025332
0.24267182
-0.06779952
-0.27090815
-0.11877654
-0.17894602
-0.18924268
-0.22935696
-0.2144222
-0.39217463
-0.35380018
-0.081919774
-0.06682388
0.0031778968
0.029159464
0.2634529
0.073009096
-0.20403075
-0.19926028
-0.18788177
0.057592954
0.12966296
-0.06881211
-0.08291525
0.015558997
0.11248532
0.09451459
-0.22475715
-0.06707743
-5.7105324e-05
0.029483097
0.25441876
-0.2886365
-0.008938354
-0.098005556
0.18540022
0.23485567
0.13976063
0.084276654
-0.12202234
-0.12648399
-0.16770156
0.0039662006
-0.124345906
0.0035065403
-0.011952666
-0.15636252
-0.08032961
-0.15640073
-0.15352282
-0.16573748
0.12938261
-0.14442962
0.12347489
0.23502868
-0.09287076
-0.12486
0.16698004
0.19099982
0.15568307
0.22919333
0.20098305
