-0.07336245
0.050961874
-0.042725775
-0.066857785
-0.026648415
-0.03772083
-0.06666751
0.07755513
-0.058985427
-0.024710463
-0.0072229626
0.011613392
0.042073246
0.027882684
-0.021091815
-0.0113352835
-0.018588006
-0.09460311
0.0066133873
0.03907743
-0.10732197
-0.07953226
0.0076670563
-0.09340809
-0.009345475
0.048370313
-0.014666906
0.034842532
-0.012223748
0.051067695
-0.08598496
-0.08691765
0.07013737
-0.016952835
-0.0064946185
0.05521368
-0.09186979
-0.10403225
-0.0024010425
0.0696884
0.023604935
0.016794147
-0.01644734
-0.0077534877
-0.063393734
-0.04634546
-0.053317256
0.06459248
0.061512522
-0.046038993
-0.03731449
-0.057032567
0.05093387
0.044825327
0.054294333
-0.08924898
0.04541798
0.024487684
-0.031440526
0.026478155
0.011301035
0.035073068
0.016630493
0.10972075
-0.0095062675
-0.031111341
0.018102154
-0.045784526
0.0033077516
0.0327807
-0.07602023
0.039059088
-0.02457646
-0.0065368423
-0.0340256
-0.037060298
-0.02949235
-0.018076796
-0.05649217
-0.11122047
-0.013667779
0.0056693237
0.016787635
0.034706432
-0.066183865
-0.08236683
-0.010088388
-0.043048758
0.037334614
0.03742207
-0.021482961
0.032710426
0.055630594
-0.04995796
-0.009070376
-0.072607286
0.036879025
-0.076446384
-0.01717557
-0.11186654
-0.022687262
-0.07731092
0.051979456
0.025935978
-0.10097437
-0.00969693
-0.07796978
-0.017559927
-0.009916602
-0.033742335
-0.036231205
0.025046574
0.022760704
0.043219887
0.002016692
-0.04269222
0.0016804032
0.068821736
0.06257433
0.024913631
-0.10598799
0.04816091
-0.03806035
0.010289056
-0.07403679
-0.059949603
-0.044284116
0.042249568
0.0237318
0.03598546
0.013912218
0.015750086
-0.0726449
-0.0110205095
0.047092237
-0.034377962
-0.05087292
-0.050018582
-0.057458423
0.015399295
0.10938362
-0.013907018
-0.025915539
0.030516567
0.06720485
-0.06081873
0.00749761
-0.01734201
-0.033085667
0.0064112013
0.010842177
0.0064832335
0.020824166
0.018908095
-0.101140924
0.0099947
0.021890463
0.030928198
-0.019936005
-0.035769794
-0.0053171697
-0.05205625
-0.022262344
-0.0049963705
-0.08147899
-0.002776009
-0.028653372
0.04195321
-0.061360803
0.043428633
0.038406346
0.029377216
0.0018249388
-0.094686784
-0.011707365
-0.0407484
0.02094435
-0.018304618
0.04881919
0.009708356
0.018993698
-0.06671455
0.024729408
0.05401843
-0.04322578
-0.0562686
-0.009544507
-0.015143565
0.028026195
0.020227471
0.046054065
0.046486422
-0.08148599
0.010343383
-0.03821071
0.042586528
-0.05025259
0.04265219
-0.0046356865
-0.0033034587
0.051807594
-0.0011103542
-0.0709155
0.04466473
0.123250276
0.0044281646
0.046214715
-0.02760366
-0.005557951
0.0017395077
0.023360291
-0.014935916
-0.032301724
0.052602682
0.0048317187
0.036104552
-2.8017297e-05
0.06427969
-0.023378992
-0.058679182
-0.02262015
-0.03060061
-0.07767514
-0.017478319
0.056262575
-0.07758851
0.01735129
0.018647404
-0.0072411206
0.04045504
0.063393965
0.058406096
0.019469297
-0.027844228
-0.029565258
-0.026386479
0.005725214
0.047347404
-0.06931534
0.015849046
0.048478045
-0.1489395
-0.09545338
-0.06689274
-0.08370021
-0.03904133
0.054425634
-0.02391839
0.02402213
0.057388846
-0.035090365
-0.08593451
-0.05839035
-0.087556906
-0.021200228
0.021533528
-0.02688616
-0.15876114
-0.042242315
-0.00275872
-0.041402902
-0.027327409
-0.009469405
-0.0464632
-0.020882582
0.06474166
0.055066787
0.03833259
0.029841112
0.01888189
-0.01935861
0.0115759475
0.046726145
-0.1164658
0.011979997
0.00032303462
0.08761758
0.039369263
-0.054245673
0.066697985
-0.049147584
0.030403111
0.03340295
0.016125692
0.044668134
-0.02403669
0.1288943
-0.07110667
0.056375835
-0.04028791
-0.028228996
0.0167375
0.0006013892
-0.07926204
0.026255019
0.044605546
0.017034696
-0.0641125
-0.031706844
-0.007845535
-0.06779201
-0.04759806
1.6813729e-05
-0.13747835
-0.021267554
0.035106983
0.038995642
0.022697391
-0.012810965
0.013048403
0.02028696
-0.02261528
-0.019186612
-0.0776714
-0.03170522
-0.020635748
-0.03461813
-0.082090065
-0.0060461177
0.033782315
-0.029389976
-0.010446607
-0.010519745
0.02935619
0.05040727
-0.013234124
-0.02672028
-0.02888549
0.033483524
0.067321494
-0.032217477
0.025360378
-0.032843355
-0.049420357
-0.029086757
0.07510155
0.051594127
-0.03186845
-0.008486987
-0.02195763
-0.07855899
0.051817868
-0.05482294
-0.12212529
-0.06355723
0.010557621
0.022534143
0.030725457
0.02894852
-0.09010291
-0.063322335
0.058181006
-0.05250397
0.004110455
-0.041018046
-0.012517639
0.042993486
-0.017588502
0.028716028
-0.04855819
0.038400535
-0.08061624
0.02669356
-0.018239472
0.033336107
0.052163105
0.021237126
-0.07439158
-0.08060703
0.011008864
0.04838442
-0.008929035
0.19458583
-0.12917438
0.02306657
0.005350812
0.022349663
-0.11280917
0.0027024117
-0.015318712
0.0041778316
-0.0053060157
-0.025758965
-0.016629258
0.0711437
-0.032734007
0.011217288
0.01713
-0.016163595
0.02301712
0.0594204
-0.058290653
-0.0055305446
0.04225032
0.005319999
-0.016466318
-0.033740073
0.026025994
0.02557073
0.053510934
-0.03239148
-0.006203651
0.022981578
0.060842033
0.008926395
0.017554391
0.07015152
0.030442653
-0.0035274697
-0.01944955
0.033741
0.029231412
-0.0067642233
0.047621068
0.009033422
0.05011351
-0.004575495
-0.054908417
-0.0060770256
-0.01101805
-0.09076367
-0.015777368
0.038438737
0.00020791613
0.013267374
0.035048775
-0.027766062
0.039881174
-0.12993854
0.043812133
-0.029954657
-0.049457017
0.073445395
-0.112800725
-0.014391737
0.0577812
0.014117078
0.005654814
0.0148993395
0.0006261619
0.020898914
-0.018183563
0.02785068
-0.058457423
0.037791528
-0.039658368
-0.06485565
-0.063594654
-0.024920505
-0.07348233
0.023195378
-0.02805854
-0.0033563997
-0.0017190825
0.019487662
0.0052932245
0.006206734
0.005479229
0.027772576
0.022932043
-0.0079479925
0.009085737
-0.008724155
-0.09843554
-0.030240472
0.008975085
0.025794338
-0.10391319
0.01722544
0.015529454
0.028433628
-0.027747432
-0.010132283
0.031498756
0.019556101
0.009440928
-0.020959519
0.122792654
-0.022775076
0.041275095
0.03017353
0.04007643
0.041752998
0.0124836285
0.065578476
-0.007911814
-0.030854667
-0.034399975
-0.021931995
-0.03074126
-0.08792321
0.03536184
-0.002788488
0.034904778
-0.045383837
-0.016553061
0.020689845
0.04804652
0.0065303138
-0.037954327
-0.062782675
-0.091076955
0.04497796
-0.0037174395
0.06677426
-0.0058976263
0.007022281
-0.09255176
-0.0056701405
-0.008741012
0.03678529
0.00083189155
-0.035373263
-0.08956503
-0.009349691
-0.059808776
0.024016945
0.0165562
0.020181268
-0.10349908
0.03370943
0.035933148
-0.043939807
-0.068346605
-0.072946824
0.047522135
0.0019335526
0.015212696
0.04717446
-0.05155266
-0.05139889
0.08612543
-0.013036432
0.012077554
0.035914093
-0.015933337
-0.018024858
0.050775073
-0.0024623699
-0.023198592
-0.012055858
-0.11106079
0.03654193
-0.018192414
0.051129267
-0.014488181
-0.006124199
0.017934525
0.078806184
-0.002560082
0.012459322
-0.05524566
-0.03876936
-0.10465589
-0.00010376648
0.056324236
-0.038076736
-0.076685466
-0.014850989
-0.07466235
-0.047180362
-0.018171776
0.017154176
0.08191052
0.0088302605
-0.11538112
0.029095551
-0.045537468
-0.074690394
-0.009582638
0.08167497
-0.054130085
-0.072077736
0.034909055
-0.0070818984
-0.07193201
-0.058448683
-0.038248453
-0.028691022
0.018669363
0.0335742
-0.001664379
-0.020195091
-0.039292946
-0.014305066
0.03835868
0.02127242
-0.01745191
-0.012085357
0.004176495
-0.03618914
0.050496403
0.13693334
-0.09657781
-0.019947771
0.017084816
0.055209678
-0.0036389614
0.015406392
0.03999903
-0.06751954
-0.033620015
-0.088637844
-0.009664524
0.008837997
-0.041179184
0.034872875
0.03367393
0.027355853
-0.052584276
0.02808508
-0.006809868
-0.023298863
-0.00045766437
0.020665934
0.047752168
-0.016885638
-0.051964656
-0.04187416
-0.014908178
-0.005623674
-0.011718752
0.06442267
0.007961381
-0.042747986
0.06115875
-0.007913061
-0.07913317
-0.04913357
-0.09731828
-0.060091794
0.0069297887
-0.04640653
0.031524204
0.016857361
-0.022303864
-0.000626588
0.018841542
0.029300306
-0.061722722
0.024323769
0.015837992
0.0144829145
0.020329984
-0.058506943
0.029519504
0.0312484
0.010371856
-0.008820017
-0.039126247
0.0061976626
-0.023153502
-0.037541118
-0.042689208
0.03090609
0.004779362
-0.034454476
-0.006623199
0.002431005
0.0112506375
-0.018109448
-0.07590348
0.019086884
0.0019015943
-0.012564446
-0.008630539
0.026770199
-0.09124107
0.026528867
0.01972316
0.029592797
0.055520713
-0.00083029247
-0.00045344484
-0.039963774
-0.0146256015
-0.026844518
-0.017746061
0.07468854
0.01884401
-0.008893222
-0.0066867042
-0.020054607
-0.081489556
-0.047232926
-0.07751605
-0.036056183
0.019346362
-0.05305743
-0.09237405
0.016197747
-0.077098094
-0.048933145
-0.047048103
-0.024493722
-0.052915007
-0.019624108
0.05024863
-0.047471393
-0.021915292
-0.0404588
0.03849728
0.111989856
-0.08705873
0.060276374
0.0725956
0.03351372
0.019065883
-0.032880925
-0.046616327
0.0089402115
0.015041962
-0.002145708
-0.012091589
0.014628766
0.014170212
-0.063506104
0.041485537
0.03493125
-0.010792025
-0.02195138
0.0036051853
-0.06952639
-0.011154228
0.04394858
0.07930546
-0.0609497
-0.016158659
-0.010893299
0.048280302
0.0344412
0.09473375
-0.072264895
0.069190696
0.07824662
0.031637315
-0.035010546
0.0484852
-0.028598439
0.040318742
0.04010994
0.004426156
-0.06515031
0.12137806
0.05157
-0.012206496
-0.050680388
0.053782325
0.06252186
0.060142018
0.014485395
-0.07123937
-0.13419457
0.03085818
-0.011604703
0.018698271
0.0021332067
0.1270067
-0.03159147
0.011295142
-0.0362325
-0.032818653
0.024482667
-0.0012714245
0.006666491
-0.022970634
-0.023483578
0.04318873
0.027769286
0.026764391
0.009156786
-0.008471549
0.057049528
0.071832314
0.0140604125
0.007488942
0.10163524
0.059499145
0.018930936
-0.093929976
-0.06571131
-0.041930895
-0.006762259
0.026754927
-0.05002611
0.07100017
0.09462956
-0.08154505
-0.010768109
0.04742602
0.06110302
0.009841163
-0.063639835
-0.019310972
0.0028574048
-0.055752017
-0.12793638
-0.040147662
-0.038849983
0.017163398
-0.071425095
0.041036002
0.022176629
0.02892987
0.0658027
0.23503219
0.09207412
0.017266493
0.057739437
0.057159323
-0.07724618
-0.025964053
-0.0006753397
-0.07054356
-0.06446371
0.03534889
-0.041512083
0.05114114
0.007270856
-0.045904007
-0.041470885
-0.014155619
0.045198835
0.047244616
-0.10054087
0.03980401
-0.08770422
0.045882788
0.038054153
-0.0215519
-0.08754939
-0.08931267
0.0033222304
-0.07152371
-0.018242043
-0.008672605
0.0004895054
-0.016401041
0.014724126
-0.035967547
0.038090758
-0.08618055
0.010532189
-0.020256314
0.018981377
-0.03168449
-0.10237162
-0.014453188
0.008105871
-0.004666483
-0.0374326
-0.06864843
-0.050094742
0.056350388
-0.008883365
0.053693596
0.035671517
-0.0376941
0.01967597
0.056203697
-0.04837419
-0.008722025
0.0052517224
-0.023123614
0.034880463
-0.04740761
-0.047100056
0.013317393
0.09569125
-0.050493523
-0.019907521
0.056283083
0.039445996
-0.03126123
-0.041160196
-0.012387894
0.044068936
0.035818174
0.00967064
-0.011490438
-0.06511644
-0.028225806
-0.059831653
0.04064924
0.069144644
-0.01634695
-0.08811561
-0.08237569
-0.08547562
-0.026747447
-0.05776779
0.019312004
0.0016464059
-0.1226928
-0.04606321
-0.03417666
0.002429784
0.007095245
-0.0072865416
-0.030432379
-0.015298147
0.02237648
-0.029826704
0.06185826
0.038161986
0.031930365
0.05531612
-0.0587292
0.012188367
0.009691111
-0.08341587
-0.061649594
-0.118857585
0.051947527
-0.08610794
0.08044097
0.009595058
-0.06314232
0.0002055535
0.011472126
0.03726926
0.06255294
-0.04089155
0.039587457
-0.0039307214
-0.022758182
0.033688482
-0.051760636
0.050779134
0.073041424
0.07257222
-0.043584988
0.03239648
0.033423945
0.011679033
0.04442823
-0.00037512835
0.08908578
-0.052751377
-0.021646166
-0.093320526
0.0045147464
-0.0021442943
0.050732836
0.01942192
0.034105837
0.023443835
0.016404677
0.038367238
0.003732153
0.027106823
0.03242807
-0.088516615
0.0311622
0.03870095
0.012613171
0.03712809
0.032752395
-0.03788259
-0.049429595
0.007122879
0.013666174
-0.038217846
0.03714009
-0.0010666073
0.09670151
-0.033787467
-0.02338216
-0.09216118
0.04891534
-0.005819006
0.04757564
-0.06084019
0.057897292
0.015248514
-0.040363282
-0.0854354
0.07455154
0.043294348
-0.028013978
0.025847644
-0.073661454
-0.0829133
0.12375814
0.07890161
0.05869231
-0.0512258
-0.08759259
-0.037974294
-0.047921978
-0.056412414
0.055593427
-0.035711676
0.013445059
0.004106018
-0.04856897
-0.0943254
-0.07292337
0.06552826
0.021053664
-0.08692096
0.06801063
-0.0021954817
0.059971057
0.04944758
-0.015106597
0.005041083
-0.073978394
0.0116343275
0.0018966127
-0.052671257
0.031010484
0.07505432
0.02654539
-0.016642138
0.049561564
0.055340234
0.03068256
0.0059073176
0.03924076
0.024871629
-0.07323783
0.018401038
-0.0049120598
-0.065420836
0.052695133
0.055600196
0.036105942
-0.023522263
0.046421517
0.062006097
0.061831627
-0.06327714
0.027411975
-0.11547102
0.01086224
0.02115831
-0.030655848
0.016537134
0.05156406
-0.010288389
-0.06618625
-0.07382778
-0.027732976
-0.07407569
-0.075729296
-0.038419276
0.07401822
0.05645046
0.06346022
-0.038041063
0.019981192
0.052538387
-0.025814146
-0.016244201
-0.0021563338
-0.03279425
0.02368415
-0.028546454
-0.0076824334
0.02262655
-0.00668032
0.033724237
0.061294265
0.036496904
-0.05756199
0.08097834
0.019393789
0.04319511
-0.006918903
0.0517839
0.054457307
-0.0020647498
-0.09461108
-0.09104383
-0.03217617
0.004896803
-0.0117905475
-0.054434918
-0.005158895
-0.08552804
-0.007240663
0.015614294
-0.06335391
-0.08213569
0.001682096
-0.0054947245
-0.10158489
0.052297935
-0.1511522
-0.009511607
-0.083373204
-0.027436545
-0.041235447
0.0220577
0.012113181
-0.062484115
0.057035785
0.0022538388
0.03602374
-0.04234176
-0.0051851994
0.053139515
-0.013792299
0.00084066734
-0.032770067
-0.057164
-0.041787058
-0.045280084
-0.07678705
0.026170563
0.017166387
-0.06793525
-0.013748122
0.01685888
0.029193249
0.024735956
0.04468199
0.064996175
0.050318897
0.0033290668
-0.012786151
-0.004967183
0.04946014
0.03672421
0.050367303
-0.013296749
0.01439473
-0.026942864
0.036536872
0.04342575
0.060734764
-0.060158677
0.045631826
-0.08717561
-0.00046624223
0.056488946
-0.023485864
0.019212637
-0.05557951
0.03936546
-0.011479157
0.08297811
0.07269925
-0.06910785
-0.014456324
-0.048360992
-0.068526
-0.019529525
0.017528147
0.04622671
-0.09056577
-0.016728595
-0.06681269
0.039314404
0.020794291
0.0051209484
0.013996722
-0.0021719579
0.0031112144
-0.027279653
-0.07356613
-0.0026226495
0.033638045
0.057745993
-0.017922098
0.015429186
0.04277446
-0.057151344
-0.0083965305
-0.007463648
-0.011817439
-0.052884348
0.05508833
0.007091559
0.005921598
0.037024
0.008677735
-0.05500815
-0.04459248
0.025002372
-0.03583466
-0.025769835
-0.03278874
0.10415434
-0.026825719
0.01012268
0.007200048
0.017085506
-0.012336397
-0.037528213
0.033127937
-0.05997778
-0.043270256
-0.040655863
-0.035933256
0.035593174
0.10364315
0.022417786
-0.01366178
0.02070996
0.043287765
0.014940014
-0.08916318
-0.025530757
0.05021717
0.050653376
-0.008694361
0.00093550916
-0.106776476
0.057293523
-0.03389732
-0.020516086
0.03489634
0.010011977
0.037053857
0.031332634
0.060269535
-0.03956236
0.062556714
-0.010222692
-0.036169972
0.028149547
0.040177073
-0.028773442
-0.044574868
-0.071800865
-0.082776286
-0.03255033
0.061728254
-0.10857229
-0.09816102
-0.04271177
-0.119996965
0.060101688
-0.032316662
0.008065473
-0.14267093
-0.017329343
0.012510499
0.013734843
-0.018777205
0.021867188
-0.13052659
-0.0008910846
-0.040771045
0.081448965
0.09691729
0.031157631
0.006485364
0.03775722
-0.08874082
0.07835385
-0.0023838864
0.032934625
-0.022296313
0.021744765
-0.04448111
0.006952454
-0.0016263636
-0.048919126
0.00068994693
0.10343761
-0.056531373
0.08476348
0.011654277
-0.008451705
-0.007001727
-0.038732264
-0.016685946
0.007998332
0.0037907204
0.0112535795
0.0729761
-0.011973454
-0.013298699
-0.08940736
0.042874962
-0.009418013
-0.06764967
-0.05828242
0.004638112
0.027774556
0.014271931
0.028886897
-0.023851648
-0.042664174
0.02180836
0.043417636
-0.0019246056
0.044158872
-0.02205581
0.014547339
0.00487795
-0.005262272
0.018509382
-0.053707436
-0.12832925
0.05578782
-0.009082128
-0.04205205
0.025424106
0.023488708
0.07889568
0.053517636
-0.26485664
-0.20463642
-0.017318333
-0.016587313
0.03586446
-0.00031204335
0.03638098
-0.001537138
0.047441978
-0.037698645
0.01740419
-0.0003976786
-0.010034551
-0.037324402
0.0010907659
0.025957584
-0.0027789867
0.033449806
-0.06462234
-0.016225116
-0.03875758
-0.007037687
0.03837494
0.010857645
-0.057140693
-0.0010028369
-9.626571e-05
-0.05680475
-0.04428672
-0.049132627
0.069710895
-0.10924263
-0.004524063
-0.022792028
0.016081335
0.04338007
-0.07963404
0.034807514
0.09951192
-0.096824095
0.013280043
0.031268246
-0.04544091
0.035311513
0.040067047
-0.0426288
0.025493186
-0.027383057
-0.035599202
-0.0014769584
-0.045600917
0.020659959
-0.026640084
-0.030931592
-0.12159478
0.07575124
0.008536393
-0.03331288
0.007986353
-0.016037034
0.13748856
-0.024512744
-0.14026232
0.0845462
-0.013694256
0.0092031015
0.04049348
0.0688874
-0.07474523
0.025416333
-0.0065116696
0.09741415
0.055702653
0.058358382
-0.050106965
0.0066596046
-0.020876536
0.053510785
-0.025121436
0.0019322635
0.029699408
0.048210375
-0.03462919
0.008711387
0.018583743
-0.034980178
0.051262043
0.017473718
-0.08927415
0.060392153
0.0062078014
-0.03594535
0.019720212
0.04180788
0.0057020737
-0.014499314
0.04421031
0.024639552
-0.112304054
0.056176998
0.026807845
0.10329805
-0.023524072
0.037941735
-0.02965198
0.021047734
-0.07285176
-0.01433258
0.05582296
-0.033720907
-0.08592165
-0.023578145
0.032420587
-0.026254931
0.06702053
-0.040307794
0.036839552
0.040158056
0.033611197
-0.06409328
0.002548929
-0.029869048
0.050382514
0.033823334
0.0652643
0.061420012
-0.02057859
-0.0010966528
-0.006337479
0.009792187
-0.045193173
-0.02557987
-0.2390871
-0.0016177904
-0.020620784
0.06584503
0.013976139
-0.071935065
-0.033020627
-0.008624917
0.038300816
0.062609345
-0.06314866
0.008979137
0.001258636
-0.028215673
-0.014877724
-0.05423972
-0.031327903
-0.029620793
-0.09533506
-0.01551728
-0.07743024
-0.010825621
0.008539654
-0.0060742935
-0.08505094
0.030238336
0.0054635243
-0.028413566
-0.046830878
-0.01621707
-0.043768093
0.05366463
-0.027609603
0.014047956
-0.08567662
0.0034866747
0.048447814
0.0155858025
0.024587799
-0.07154529
-0.062120162
0.021855837
0.041756492
0.0147636905
-0.060287245
-0.05701557
0.067142956
-0.084350705
-0.05155015
-0.024889678
-0.041161053
-0.019433837
0.08587766
0.012580788
-0.0020246087
0.038821768
0.0106466655
0.025425512
0.018100606
0.010977284
-0.0048449775
-0.07519704
0.02322593
0.0031763986
-0.022401648
0.057679296
-0.03395126
-0.09041034
-0.015099337
0.06030884
0.06974607
-0.016952751
0.037714515
-0.044868525
-0.009884283
-0.048467506
-0.020478556
0.035411295
-0.023208547
-0.05934912
0.081183635
-0.007262476
0.018633444
0.059012048
0.029265432
0.02501587
0.060196936
0.019568305
-0.050314806
0.003847041
-0.06775763
-0.04627249
0.06626924
-0.065567836
-0.033474356
-0.05180806
0.0064457674
-0.08719461
-0.049272235
0.04443317
-0.051456228
0.059487715
-0.062132396
0.025032984
0.053180736
0.005877827
0.028434874
-0.081710346
-0.011680356
0.07219836
-0.023588417
-0.07598732
0.015119041
-0.077929415
0.04294545
-0.028746795
0.02105308
0.0611425
0.058007482
0.06470536
0.012593404
-0.0013765775
-0.01859232
0.047321796
-0.0017476596
-0.005027611
-0.09072919
-0.0043228725
-0.021716662
-0.09864895
0.030867642
-0.057554368
0.03521466
-0.004255817
0.05208173
0.048055146
-0.00901338
0.04203084
0.010948521
0.037587363
-0.001976165
0.02968018
-0.01667788
-0.06972442
0.006213343
-0.0212448
-0.049213413
-0.003788492
-0.05111182
0.026012637
0.037397116
0.03269051
-0.050991185
-0.07454887
-0.09882705
0.05224748
-0.06720359
0.025093166
0.02566852
-0.031839777
0.025651269
-0.019814609
0.015818745
0.0414367
-0.03874794
-0.023521733
0.0073839948
0.005706662
-0.040491764
0.048408322
0.011622211
-0.04899243
-0.027475433
0.050268255
-0.045279622
0.022803072
0.044568304
-0.0020148219
-0.041678466
0.030574651
-0.007980558
0.010037793
-0.09614852
0.006347862
0.012066208
0.002547048
0.0073531987
0.022455735
0.046576444
-0.0376096
0.037155516
0.016454684
-0.030017478
0.033398975
0.02050012
0.053783465
-0.03999878
0.058633797
-0.014269577
0.0016352179
0.017488224
0.056183863
0.0029780935
-0.059933167
-0.039775364
-0.11891958
0.054346982
-0.040486347
-0.16146457
-0.0009947903
-0.032620966
-0.020005085
-0.0055281026
0.027305335
-0.075900994
-0.018124802
0.01491601
-0.038368694
0.012993629
0.034780066
0.01656088
0.033754006
0.036888286
-0.019509973
-0.048336666
0.037800383
0.010573245
-0.06472082
-0.031068705
-0.020041505
0.026117107
0.0032213957
-0.032431982
0.020602454
-0.037265424
0.018903254
0.017832337
0.0053412872
-0.03014948
-0.029181935
0.017521108
0.021322817
-0.015530284
-0.012998246
-0.07419475
-0.02562917
0.021859132
-0.014106492
0.00015683235
0.03529766
0.025661623
-0.0043380004
0.049866974
-0.11749853
-0.065521285
0.004575548
0.023341509
-0.016385026
0.04618724
-0.00046361878
-0.08249693
0.03785161
-0.042299874
0.047201347
0.016677687
-0.044210345
0.032131508
-0.0643413
0.058432985
-0.018481467
0.012213264
0.005811128
-0.00045198767
-0.0844683
0.036004987
0.015712896
-0.022443127
0.028538555
0.05791127
0.0422083
0.031084312
1.2358794e-05
-0.04470935
0.009953647
0.042768046
-0.088703394
-0.060402818
-0.043001685
-0.0042269416
-0.058400728
0.04628473
0.010323807
0.0047449176
0.075108245
-0.09484333
-0.07294141
0.058984563
-0.056919158
0.013896248
0.04051673
0.04414701
0.039365128
-0.018149458
-0.017031798
0.07687915
0.08216836
0.08226933
0.06236608
0.01647302
-0.012699905
-0.10891578
-0.17782547
0.01705126
-0.014766252
-0.0914487
-0.06817656
0.018969253
0.024909073
-0.043107096
-0.004919694
-0.06981022
-0.008118235
-0.0033599203
0.020350296
0.0060958983
-0.11793806
-0.044714168
-0.12016318
-0.038083106
-0.0877338
0.0076029813
-0.08796277
-0.014816093
0.074181005
0.063568726
-0.022638068
0.06621108
-0.04216483
-0.012870894
-0.08824628
-0.07719126
0.035140794
0.015522439
0.04029329
-0.001512011
-0.021990003
-0.015829721
0.056456022
-0.047635723
-0.06891555
0.021196602
-0.0996911
0.021095432
-0.01572279
-0.03958575
0.06967223
0.059026174
-0.017660407
-0.010522693
0.022021852
0.07120728
0.029978244
0.038540855
-0.015518313
0.058617216
0.004709231
0.022862086
-0.017591367
-0.013761234
-0.14731172
0.005610374
0.01592488
0.05285818
0.037001055
0.03074973
-0.023710726
0.077654704
-0.06296155
-0.070480466
0.025300097
-0.032029536
-0.031022087
-0.026377263
-0.07455962
0.018312924
0.013258666
0.037794713
0.049445353
0.007262588
0.04331495
0.016120227
-0.0039697904
-0.032962423
-0.044703733
0.054215923
-0.06095161
-0.049852107
-0.00049783074
-0.06538417
0.032895632
0.05175711
0.048204806
0.020977987
-0.026428146
-0.054875337
0.01983431
-0.05712876
0.008563797
0.02226775
-0.04621819
-0.00209368
-0.033801254
0.06743617
0.06669687
0.050141063
0.095376335
0.053047664
-0.01597446
-0.097984746
-0.028862711
-0.007661739
0.01264031
-0.05276505
-0.04952424
-0.049684826
-0.017470546
-0.023067934
-0.020565884
-0.08662479
-0.06534529
-0.009904984
-0.13963874
0.029162778
0.06832596
0.048385393
-0.09827579
-0.06784583
0.0044752327
-0.015016832
-0.07480149
0.049579415
0.08141914
-0.01124267
0.07541954
0.023859316
0.02596152
0.042294707
-0.011294409
0.061898522
-0.005984492
0.0032276087
0.0020730984
0.03820388
0.019054115
0.012127099
-0.039414167
0.044136867
-4.0431405e-06
0.0059447763
-0.0075740553
0.008516422
-0.06497629
0.06638098
0.005650129
-0.02012288
-0.028059073
-0.07766677
-0.010187149
0.018614285
-0.12014625
0.046788763
-0.02096975
-0.064913206
-0.040030975
-0.09427235
0.019444352
0.040884778
0.02104413
-0.15092665
0.020612871
-0.05175401
0.037268676
-0.038783472
0.01745022
0.012632191
0.05695784
-0.0027334339
-0.069606565
-0.034929603
0.032218013
-0.023319684
0.068003386
0.02132918
0.0059245895
0.0055624032
-0.015400341
-0.0021966894
0.037550606
0.07687857
-0.02204209
-0.11485289
0.031892326
-0.02271898
-0.036086876
0.024580562
-0.024521828
0.011373563
0.022718249
-0.006696732
-0.015827473
0.03684286
0.024973758
0.06266534
-0.012082988
-0.047267452
-0.07052748
0.02811736
-0.007496705
0.04137592
0.00754285
-0.047567397
0.0148095945
0.06564432
0.029158972
-0.060411863
-0.0063807117
-0.026122823
-0.050818305
-0.056734484
-0.0532598
0.0057409937
0.033626135
0.067372814
0.0034038443
-0.0010007196
0.035343554
-0.08871811
0.053826753
-0.013523944
-0.025278121
-0.089783505
0.032005604
-0.026810806
0.019054173
0.0054110563
-0.011505923
-0.038774677
-0.04445432
-0.05752994
0.023299076
-0.08177039
-0.004575603
0.028272003
0.052412566
-0.060644314
-0.05794336
0.005318506
0.010249151
-0.029552441
-0.028224122
0.015769556
0.010744241
0.007440039
-0.006141103
0.046546355
-0.011181794
0.04621859
0.023103843
0.028773291
-0.048195
-0.0006345945
-0.09554681
-0.018354608
0.0006205577
0.038757153
0.047061924
0.039866686
-0.024352374
0.040374752
-0.022867717
-0.036921445
0.015176555
-0.08633443
-0.004906879
0.035950918
0.014293967
0.04881184
0.020179795
0.0032518844
-0.019768363
0.03849952
0.0613284
-0.024693543
-0.09642393
-0.0037590154
-0.013949546
0.032490853
0.03028324
0.05732225
-0.008784273
0.05903651
-0.068988584
-0.10999517
0.000898366
0.010534649
-0.1107099
-0.09477106
-0.01221943
-0.04316488
0.054876763
0.02091698
0.02969454
-0.07808183
0.057825346
-0.06670536
-0.049204092
-0.02521611
-0.064055964
0.03502837
0.05189296
-0.07172899
0.022853587
-0.024614122
0.010194177
0.025675802
0.05892228
0.09925304
-0.024203582
-0.031835802
0.089524075
-0.051720873
-0.014122631
-0.027274845
0.017090121
0.0057824953
-0.06767636
0.04004905
-0.03112707
0.047455728
0.04574589
0.037683148
0.043981113
0.01167911
0.047228098
0.011345377
-0.023897553
0.06034611
0.0009879146
0.03166372
0.03448425
0.036452733
0.0076919138
0.01175058
0.061219275
0.09856883
-0.11316464
0.04765099
-0.0040568756
0.018092914
-0.095498376
0.005233662
0.00014461411
0.053609412
0.038345616
0.05539419
-0.07081823
0.026949981
-0.110874295
0.036898572
-0.06235449
0.02393886
-0.039502498
0.061792616
-0.054205462
-0.016342765
0.026316512
0.054176953
0.029807812
-0.05896535
0.013432178
-0.06941351
-0.03786902
-0.028446374
0.058206256
-0.0031180398
-0.093491554
-0.019953169
0.036691166
-0.0035576809
-0.006868853
-0.038134545
-0.02334105
0.042203903
-0.002682046
0.015091343
0.033794872
-0.036035664
-0.10713368
-0.015619452
-0.04697969
-0.02497383
0.05760155
-0.028746992
-0.15397653
0.010663942
0.09270792
-0.010228287
-0.064632386
-0.06766354
-0.009038096
0.02081455
-0.021056468
0.030528396
0.028470747
0.03155308
-0.006949293
0.05532143
0.015936207
0.010270604
0.010346704
-0.073801495
0.0152454255
0.027667273
-0.019996388
0.03171896
0.020354128
-0.018821755
-0.021075318
0.013766028
-0.024888499
0.0018337227
0.049486455
-0.0360745
0.016050873
0.0063579315
0.001459852
0.06168639
0.00026400996
0.026635813
-0.0029212323
-0.030114835
0.020345619
-0.050630543
-0.057439025
0.031939406
0.0058947923
0.006782514
0.07145316
0.022174869
0.013636076
-0.038728222
0.025835957
0.019843284
0.026528133
0.04661805
0.050139822
0.029891662
-0.0070491177
-0.055905715
-0.10810759
-0.080301665
0.019853244
0.028301544
-0.053683143
-0.016177168
-0.067848004
0.03031022
0.02420939
-0.06477229
-0.021929564
0.032131035
0.013491573
0.04062977
0.020677026
-0.032942455
-0.00572605
0.08837903
0.010801662
-0.08462042
0.05501464
-0.17448056
-0.04104064
-0.049216688
0.027603528
0.025603238
0.016083375
0.03387624
0.040331893
0.013838082
0.047318656
0.04386265
0.017479647
-0.013435822
-0.08232855
0.04335241
0.056472532
0.011450091
-0.0059880787
-0.020515222
0.036493566
-0.044778015
0.0056759254
-0.11627291
-0.08076277
0.021459809
0.030549664
-0.070102476
-0.08367733
-0.04619817
-0.052261718
0.06404833
0.09322981
-0.06626228
-0.019375829
0.046553884
0.036052223
-0.023990901
-0.006791541
0.049126297
0.029141074
0.06224987
0.035691682
0.016231252
-0.046070278
-0.026862225
0.05394083
0.0075777615
-0.087391965
-0.06729847
-0.020215051
-0.009265263
0.019688629
-0.038525153
-0.039591707
-0.07066544
0.040988673
-0.1821928
0.036917653
-0.030402284
-0.06084305
0.0704586
0.0014389044
-0.053295515
-0.002092813
-0.02397259
0.029333742
-0.051755447
-0.02868686
0.0071931076
0.097850256
0.042404138
0.026787136
-0.02537473
0.027561752
-0.028265024
-0.033778906
-0.04052868
0.027842518
-0.0703826
0.021964286
-0.030171232
-0.117837146
0.04195084
-0.040364474
-0.07838826
0.029271988
0.10055349
0.009327491
0.0082663465
-0.12883
0.0048430786
-0.066347934
-0.009609325
0.010353726
0.02427494
-0.022154884
0.005225554
-0.012787152
-0.012053915
-0.035101242
0.0057288595
-0.014354225
-0.013218219
0.06238013
-0.00406661
0.030888202
-0.06952848
-0.06414281
-0.033427637
-0.06280128
-0.037850022
-0.025692448
-0.05407407
0.039293885
-0.08336631
-0.0371078
0.06011396
-0.03776565
0.08711054
-0.06771501
-0.0086196
0.030940376
0.024820773
-0.015831323
-0.0400898
0.02966011
-0.042961966
0.0590471
-0.051492456
-0.019845553
-0.03278899
-0.02645033
0.01710869
-0.06901691
-0.001793421
0.04120243
0.07422608
-0.0013520867
0.062972285
0.0060548927
0.01868988
-0.032919582
-0.00052708015
0.04158827
0.06234027
0.03709164
-0.009278939
-0.018197276
-0.020253595
-0.054959357
-0.020300597
0.07727726
-0.04986804
0.0092129065
-0.011686966
-0.05101616
0.048807185
-0.032786466
0.030401804
0.011922851
-0.046956547
-0.11146692
-0.037628047
-0.11535979
-0.0077880267
0.05086919
-0.035859007
-0.16555765
0.0071376874
0.036820624
-0.043099344
0.054910798
0.0013804525
-0.11032745
0.04323261
0.0016314945
-0.035533298
-0.04733683
0.030574888
-0.04035427
0.007834875
-0.022217764
0.009986071
-0.028302848
-0.083452344
0.012772573
-0.060210492
0.0074191573
-0.113783225
-0.035501044
-0.058647633
0.040952094
0.072043754
-0.04446026
-0.019274402
0.014766663
-0.021194974
0.004794702
0.02637949
-0.029996527
0.046739664
0.013853097
0.04583772
-0.020762807
-0.07492685
-0.0889474
0.019601779
0.08966234
0.029896783
-0.028675443
0.009430301
0.0009948194
-0.06293925
0.06473585
-0.052451964
-0.11587135
0.036261063
0.040622827
-0.0420988
-0.032554835
-0.10864307
-0.06891877
0.03385447
-0.013451343
-0.043419752
-0.005177666
0.0037244936
-0.023767166
-0.028050553
-0.04261748
-0.011242625
-0.033336088
-0.031561844
-0.019434214
-0.0044020354
0.039551187
0.0047073415
-0.01104482
0.06681013
0.014269993
0.065153204
-0.11272857
-0.009048924
-0.002489724
0.093323804
-0.03216576
0.03472177
-0.001584552
-0.027770013
0.05039285
0.008186066
0.07314995
-0.044756446
0.00013310632
-0.004110637
-0.012548557
0.022724992
0.019503655
-0.031086674
-0.0113824
-0.16936256
-0.13616501
-0.022182917
-0.11041419
-0.052301563
0.056663975
0.048346605
0.058152784
0.041843917
-0.009505177
-0.009626569
-0.021849368
0.055666022
0.045518406
0.027521692
0.07071978
0.008096608
-0.036260277
-0.012148122
-0.038804594
-0.06989613
0.040777646
-0.043813728
-0.051989254
-0.06340524
0.03704972
0.041682452
-0.050304864
-0.002033945
0.013294298
-0.0011341011
-0.08031439
0.008845059
0.054276805
0.032396223
-0.05956681
0.028987337
0.0348762
0.049134973
-0.055773918
0.014049002
0.03473337
0.0038050455
-0.12578982
0.0349966
-0.040495344
-0.06734795
0.029366396
-0.008343433
-0.0036544295
-0.045942824
-0.08350431
-0.005692616
0.05679206
0.027532708
-0.04950677
0.029801367
0.020099636
-0.046858322
-0.039476182
0.020489609
-0.034733586
0.046220027
-0.011501053
0.044898957
0.070699796
0.036722075
0.039504275
0.05166267
-0.055749916
-0.05642515
-0.07032976
-0.03168592
-0.062858224
0.07057586
-0.0070500835
-0.026968246
0.048159484
-0.06359052
0.0054400605
-0.07393011
-0.005102469
-0.053653836
-0.0063212505
0.014933518
-0.10981017
-0.12282765
0.008235445
0.013699184
0.05106058
0.057321295
0.031049341
-0.006822458
0.04194182
0.019253861
-0.00084039377
0.046745393
0.018546017
-0.05568007
-0.009965402
-0.029086169
0.041888166
0.0077656903
-0.0093204165
0.0034476044
0.029938051
0.03556196
0.018548178
0.07859891
-0.010695814
0.045725793
-0.013564918
0.026122421
0.023588058
0.09604259
0.06497405
-0.0027885912
-0.034535103
0.027004695
0.07271153
-0.046047945
-0.007571994
0.0022766585
-0.009337369
-0.03595974
0.021054279
-0.009720002
-0.016514676
-0.03655532
-0.02229525
-0.039503917
-0.038223524
-0.01233044
0.015612771
0.022397753
0.02360757
-0.03933516
0.0026574675
-0.0061853365
-0.0772532
-0.052320246
-0.03559578
-0.069246
0.0067448146
-0.012460893
0.017637273
-0.03412379
-0.026162574
-0.08542053
-0.028691728
-0.03821111
0.005033997
0.04591692
0.013532299
-0.08446828
-0.003566524
-0.05161177
0.06193909
0.0413852
-0.16599947
-0.013123172
-0.076756045
0.009840273
-0.022197846
-0.010011592
-0.018301664
0.014335179
0.00325355
0.022617174
-0.018659255
0.04578714
-0.0048430325
0.017595334
0.0052989805
0.042584173
0.028266218
-0.02825779
0.014337683
0.016945496
-0.017609816
-0.046305716
-0.016211344
0.010851316
-0.004585317
0.048367374
-0.046981197
-0.029291548
-0.06848303
0.038713817
0.033990007
-0.0018410452
0.059247017
-0.03399713
0.025163515
-0.064743325
-0.04632604
-0.026341474
-0.024486944
0.028106084
0.012523601
0.040131122
-0.018489432
0.033310957
0.047830034
0.009871629
-0.08139872
-0.02702401
-0.0138373
0.025157388
-0.031750884
-0.012208712
0.014684136
0.028100641
0.015369753
0.044237062
-0.011329137
0.016909467
-0.039971963
0.041316494
-0.0008845567
0.047426276
-0.028722905
-0.02486854
0.059752483
0.03710862
-0.018329551
-0.054856468
-0.13336818
-0.03369773
0.04440831
-0.0077841063
-0.020266673
0.07868772
-0.07457088
-0.04365744
-0.028578026
-0.07943954
-0.01863083
-0.047505327
-0.006540674
-0.14139494
0.0050735045
-0.032862667
-0.006700781
0.032521266
0.03703155
-0.0322418
-0.057818107
-0.049703903
-0.0430937
-0.08487806
0.029495737
0.029163128
-0.029445004
-0.07085179
-0.014699308
0.026748672
-0.0828004
0.01177637
-0.02393891
0.08826254
0.020999115
0.039897166
0.005836746
-0.0062227803
0.015630273
0.10814685
0.044691354
-0.032341696
-0.044310912
-0.03941305
0.122012794
0.038331985
-0.012334465
0.100794666
-0.0070140413
-0.026879583
-0.008576219
-0.011613543
0.006925833
-0.018720273
-0.024961853
0.037619818
-0.022361945
0.007674953
0.012639002
-0.049161095
0.07164275
0.038434535
0.022707481
0.06164129
0.09257454
-0.021668803
-0.08714042
0.05095627
0.01990788
0.03726435
-0.019839542
-0.036461428
-0.05015646
-0.07049251
-0.057060428
0.015517802
0.038593713
-0.0095686
0.029473418
-0.009568247
0.0136147095
-0.06374298
-0.0077852486
0.038113777
0.022520294
-0.02541865
0.05104344
0.013471704
0.017546507
0.024262998
0.014347039
0.050683815
0.05987448
0.059334025
-0.1389327
-0.1105469
0.015063578
0.060859326
0.020611944
-0.16866988
-0.07686296
0.05310491
0.06328702
-0.05756097
0.050749402
0.012440637
-0.011061214
0.009254375
-0.0023608813
0.02390103
0.050994653
-0.015650738
-0.062897585
0.009266502
0.051451594
0.032673113
-0.028028486
0.033820387
0.011745762
0.022856724
0.056203958
-0.0062126094
-0.0077456264
0.03644009
0.042047467
0.027396908
-0.09730012
0.019692874
0.065854855
0.061506722
0.017913025
-0.17206913
0.05169565
0.01996067
-0.027621374
-0.004453135
0.066021465
-0.00054572045
0.053749114
0.052877713
-0.052564174
0.020750629
-0.06156396
-0.0018116884
-0.0073169894
-0.03730836
0.04661678
-0.06302103
-0.0076657487
-0.052717
-0.04550024
-0.13863997
-0.020343555
-0.03741413
-0.02775538
0.08293941
-0.0010425716
-0.0884735
0.00024281828
-0.030154517
-0.03214526
-0.025511023
0.038960457
0.056558084
-0.038343534
0.051459488
-0.14492385
-0.007024972
-0.1353387
0.027391255
0.036946636
-0.02310858
-0.11238094
-0.05411442
-0.06097196
-0.0036486145
0.011821652
0.03624305
-0.05397461
0.051590785
0.009394553
-0.049854606
0.038499355
-0.032405976
-0.019613173
-0.0012501462
0.018765697
-0.08448074
-0.025631944
0.054035626
-0.031656824
-0.016226482
-0.042662792
-0.045553323
-0.051089518
0.066380195
0.04137223
0.071867034
0.007086131
-0.003202212
-0.09343606
0.015051882
0.03660806
-0.040750064
-0.0058313673
0.058506027
0.021995276
0.0797647
0.013238944
-0.06609025
-0.03214716
0.039689988
-0.018186742
-0.04552335
0.016358834
-0.031933058
-0.024741745
-0.051032282
0.034144215
-0.012105068
0.0021079902
-0.023957102
0.011867991
0.031198185
0.0625928
0.04597427
-0.06050846
0.04731066
0.04189736
0.03477424
-0.037178088
0.048231978
-0.0224447
-0.036304634
0.0077121723
-0.028118718
-0.013959058
-0.014630751
-0.03869883
0.01660866
0.01111543
0.051228914
0.018319841
0.06513921
0.012549438
0.021471616
0.015554871
0.00075727707
0.054162554
0.038213737
-0.017166492
-0.047035262
-0.03293681
-0.07312655
0.07178474
-0.031640675
-0.007961608
0.08178645
-0.032163143
-0.0037210805
-0.015067067
0.01699524
-0.04100269
0.052986044
-0.017421486
0.059987478
-0.019143682
-0.10862823
-0.04397821
-0.07459624
0.053453684
0.011007432
0.05271659
0.035048094
-0.05030559
0.03014798
-0.05212587
0.044905063
0.012893337
0.04414265
-0.063045256
0.04798032
-0.028584542
-0.004777263
-0.02200894
0.06120875
0.015842706
0.05204162
0.027918082
0.0095183365
-0.03277158
-0.00990928
0.036880303
0.0060665756
-0.093439355
0.007944186
-0.04314691
0.035723366
-0.10046301
0.015048044
-0.069342114
0.03598884
-0.10017876
-0.07910102
-0.011676884
-0.00992141
-0.044117782
-0.02179119
-0.017822215
0.0009652559
-0.026579104
0.040523183
-0.1292879
-0.08521717
0.0044008326
0.040592756
-0.039848864
-0.04110923
-0.018440656
0.0006378567
-0.06416643
0.060600713
0.019160755
0.051159702
-0.015871631
0.022827849
-0.008810493
-0.078764684
0.056947008
-0.014805579
0.017072562
0.046814084
-0.023088036
0.047506463
0.046688113
0.00079924887
-0.050633315
0.03068592
-0.0015444777
-0.12310472
0.049477372
0.058157247
0.06739127
-0.13524504
-0.09567761
-0.07053433
0.052364644
0.029752884
0.07096979
0.000169581
0.0015179157
-0.018718213
-0.06171558
0.03356231
0.032209847
0.030713892
-0.102054045
0.01730928
-0.06354625
-0.0410957
0.015221705
0.019511484
0.03296188
0.026747316
-0.057677135
-0.009155241
-0.1054864
0.0025909229
0.052676853
0.031285778
0.019292103
-0.050666805
-0.028439144
-0.028235883
-0.0022706112
0.028278658
-0.03375036
-0.020111261
0.004406658
0.02965994
0.03224216
0.0296157
0.027774211
0.005192424
0.07241007
-0.04128654
0.0049952776
-0.051776312
-0.092460476
-0.116145745
0.030541642
-0.08277322
-0.059095364
0.018919736
-0.020220771
-0.07322008
-0.11855015
0.008998172
0.053171672
0.009076249
0.031920273
-0.012943072
-0.06741607
0.02902123
0.0040140036
0.031962477
0.052007146
0.009312279
-0.098377235
0.06469296
-0.026368648
0.04675329
0.026859462
0.06681358
0.02126441
-0.020137526
-0.07561997
-0.0048625595
-0.0018420058
-0.011619189
-0.12040695
0.02311326
0.023068178
-0.03137501
0.022210192
-0.05975652
-0.03597854
0.037223935
-0.05599034
-0.00041327332
0.03007057
0.006584628
-0.086554475
-0.14365332
0.049253404
-0.069951914
0.00012217282
-0.01553777
0.018730523
-0.040202882
-0.035651963
0.093102306
-0.019929951
-0.030071814
0.013590991
-0.028226877
0.019456033
0.051872425
0.0016775058
-0.000657655
-0.03524819
-0.010078723
-0.026580393
0.03622177
-0.009896049
-0.015904447
-0.016579906
-0.066562526
0.008987733
0.038915552
-0.04571134
-0.022907127
-0.04051748
-0.006808594
0.05213196
0.023769809
-0.03725943
-0.025452016
-0.03982042
-0.06361667
-0.030612271
0.016562188
0.034064587
-0.02794013
0.09369537
-0.016293423
0.025634777
0.014711943
0.0017274863
0.0007707366
0.010461921
0.05533391
-0.0245262
0.0060869097
-0.028740492
0.024793817
0.082329884
-0.05368576
0.016621256
-0.015148212
-0.04060757
0.04137349
0.067434445
-0.10739853
0.021116497
-0.0028861663
-0.04026169
0.03127893
-0.0649304
0.056961518
0.010378031
-0.05861647
-0.01741834
0.033487502
-0.0031230098
0.057775613
-0.028230282
-0.04502568
-0.020758089
-0.07400773
-0.0110830935
-0.053992104
-0.0717904
-0.041233823
0.017906936
-0.025469301
0.028164554
0.0024159146
-0.033681802
0.06988315
-0.05578463
-0.039152037
0.065792456
-0.07324974
-0.036868088
0.020491214
-0.03165268
-0.025567576
0.051108357
-0.07957983
0.07435946
0.013414882
0.014385954
0.071382575
-0.01114899
0.07122319
0.03589377
-0.10415604
0.0035483479
-0.13789159
-0.01860357
0.03412342
-0.01701368
0.032301158
-0.070858635
0.03873772
-0.013932219
-0.026675383
0.046440672
-0.12852539
0.01503759
0.00979328
0.0010794612
-0.08285948
-0.019744404
-0.004902052
-0.044402998
0.009130964
0.013458069
0.03739502
-0.014077053
0.025702396
0.059630584
0.042306934
-0.030503595
0.01224313
-0.035909805
0.036452837
-0.06902601
0.03346951
0.019451363
-0.0021346728
0.029888662
-0.030710889
-0.020393562
0.038877536
0.0457018
0.013738972
0.01527744
-0.027962057
-0.08378195
0.020341579
-0.02847955
-0.095123105
0.013615242
-0.07132145
0.038221516
0.0057323324
0.04592654
-0.0041105845
-0.0010960179
0.031607635
-0.025158225
-0.07279502
-0.1079032
0.036137596
0.08050362
0.05491976
0.028243216
-0.13562799
-0.036606103
0.009674145
0.021577138
-0.11279485
-0.10081277
-0.037676904
0.003398451
-0.00800679
-0.030338196
0.02049448
0.005459688
0.050623093
-0.11117449
-0.07458922
-0.037002023
-0.05599317
0.012005712
0.005125056
0.028671406
-0.057055846
0.029987792
-0.020817103
0.063821435
0.06385324
-0.008902819
0.06784494
-0.03614145
-0.04567966
-0.026548777
-0.11486294
-0.033004835
-0.009368607
-0.0016112829
-0.1296606
-0.00341478
-0.020736309
0.007974195
0.06710931
-0.032306124
0.026812056
-0.03985528
0.021095175
-0.026113233
-0.011131441
0.013577138
-0.12274195
0.009741496
0.04570775
0.07927548
-0.06716541
-0.016163295
-0.06895205
-0.0106704505
-0.017120019
-0.01885076
0.004044945
0.013140435
-0.08725302
0.0005334611
-0.05180168
-0.043673754
-0.032100607
0.04678067
0.016542556
0.026183574
-0.11101434
-0.048369385
0.027734878
-0.1426133
-0.02347172
0.005275359
0.015808275
-0.07584163
0.06219185
-0.100531325
0.06585991
0.049453154
0.036147453
-0.0923512
0.0094937505
0.06694536
0.04783248
0.057408903
-0.0052135163
0.030863367
0.031496067
-0.022633323
-0.04024869
-0.0148401875
-0.0056547606
-0.07345725
0.019356996
0.03847627
-0.02231182
-0.0076209377
0.05790064
-0.005502714
0.07546135
0.029478166
-0.046257563
0.051249754
0.021255922
-0.040101077
0.03678236
0.013288129
-0.088102
0.04864772
-0.046196226
0.042587336
-0.03030498
-0.06932363
-0.14940009
0.015102098
0.0023713866
-0.041040264
-0.034671273
0.015483943
-0.10577177
-0.050949212
-0.041318074
0.064265065
0.002874488
-0.0006838192
-0.018111715
-0.026677167
-0.07558916
-0.040421933
0.035270236
0.072241694
-0.05278996
0.010876246
0.08118238
0.0037542768
-0.052738976
-0.049627952
-0.006647812
-0.07009135
0.025156956
0.036550723
0.0435237
-0.007265158
-0.05662258
0.047900196
-0.084853396
0.0071134144
0.01097631
0.02507822
0.027212244
0.014344549
0.009036283
0.016103588
-0.055213127
-0.010690194
0.035162948
0.0040607564
-0.09789518
-0.021639567
0.040352363
-0.0022236155
-0.075936906
-0.102132015
-0.02162752
-0.013742584
-0.117262706
-0.029614542
-0.101450846
-0.0057021375
-0.079546444
-0.114576705
0.013977363
-0.056422107
-0.09583449
0.05557372
-0.060751565
0.008211636
-0.090045534
-0.01085411
-0.03543116
0.026344575
-0.019337537
-0.010579743
0.061339583
0.003138874
-0.030516325
-0.00033268542
0.011743929
-0.055911884
-0.08270671
0.067616545
-0.012186866
0.010241437
-0.0006942066
-0.049340826
0.0596804
-0.12280039
0.009528411
-0.012559344
-0.12817487
-0.07024308
0.053399257
-0.11284824
0.032901783
0.009704353
-0.09894872
0.012843792
0.020005306
-0.01731715
-0.021572785
0.008845389
0.046545766
0.017310334
-0.09575886
0.052344203
-0.019744232
-0.008224113
-0.030610425
0.04172134
-0.0034304461
-0.0010624769
0.032933388
-0.0015950323
0.0044262283
0.030602777
0.031960547
0.046019506
-0.04925775
-0.044649925
0.07921526
-0.0924157
-0.013420955
-0.0708902
-0.1100904
0.028552547
-0.02700692
-0.07767783
-0.034746863
-0.034370292
0.0365105
0.056726858
0.021651428
-0.102583
-0.11283295
0.025996797
-0.043740343
0.0056422167
-0.038763374
0.03510009
-0.03654933
-0.062607355
-0.089485504
0.049495295
0.051404584
-0.049920466
0.009786375
0.037516307
0.0025619483
0.054290257
0.026813777
-0.0007830734
0.0022445212
-0.0056127687
0.0091127865
-0.12175738
0.011724927
0.030374011
-0.033395384
0.07024799
0.037940197
0.003521644
0.06900662
0.04629741
0.017053483
0.003990159
-0.009543442
0.03314294
0.0573702
0.06661072
0.008801953
-0.017029125
0.031262305
-0.046507105
-0.096710265
-0.002238281
0.07169155
0.059228443
0.042789694
-0.088024914
-0.1114937
0.024540827
0.042387597
0.020653598
0.056560867
-0.04163005
-7.376424e-05
-0.016815603
0.023406338
-0.003298053
0.042387236
-0.013457745
-0.017995408
0.053028762
0.03372049
0.023111043
-0.028245768
0.005268099
0.037548758
-0.05876681
0.030593056
0.020481998
0.06309853
-0.011517112
0.002707349
-0.038110442
-0.14144649
0.025894472
0.05546659
-0.10778826
-0.010446182
0.019755945
-0.04034125
0.06611884
0.039957024
0.021954564
0.025491143
-0.021908196
-0.0167865
-0.01118904
-0.082741305
0.05262821
0.05595686
0.011931332
-0.008499824
0.0036701502
0.011359369
0.035408385
0.031628866
-0.020466613
-0.028952962
-0.062027957
0.05334485
0.06744692
-0.014752221
-0.027592577
0.057038266
0.024297308
0.022834048
0.06907369
0.034478538
-0.029240284
0.025542453
0.04574171
0.036361504
-0.0066175577
0.03686268
-0.011485619
0.008701589
-0.020208836
-0.07476092
-0.0483884
0.009552422
0.062469695
-0.034203105
-0.037363973
-0.022007508
0.031805806
-0.044422287
-0.04124786
-0.062409148
0.02724533
0.06493281
-0.01709226
0.00028956626
0.026610041
0.057261948
-0.026206337
-0.002825783
-0.08802821
-0.010497055
-0.03170262
-0.03353083
-0.08035693
-0.09471102
0.0021175768
-0.03222055
-0.02459107
0.04428696
0.03227606
-0.018861162
0.007247369
0.021264542
0.03688909
-0.052082054
-0.015612354
0.058457788
-0.038384754
0.00893542
-0.016842663
-0.03199128
0.11474171
-0.059229434
-0.09831936
0.073189676
-0.050289873
0.011414853
-0.013303793
-0.07760471
0.0013884613
0.0223499
0.017783817
0.05012812
-0.0014111167
0.010177696
-0.11351062
0.02084535
0.020531343
-0.035107054
-0.035618864
0.01485242
0.035120662
-0.072083354
0.06812396
0.064176105
-0.00092303037
0.02691543
0.03744786
-0.10111872
-0.10979438
0.052422695
-0.08414429
0.04032466
0.078503124
0.009808354
-0.020876184
-0.039785802
0.033749085
-0.04220493
0.056467652
-0.013706157
-0.038907867
-0.08428131
0.0067372336
-0.036203627
0.028247928
0.0711077
-0.010159771
-0.08082986
-0.03805804
0.06466799
-0.066750064
0.032683853
-0.029183112
-0.014487272
0.00044298114
0.12115733
-0.010355847
0.010484239
0.022278575
-0.0022965032
-0.06311085
0.046879653
0.034807988
-0.06301744
0.06499779
-0.025121557
-0.024777416
-0.013510575
0.052778713
-0.00037062823
0.00016600045
0.051380556
-0.045231823
-0.00041942453
0.081994504
0.008079452
-0.005732461
0.028424485
-0.046202175
0.01306594
0.022583881
-0.019143954
-0.042002637
-0.005841903
-0.14145064
0.022436311
-0.013680973
0.019178113
-0.07572489
0.001525113
-0.090344205
0.037585568
-0.0028815498
-0.015657132
-0.071239606
-0.029395407
-0.0069912383
0.011767117
-0.04428258
0.0057938243
-0.01506833
-0.118154965
0.07749677
0.06150934
0.013713122
0.01102083
-0.05115831
-0.051243152
0.06784259
-0.0011488312
0.022352844
-0.0746356
0.01685805
-0.027615178
0.065991394
0.0075021083
-0.02945492
-0.0340132
-0.12678134
0.02646534
-0.027465776
0.043873932
-0.024137255
0.01325861
0.0396365
-0.034446806
-0.013022223
-0.09479436
-0.022273883
-0.064802505
0.0073966086
0.06575271
0.0034553572
-0.0060422877
-0.079129905
-0.004191406
-0.04906081
-0.008458027
-0.06696738
-0.03869248
-0.06371326
0.11231735
0.036643617
-0.0025973467
-0.061046146
0.027231883
0.009764958
0.038526718
-0.08316199
-0.09543813
-0.049813688
-0.026643934
0.015956929
0.0075615426
0.027569966
0.0023240875
-0.0012889226
-0.05923011
-0.0829126
0.040145647
-0.043827817
-0.000106806656
-0.004108283
0.0016916264
0.032646894
-0.01275817
-0.05580371
0.046219688
0.0027879039
-0.038988423
0.0048532616
0.050349638
0.03538464
-0.03667623
0.014498715
0.057624403
0.007723542
0.0042347624
-0.030659264
-0.04904243
-0.02998168
-0.02038247
0.14926936
-0.007829849
-0.11119768
0.00823259
0.033961553
-0.014009882
-0.035480455
-0.01836253
-0.011717809
-0.034148283
-0.06702184
-0.03537792
-0.02611141
0.041500263
-0.08048841
-0.057780784
-0.012072704
-0.046075232
0.012112933
0.055798244
-0.07986397
-0.031867217
0.03555537
-0.054036755
0.0017388304
0.039675493
-0.030247953
0.08458486
-0.035037067
0.03785949
0.048119586
0.058258638
-0.016014362
0.04931254
-0.039113432
0.030491458
0.06267546
0.047967046
0.010868824
-0.03591434
0.02536839
-0.022768417
-0.027491024
-0.07576453
-0.033621132
0.054861423
0.030219913
-0.111268185
-0.05122759
-0.052645043
0.025177697
-0.10629139
-0.032998953
-0.0024395122
0.005054662
-0.010076939
-0.062487327
-0.024243359
-0.05921703
-0.033704124
-0.036105152
-0.045889854
-0.016597163
-0.08877722
0.022093304
-0.06151075
-0.049835935
0.015296965
0.035816945
0.025861353
-0.033290103
0.045804005
0.029256297
0.085416816
-0.11366821
-0.005564492
0.02279308
-0.092732124
0.031279974
-0.016884778
0.049381062
0.0531597
0.0053691897
0.025973078
-0.012078903
0.04019693
0.025122112
0.015737772
0.038148206
0.048129696
-0.008851619
-0.049884744
-0.026024787
0.04431767
0.009086342
0.03808626
-0.019718131
-0.039503213
0.08325625
-0.056299195
0.010597309
-0.070339195
-0.026119782
-0.0123249255
0.02771192
-0.016045693
-0.03170704
0.008735816
-0.13107295
-0.008712352
0.01175204
-0.02074552
0.019713536
0.036805406
-0.045123506
-0.037930127
0.059612483
-0.046758845
0.040504474
0.03623881
-0.045043238
-0.04667339
-0.04053556
0.030104268
0.08493228
0.025619
-0.021091038
0.00457673
0.03283716
-0.04656267
-0.00478683
0.07929901
0.0003656189
-0.08107277
-0.03263476
0.01490327
0.058348253
-0.036915373
-0.030709397
0.03371428
-0.010862069
-0.025332876
-0.026457962
-0.042175
-0.012646655
0.03466035
0.03884627
-0.10549237
0.0880545
0.036201093
0.07531158
-0.012908493
0.054115254
0.04800591
0.015084031
0.06404952
-0.004754014
-0.06050504
-0.049141195
-0.035190593
0.042313177
0.023958582
-0.06984052
0.060922693
-0.07255474
0.049232397
0.03206448
-0.006944564
0.050409142
-0.024959924
0.026759153
-0.047962323
-0.010455995
-0.0368284
-0.05215045
0.019099602
-0.06633789
-0.048518408
0.06948319
-0.32793427
-0.03152392
-0.010321435
-0.12563545
0.0069989627
-0.016252765
-0.030931246
-0.030276326
0.00896894
0.06623151
-0.0798141
0.03497316
0.012118437
0.02445746
-0.0032566031
-0.08558193
-0.049485426
0.049378246
0.026085675
0.017425979
0.019519208
0.0066792243
-0.009057509
-0.005956676
0.038948193
-0.06804627
0.0009866931
-0.06142065
-0.02300238
-0.10202545
0.020445477
-0.030747568
-0.10550471
-0.00044997188
-0.072512
-0.0034361677
-0.00746381
0.023986818
0.06303358
0.0040993136
0.03876388
0.04137114
-0.006062626
0.014530461
0.016752427
-0.028693276
0.015616602
0.04191108
0.020708017
-0.01811724
-0.13085158
-0.009304106
0.058227014
0.073562175
-0.0036690545
0.010730742
-0.041679163
0.07114781
0.008274339
0.036714196
-0.019912526
0.0017934527
-0.04881317
0.035349995
0.0498955
-0.01283488
0.038141165
-0.00613961
-0.007770738
-0.0754997
0.05328403
0.026662003
-0.03523707
-0.02610738
0.04962989
0.053878732
-0.053068314
0.048463028
0.0033837105
0.020272467
0.059820928
0.038611703
0.018563833
-0.0017238706
0.016065994
0.039796628
0.012356008
-0.041916497
0.05204012
0.010060211
-0.010176848
0.0112484535
0.03858745
-0.012001752
0.028467337
0.021234069
-0.03059668
0.03135405
0.068071075
0.0035757911
0.04834623
-0.01848436
0.025819542
0.020736745
0.040625583
-0.092694834
0.0102301
0.028452206
0.05325041
0.009039261
0.05097042
0.00456061
-0.026045391
0.037360054
-0.032543536
-0.094381765
0.0013567953
-0.0042036423
0.030817267
0.0060885004
-0.010465111
-0.09057636
-0.06142102
-0.029913208
0.012130323
-0.016150312
-0.016269341
0.04514186
-0.027136251
0.006469096
0.015936932
0.01112591
0.054899875
0.014641282
-0.05015452
0.021112766
0.022116764
0.030665884
0.028122619
-0.122852415
-0.013118194
0.041769132
-0.06290885
-0.095118985
-0.019015327
-0.036366384
-0.04250843
0.019046737
-0.009613443
0.0040334063
-0.14317335
0.005467011
0.032319438
0.045894794
0.06512534
-0.04463892
-0.03708716
-0.0068637305
-0.003859377
0.005182792
0.024495376
-0.05981617
0.05740332
0.06707233
0.034644607
-0.017897705
0.025660269
0.07939986
-0.12477358
-0.058192786
-0.059422925
-0.070832424
-0.02402361
-0.0025176331
-0.052073974
-0.008834681
0.05774372
-0.08737927
0.02524438
-0.07564531
-0.11951953
0.037810206
-0.0073565855
-0.052905284
-0.106406964
-0.098854765
-0.0431191
-0.007395009
-0.013289949
-0.10700711
0.04441686
0.010711404
-0.00572011
-0.0041272226
-0.19293854
0.02343931
0.010358616
-0.014655619
-0.0016151983
0.029336639
0.06226511
-0.021005588
0.012573492
-0.07193161
0.040779907
-0.073501565
-0.030480336
-0.00065695035
0.014234605
0.0048032925
-0.06349082
0.022607923
0.016243009
0.05723193
-0.061355315
-0.016858563
0.024584644
0.014434711
-0.030244589
-0.0074363775
-0.011868986
0.009958728
0.07851644
-0.13789244
0.029454447
0.047641255
-0.02133385
0.022318868
0.0075111026
0.025137248
-0.034004148
0.0006419598
0.023565667
-0.05108093
-0.058649506
0.017947719
-0.03338255
0.07090706
-0.024152976
0.02918569
-0.14268364
-0.003025474
-0.09254447
-0.05568815
-0.018966096
-0.025146216
0.056780066
0.046539973
0.021342129
-0.024095949
-0.020068323
0.041000765
0.047855448
0.038780868
-0.06764741
-0.02349134
0.004699473
0.06906734
-0.000942307
0.03274878
-0.011833876
-0.012502074
-0.035838667
0.0002016522
0.020470196
0.014694884
-0.045078624
0.03830071
0.039778057
0.037481677
-0.07229724
0.0047267736
-0.08790267
0.034640487
-0.040399406
-0.04083739
-0.03174033
-0.0261467
0.014101876
0.053022474
-0.061692655
0.029257003
-0.039133888
0.02415986
-0.023279836
-0.025504334
-0.028238082
0.02647254
0.0070506306
-0.06365449
-0.1647268
0.012055043
0.028875498
0.02059355
-0.0004495785
0.023533966
-0.015462781
0.024100749
0.06413841
-0.013955886
-0.0004796038
0.05335421
-0.077111006
0.013871818
0.021555353
0.13202354
-0.00063542055
0.07138036
0.01851937
-0.100578636
0.06662537
-0.036298353
-0.006242577
0.031909622
0.007749329
0.050291374
-0.06608789
0.03975901
-0.049277652
-0.006355644
0.035999097
-0.16017471
-0.017793057
-0.016583603
0.06250636
0.022556774
-0.036023695
0.034527183
-0.014023675
-0.020601766
0.03972198
0.043476384
-0.021212952
-0.040890574
0.022439549
-0.03037898
0.04298611
-0.033211213
-0.066334024
0.014785027
0.057983354
-0.07658142
-0.04005385
0.061280314
0.03661765
0.024676803
0.05124897
0.03184779
-0.070432924
0.00469989
-0.11938349
-0.019311372
-0.119238265
-0.018514289
-0.047398508
0.03209247
-0.039165713
0.012338641
-0.012647972
0.04359067
0.0017998425
-0.18796526
0.027843198
-0.010725261
0.05958133
-0.0235583
-0.012264869
-0.0028367497
0.07278445
0.038977437
0.029132921
0.034252554
0.01639504
-0.035613548
-0.091440395
-0.014389618
-0.022255251
0.021533487
-0.004736733
0.07607973
0.071735434
0.030919919
0.012686393
0.049217075
0.06720677
0.03356303
-0.0029112734
-0.0099816425
-0.0307154
-0.0028929973
0.01802753
0.024784632
0.038243655
-0.016452067
0.056093052
0.05784963
0.0050209984
-0.008153451
-0.027364904
-0.0331186
0.053737473
0.004147573
0.04452611
-0.013671549
-0.06481182
0.015259922
-0.03114406
-0.03758295
0.06279608
-0.043072622
-0.040206574
0.00896801
-0.0015716272
0.048245203
0.07469257
-0.0083099445
0.0119012315
-0.031267855
0.051873803
0.015810214
-0.120295964
-0.11750196
0.07376178
0.036415335
0.036764495
-0.008444544
-0.06784011
0.05058869
-0.08557051
-0.0693221
-0.04097235
0.037540093
0.019260647
0.061856493
0.03686221
0.00047182062
-0.037618995
0.054584596
0.046674043
0.05550992
-0.05729569
0.043178383
0.018558308
0.031101113
0.036800597
0.0021117018
0.0052298876
-0.043409724
0.03373021
-0.03298832
0.009297666
0.008035561
0.036121894
0.050844327
-0.009882776
-0.03108044
-0.03459249
0.037620038
0.057975583
0.03707961
0.020789716
0.004722579
-0.100626096
-0.014066951
-0.08629702
0.026664732
-0.07302136
-0.026866522
-0.12727395
-0.05156897
-0.023239817
0.011253295
0.033664413
-0.10277981
0.013534989
0.01996537
-0.11281202
-0.0029237438
0.02219361
-0.0010647158
0.035965726
-0.023276655
0.059825324
-0.007515787
0.05764057
-0.08164796
0.022053503
0.0075206133
-0.0052221706
0.019625178
0.06543584
-0.06371337
-0.11032986
0.015880564
0.015837904
0.03638704
-0.053052537
0.047239404
0.004865975
-0.02572993
-0.062867954
1.6449477e-06
0.018228514
-0.08747559
-0.043649934
0.013692218
-0.0171813
-0.06092231
-0.026323097
-0.0006707641
0.075282514
-0.0451456
0.06330889
-0.054740127
0.012084974
-0.05631382
0.02591393
0.009098938
-0.050418027
0.03137386
-0.015600642
0.0430409
-0.016621323
-0.021484038
-0.026868964
-0.049732164
0.041038685
0.0051102294
0.0013462041
-0.107083194
0.070328355
0.022839287
0.033509795
0.022156026
-0.0053613763
0.019744314
-0.03833349
0.01833842
0.03624867
-0.036086734
-0.0033971097
-0.0958731
-0.0031542042
-0.016859103
-0.04161678
-0.0139104
0.022092232
0.022347905
-0.017597582
-0.021653721
0.014934379
-0.041788653
0.015188237
-0.045573775
-0.01854614
-0.084120676
0.016096583
-0.035315994
0.027599746
-0.08944951
0.03405122
0.058395036
0.0009555232
-0.009938611
0.010485807
-0.03201116
0.05980268
0.014358688
0.0027951794
0.055260595
-0.15102968
-0.012482295
-0.010467667
0.04655915
0.021331528
-0.11432417
0.04787545
-0.0047097295
0.033559665
0.031837057
-0.10564234
-0.016258612
0.061616912
-0.012096138
0.05487008
-0.00916827
0.011940331
-0.08304785
-0.07322903
0.017608197
0.059548177
0.05000033
0.028265608
-0.04638389
-0.12813966
-0.036507722
-0.039529193
0.021136742
0.040557172
-0.016587857
0.023238504
0.042174418
-0.017344302
0.023239374
-0.052906033
-0.0059221657
-0.0054993858
-0.033363186
-0.01791297
-0.029476047
-0.048617776
0.02369989
0.026087457
-0.019442223
-0.07182038
-0.07701255
0.012706374
0.008813139
0.018532194
-0.037207875
-0.033733808
-0.026527671
-0.023561519
-0.036813222
-0.02410919
-0.01796131
-0.0100755785
-0.07581671
0.008097847
0.016801797
0.020791505
0.01771538
-0.047036365
-0.077979036
-0.028951176
-0.015721597
-0.048129525
0.009674008
0.019574529
-0.029833093
0.035209857
0.04910459
-0.10981484
0.0044006254
-0.0017340567
0.014945863
-0.011763868
0.0027679112
-0.027842283
0.028090151
-0.046928838
0.030629918
-0.060425177
0.0050780494
0.023522828
0.04210039
0.07649694
0.025213089
0.036378812
0.065272264
-0.041263897
0.0277359
-0.015518904
-0.009314447
0.038935475
-0.023126243
0.013116317
-0.042312946
-0.034667727
0.03428381
0.0025893464
-0.073529445
0.015659928
-0.022474729
0.0020726626
-0.018521238
-0.07559723
-0.011622117
0.0054126536
0.039677262
0.024166387
-0.08334465
-0.02393482
-0.01733552
0.013606863
0.025691222
0.010721652
0.03081142
-0.029709121
-0.019342761
0.048328985
0.0163004
-0.017614275
-0.019068705
-0.0040586675
0.018144399
-0.023437895
-0.01271187
-0.016901946
-0.007953123
-0.032295927
-0.012162258
-0.060346197
0.065458946
-0.07571119
0.025301509
0.009662464
-0.004272692
0.020793725
-0.03112157
-0.11810298
-0.015064137
0.022072453
-0.0767652
-0.050581083
-0.037451033
0.04289001
-0.010371753
-0.038669504
-0.02250163
-0.048237868
-0.04246182
-0.0070661074
0.069007434
0.05799061
-0.0729089
0.07286016
-0.09330886
-0.01954286
0.03777909
-0.017094962
0.01913476
0.041531425
0.068973064
0.068635195
-0.012837468
0.04500201
-0.03391926
0.018333185
0.047554847
0.10976314
-0.17201304
0.0537978
0.0045990977
0.07431723
-0.010361478
0.002044371
-0.06247566
-0.006391763
-0.020547653
0.06969283
0.06468934
-0.006472161
0.024116252
0.06451115
0.033734255
-0.030120699
-0.017376434
-0.03447367
-0.050038926
-0.05537861
0.022802407
-0.016358973
-0.069925115
-0.06422181
-0.022277057
-0.052876625
0.07013399
-0.051790394
0.03320019
0.06262246
0.000713729
0.065418236
0.04593019
0.016477562
-0.003971338
0.018271383
0.025569603
0.0016490616
-0.08286278
-0.09420847
0.07310554
0.01671216
-0.03028617
0.017156526
0.013075012
0.03676759
0.013046493
0.02578773
-0.13763843
0.09822503
0.019091848
0.043224145
-0.009575585
0.0146585945
0.0250765
0.013799252
-0.067063846
0.02848433
0.008834094
0.014025151
-0.016619101
-0.015630897
0.039510723
0.039223935
-0.12331119
-0.0039724065
0.08589395
0.027018344
0.060187224
0.025176182
-0.04607431
-0.033804942
-0.020507019
-0.105726466
0.017943129
0.026912514
-0.061158042
0.00097528886
0.06947558
0.03149489
-0.16113766
-0.09241006
0.02414604
0.07433793
0.04028603
0.032572504
0.05771947
-0.025057657
-0.016925724
0.037580263
-0.036128666
0.005666486
0.022675412
0.014370137
0.07691939
-0.1011621
-0.005619928
0.039305687
-0.019386912
0.07049422
0.081311084
-0.032655284
-0.03266996
-0.08322639
-0.033388637
-0.0058451854
0.03172002
-0.012766113
0.0020881866
-0.12540627
0.031138396
0.034074992
-0.040299732
0.05377903
-0.04350694
-0.030673902
0.026661305
-0.04137023
0.00017215442
-0.023978401
0.12534295
0.032296337
-0.035726253
-0.03394993
0.017581448
-0.105284214
-0.15187989
0.043517828
-0.035375256
-0.060510498
-0.030493248
-0.14485832
0.007899305
0.00438286
0.06633699
0.042790547
0.04120339
0.03664912
0.07200389
-0.05865347
0.0315861
0.0313902
-0.12542292
0.04693837
0.030929148
0.054216616
-0.044057395
-0.010089782
0.010317242
0.025210807
-0.03966537
-0.006218408
-0.032575168
-0.025387976
-0.059068892
-0.005735228
0.028828705
-0.05251306
0.029502152
-0.037607875
0.06585296
0.0052757324
0.017614095
0.038380798
-0.062461417
-0.014142697
-0.013858882
0.06453416
0.06470901
-0.057953503
-0.02440338
0.047348827
0.06460118
0.040633842
-0.08471555
0.063205056
-0.08374388
-0.03604417
-0.07831486
-0.08595483
0.068370566
-0.07831434
-0.049905434
-0.047695484
0.0033893306
-0.047989853
0.035793282
0.081911765
0.03274739
0.015899235
-0.008950498
0.039820157
0.015082126
0.03359016
0.00727217
0.02571346
