-0.009072619
0.0044837655
0.04218582
0.004679012
0.04554893
-0.017324423
0.013795337
-0.015390629
0.036036726
-0.0021694235
-0.00032640502
-0.019680392
0.003689137
-0.024674574
-0.025980525
-0.035218094
-0.015624768
0.0020767243
-0.030900227
-0.030902935
0.007103048
0.01383758
0.010040364
0.011849633
0.014299613
-0.009786126
-0.04020387
0.0022077707
-0.015289515
-0.026539573
-0.011534646
0.0048160492
-0.025305685
0.019829066
0.028221214
0.00035500963
-0.010120316
0.039862506
-0.008578992
0.001411232
0.016678495
0.018842574
0.047603164
-0.019553006
0.05225295
0.048104122
-0.029773567
0.019835271
0.04075175
0.00082526053
0.02776121
-0.031106675
0.009714627
-0.017826544
0.02993287
-0.012233608
-0.0029885615
0.01997204
-0.037027165
0.0025206176
-0.01916215
-0.035900984
0.011676008
-0.024674283
-0.003240409
-0.019430231
0.055386223
-0.015149439
0.03203841
0.007585284
0.019230343
-0.020370545
-0.040565748
-0.0167731
0.032851957
0.021052048
-0.028067268
0.005916342
-0.001123092
-0.0242737
-0.0049858135
-0.0009115077
-0.03258647
-0.0043616868
-0.020645509
0.053336274
0.0018431732
0.03993382
-0.017111033
-0.009189861
0.042834394
0.061642233
0.00068552274
-0.010144434
-0.028019045
-0.01847018
0.018905887
0.017215997
-0.03781422
-0.019692259
0.02359884
0.0021835188
0.023739412
0.004952161
0.035291534
-0.0127092125
0.043353524
-0.0070815906
-0.014636957
-0.03451816
0.037525367
0.003406649
0.033206858
0.038366828
-0.0013508606
0.04420167
-0.009968546
-0.0161036
-0.026582321
-0.0070878156
-0.00841192
0.013233135
0.045912266
-0.013048395
0.019058459
-0.007882265
-0.030745864
0.018645877
0.01711485
-0.011904073
-0.043244652
0.01663948
0.029994775
0.01524317
0.022453569
-0.04638374
0.001478167
-0.013496875
0.041151546
-0.0057871994
0.011148757
-0.008894271
0.033521965
-0.005249601
0.008249727
-0.004790846
0.017999522
0.019302292
0.0015117497
-0.040228188
-0.024348766
-0.019445345
0.01105441
-0.006621687
-0.018888017
-0.033038493
-0.006442381
0.023380069
0.0068756077
0.0008532442
-0.048003614
0.03778471
-0.03951505
0.009978846
0.001553597
0.0020920846
-0.036450244
-0.042874236
-0.021203687
0.0044513997
-0.031920962
0.04575105
0.003674483
-0.0094846245
-0.03422306
-0.03761084
-0.010192266
-0.007933897
0.04953278
-0.0059269513
0.013345367
0.0031304986
-0.028109169
0.0007994824
0.025478879
0.010204434
-0.031535342
-0.004373288
0.013408962
-0.015879627
0.017006828
0.0027733748
-0.0065121166
-0.029302066
-0.038947176
0.004201667
0.025819734
-0.026251137
-0.041286264
0.012313571
0.0031098942
-0.03127003
-0.0133299865
-0.0041367416
0.042084996
-0.03370646
-0.0018948829
0.0058464063
0.02359297
0.038729656
-0.013402822
-0.033612233
-0.035139393
0.021528265
-0.028136896
0.010360583
-0.021431178
0.011913967
-0.033417854
0.011577414
-0.03385315
-0.036297575
0.012236863
-0.014934753
-0.009471634
0.006516217
-0.0069002016
0.0052900026
-0.040601023
0.0016938788
0.0026367623
0.037372775
-0.017951323
-0.013317297
0.023190023
-0.008122698
0.027361702
0.022901649
-0.0347021
0.049200844
0.0179439
0.02027291
0.021713581
-0.0065994565
0.0075667277
0.0013484698
-0.0121485675
0.0073166364
0.030523738
0.043316692
-0.00058740366
0.043754783
0.014036021
0.037193265
-0.039963923
0.0036057304
0.010971677
-0.0029102042
-0.031352054
-0.026165577
0.016941892
-0.013967399
0.055253875
-0.012378272
-0.0011381486
0.045535415
0.015529125
-0.005287932
-0.013705359
0.02023462
0.012216595
0.015555169
0.026103668
-0.018365558
0.027786808
-0.00975059
0.033203315
0.037216507
-0.057446282
0.0020902778
-0.02366945
0.018930782
-0.022893054
0.008366471
0.019836837
0.028133182
0.05052551
-0.0029132199
0.01086531
0.018306565
0.025659554
-0.022708159
0.015489084
0.0125815645
-0.048389275
-0.0053273663
0.019506568
0.0005641321
0.0074895145
0.027180744
-0.032075983
0.011370031
0.020943772
0.0037603832
-0.00078073994
0.031502668
0.04892713
-0.032662224
0.042950697
0.044643164
-0.030433556
-0.013465985
-0.03053421
0.009680164
0.027425379
-0.01964449
-0.032476716
0.0003078963
-0.010990111
-0.04714568
0.038181894
0.001640877
0.0053098374
-0.026189992
0.027621362
-0.038412828
-0.014677427
0.025522985
0.015754582
0.00043395362
0.016841454
0.026559
0.04989604
-0.0043458855
-0.0036150482
-0.011973444
0.0398477
-0.043449588
0.009645634
0.0010594879
0.04296738
-0.01906793
0.026511094
-0.018091965
-0.035229314
-0.017759925
-0.017408174
-0.004368436
-0.016223831
-0.038155667
0.020559475
-0.0047272444
0.037768237
0.035247643
-0.0024067848
-0.00885483
-0.0084123835
-0.017415773
-0.01785193
0.01699409
-0.007003431
-0.023651052
-0.019246664
-0.0025395446
-0.0348458
-0.020592276
0.034022562
0.02824463
0.05780291
-0.022686075
-0.038890384
-0.01718489
0.032439075
0.00040969485
0.023501767
-0.004494296
0.027614156
0.017779466
0.02516934
0.043010812
0.01845638
0.021120336
-0.0010685626
-0.042543076
0.014068083
-0.0058369837
0.03333386
-0.022687525
0.009639719
-0.03376286
-0.033648074
0.019769384
-0.023198225
0.008791894
-0.016745325
-0.022863198
0.02783452
0.013339609
0.018837921
0.038448386
-0.025950782
-0.008635815
-0.008226941
-0.0034023959
0.007792065
-0.021731501
0.034726497
0.02266291
-0.0021159137
0.0370317
-0.0023800468
0.008058395
-0.032562457
-0.0014711143
-0.013587342
-0.0056629702
-0.037157554
-0.033048637
-0.009125579
0.018788908
0.015963128
-0.02023297
0.0021234734
-0.022534806
0.036951452
0.023273973
-0.0075122775
-0.02109448
0.0337019
-0.023633728
0.026120638
0.024976924
0.029822117
0.007597162
-0.033029106
0.0608189
-0.036490526
-0.041338842
0.01941171
-0.022558495
0.015648818
0.0009708979
0.038731366
0.052229296
0.015015723
-0.0047727115
0.047371704
0.029140644
-0.0073943087
0.022930525
0.012701941
0.008915754
0.025026916
0.01932016
-0.0057229134
0.028543508
-0.03491873
-0.0028777213
0.0031519157
-0.00016164908
0.019238718
0.042788982
-0.027666468
0.0011331751
0.009059016
0.05772452
-0.021478679
-0.02480578
0.00939054
0.032942258
-0.009257068
0.004306107
-0.030592846
0.036554594
0.016799657
0.013012725
-0.00057691114
-0.008915241
0.0431399
-0.0074815354
0.009668886
-0.018700967
0.02286179
0.039743684
0.02222494
0.07175143
-0.014438595
-0.014573638
0.02450593
0.014133023
0.025324218
0.042644065
0.014509076
-0.032642983
-0.018165726
0.0003811107
0.009271312
-0.030589733
0.025685603
-0.027320297
