-0.00764649
0.014200369
-0.028773248
-0.079738624
-0.1253965
0.0011944384
0.14497268
0.18952627
0.12897001
-0.008358013
-0.07413827
-0.034137
0.06375064
0.0746128
0.108140655
0.007095187
-0.07497727
-0.14510292
-0.15497985
0.038190227
-0.0015267262
0.025651816
-0.07662996
-0.15897878
-0.12729613
-0.036501154
0.06815321
0.017932896
-0.04749654
-0.061416544
-0.054383732
0.046084885
0.13568448
-0.008930634
-0.040270086
-0.072006
-0.006434222
0.10571865
0.15041
-0.039990757
0.016087428
-0.09680799
-0.007280312
0.038889617
0.035883684
0.029736124
-0.057610884
0.0024287987
0.009083369
0.037155032
0.024457635
-0.09343927
-0.023967298
0.0019669693
-0.047040787
0.0014286945
-0.007733317
-0.017922562
-0.17560774
-0.042935103
0.12108535
0.14857867
-0.0018637247
-0.17511481
-0.0855907
0.05717319
0.04574989
0.058961924
-0.09815715
-0.06445437
0.026770446
0.011140878
-0.02139834
0.017824488
-0.03903414
0.027679153
0.026750524
0.021750953
-0.035123475
-0.15272626
0.047131218
0.014506365
0.13715954
0.13484867
-0.02224409
0.0054407003
-0.19176959
-0.1465851
0.015513072
0.043429736
0.021189703
-0.1001937
-0.15121071
-0.15041621
-0.10528993
0.005497834
0.007215712
-0.02172156
-0.13313821
-0.111280605
-0.073894955
-0.11742191
-0.003797778
-0.06848656
-0.22816847
-0.007426341
-0.02721071
0.057386447
0.056694884
-0.07123094
-0.10009214
-0.015766803
-0.06307038
0.11656344
0.13888094
0.049667347
0.042526163
-0.07426138
0.01785829
0.07549723
-0.0058745146
-0.059364285
-0.10127354
-0.06407904
0.053666476
0.0037393838
-0.007702107
-0.019731428
-0.061733343
-0.038924783
0.024776753
0.0337809
0.14333534
0.14207973
-0.075418755
-0.08580753
-0.083593875
0.027602132
0.108161636
0.08045715
-0.014886749
0.073108986
-0.09596492
-0.032452118
0.05487472
0.043284632
0.045024198
0.022116689
-0.06891778
-0.035779607
0.037517585
0.02223829
-0.06084854
-0.071745805
-0.034975484
0.029831175
0.00546747
0.040762987
-0.00045956823
-0.12787151
-0.07835202
0.07323722
0.0955357
0.06799789
-0.07755623
0.041462198
-0.05278708
0.06633539
0.067979194
-0.04517378
-0.014981474
-0.029622551
-0.023079976
0.09725206
-0.030190464
0.028031364
-0.008310128
-6.104339e-05
0.013746212
-0.087993294
0.012455129
0.13378045
0.10433092
0.055476025
-0.06795073
-0.0603164
-0.009171747
0.12785849
0.10049649
0.0676884
-0.07308508
-0.07838163
-0.017446214
0.015130079
0.095681995
-0.07382144
-0.08443735
-0.06192772
-0.07630644
0.06114691
-0.041023366
-0.029182024
-0.016206374
0.04910416
0.026076362
-0.029680632
-0.044944443
-0.020922488
-0.030786416
-0.07412957
-0.029834481
0.04140253
0.016106483
0.05182552
-0.14892672
0.0059062466
-0.034064993
-0.03164744
-0.010001368
-0.119446054
-0.00018380753
0.006944255
0.08774713
0.055545483
-0.02693081
0.062877804
0.002977174
-0.043248754
0.1698813
0.13334039
0.06532713
0.045591883
-0.0190856
-0.07138378
-0.051398434
-0.069302864
0.015419597
0.066804305
-0.08490462
-0.18196996
-0.015439865
-0.12196206
-0.14303525
-0.108859435
-0.05711802
-0.033015985
-0.015347489
-0.079484046
-0.034563318
-0.009843419
0.09218989
0.05089185
0.06904513
0.01422263
-0.05174129
0.09187669
-0.045699283
-0.06729673
-0.1468389
-0.09274112
0.038883496
0.08745618
0.018159078
-0.22639446
-0.18377304
0.022577625
0.115703136
0.06233242
-0.043838248
-0.19838294
0.07313499
-0.0080623245
0.08380856
0.014228543
-0.06537068
0.035389457
0.06780771
-0.040518943
-0.0392757
-0.014994684
-0.034369063
0.067855895
0.106944524
0.03218772
-0.05313807
-0.06321439
-0.024231032
0.071837455
0.09310425
-0.067661665
0.012899728
-0.060656473
0.030210325
0.0272068
-0.0018536991
-0.026817644
-0.045375664
-0.005760143
0.08220097
0.00821515
-0.06968958
-0.0066382885
-0.012847757
-0.0713197
-0.008870909
-0.031938013
0.037610717
0.002689268
0.029316233
-0.048350386
-0.03946538
-0.028375039
0.0035641708
0.03799255
0.030917598
-0.03906556
-0.05633897
0.05668342
0.06597364
0.036701497
0.008340836
-0.010076004
-0.01956147
0.021733243
0.0075837686
-0.044390555
-0.06023684
-0.06537628
-0.1190134
-0.064630054
-0.03133642
0.1084154
0.12138875
-0.037705988
-0.10027208
0.029117122
0.03737481
0.054082833
0.051588874
-0.023114491
0.017310679
0.03868258
-0.027001197
0.036678974
0.05549497
0.025947943
0.014327317
0.08535383
-0.012935895
0.0015660579
-0.14204085
-0.048990507
0.18474893
0.14836101
-0.07154658
-0.1833376
-0.17743433
-0.006810354
0.12681374
0.07396986
-0.16267042
-0.066423565
0.00587001
0.13757086
0.104987524
-0.05099487
-0.09182516
0.01754791
0.10972356
0.0864213
0.02534616
0.05140558
0.061482903
0.069380686
0.020824049
-0.1483413
-0.087085396
-0.006913726
-0.14950858
-0.08469628
-0.06685467
-0.08213883
-0.08561851
-0.057582643
-0.014391508
0.0563124
-0.0119105335
-0.079340026
0.028921837
0.046679158
0.01602481
-0.005675407
-0.007004565
0.08092458
0.047721192
0.05857539
0.07310641
0.12574016
0.068792045
0.017423056
-0.036979966
0.043480553
0.0007775357
-0.07683919
-0.055909697
-0.032694567
-0.014291292
-0.10205197
-0.0064547164
-0.051095907
0.015514452
-0.020697072
-0.032841753
0.04069593
-0.029051775
-0.01949116
0.044842508
-0.0073477603
0.0017094173
-0.049928296
0.003828614
0.059325486
0.051482264
0.044396013
-0.078006595
0.013227248
0.0092616705
0.0248322
0.09698494
0.025201673
0.0066480236
0.09135786
-0.046280153
-0.20826466
-0.13730727
-0.020550989
0.09329963
-0.0868899
-0.18530287
-0.13789657
-0.0136312805
-0.13987166
-0.09025443
-0.097075194
-0.04859272
-0.037590027
0.044774007
0.06134878
-0.002834057
-0.04776857
0.030757355
-0.017453507
-0.109828316
-0.050127987
0.021783536
0.074685775
0.033711664
0.055574443
-0.039137896
-0.09658526
-0.017095488
-0.0017092761
0.069246985
0.08841995
-0.060761314
-0.06786973
-0.029158078
0.07771641
0.15375264
-0.032043256
-0.0033647001
-0.12464122
0.04086259
0.080182835
0.005631582
0.036398977
0.030212846
0.050830483
0.04544426
-0.11579555
0.008394114
0.07745432
0.09785127
0.084290564
-0.12436161
0.02482766
-0.035257354
0.004326581
-0.031879157
-0.05864438
-0.0058126403
-0.0018778867
0.039027713
0.037865072
0.010261269
-0.03352738
-0.018726373
-0.03935551
0.01437453
0.044788346
-0.01285166
-0.06531222
-0.02431691
0.017410431
-0.01889459
0.010950269
-0.08374821
0.03769128
-0.08094583
-0.06310443
-0.06352751
-0.0007493094
0.041104596
-0.082558386
-0.045024086
0.0030321197
0.036210217
-0.04219508
-0.05656579
-0.07093204
0.020511836
0.040511124
-0.08590831
-0.1018956
-0.073010474
-0.021039177
-0.06377189
-0.039320547
-0.006858482
-0.01637497
0.028358033
-0.035582304
-0.0709339
-0.0015671751
-0.018588044
0.018909696
-0.032288626
-0.053401314
0.049768753
0.002809985
0.03370561
-0.02497904
-0.08112879
0.06752029
0.035719167
0.04217475
-0.035897993
-0.047973607
0.09249064
0.07556689
-0.02473775
0.00082965323
0.088937365
-0.0060090786
-0.08758631
-0.05546017
-0.04656358
-0.07095743
-0.093591444
-0.08748635
-0.00204319
-0.08150385
-0.17005306
-0.11882213
-0.08777202
0.022115668
-0.029707469
-0.119513005
-0.10418809
-0.11267052
0.07179797
-0.021532534
-0.072305776
-0.028870068
-0.05567523
-0.0074094343
-0.025758475
-0.05327637
0.038219694
0.022138488
0.016038021
-0.030324092
0.044174343
0.06266347
0.0069050086
-0.0075301966
0.021505747
0.08062144
-0.04930568
-0.08068642
0.060005512
0.10093429
0.033644803
-0.19886509
-0.10658772
0.12849747
0.08159021
-0.075083256
-0.12460539
-0.10076544
-0.01175945
-0.09068101
-0.0954131
-0.08667828
-0.011854995
-0.0049147285
0.023338981
-0.059914473
-0.09554337
0.06123758
0.0072903973
0.028794756
-0.054035764
-0.060529068
0.06642481
0.0072449986
0.0104397535
-0.12991562
-0.096840985
0.065624036
0.040396664
-0.011353418
-0.18951812
-0.0059561483
0.088440865
-0.004820699
-0.07225024
-0.049114596
0.05003169
0.0382638
-0.008623978
-0.10818208
-0.007510443
0.026480133
-0.040957052
-0.08117772
-0.009091157
0.067607194
0.0069441986
-0.056555312
-0.07496668
0.022053696
-0.005750917
-0.0393751
-0.021502748
0.031737246
0.004769358
-0.054841317
-0.07323859
0.031961445
-0.02927364
-0.09752512
0.012112889
0.0746394
0.02300287
-0.02196144
-0.12609701
-0.08109775
0.05742727
-0.0066795805
0.034330383
-0.083116464
-0.06734804
-0.0047514355
-0.041844666
-0.02495168
-0.08133524
0.0042741974
0.074309126
0.0023502975
-0.05942795
-0.04077155
-0.020889806
0.062663585
-0.008440074
-0.019992862
-0.061655622
-0.06628617
-0.01872438
0.075978465
-0.015862994
-0.011220302
0.03205002
-0.017758597
0.028712764
0.040754274
0.06500751
0.06077229
-0.09125011
0.02394526
-0.0034421803
0.0009429842
-0.04541646
-0.01462073
0.091868155
0.043064125
0.029080663
-0.105724916
-0.061988898
0.045814805
-0.023464613
-0.048923384
-0.05833293
0.027692454
0.010285735
0.010859636
-0.07599893
-0.11405015
-0.011989804
-0.0890176
0.03736357
-0.07595433
-0.049923427
0.0099971695
-0.07900841
0.021013843
-0.054725237
-0.05298472
0.010483227
-0.013072048
0.0005926766
-0.06923642
0.040489998
-0.0081733735
-0.031829633
-0.037203968
-0.03308829
-0.06925125
-0.010057108
-0.08431145
-0.0029993185
-0.016967269
-0.18387029
-0.22079459
-0.2070633
0.16452847
0.088688135
-0.26641628
-0.2578156
-0.16345373
0.109029405
0.025140885
-0.12270724
-0.09346131
0.017201522
-0.049455542
-0.12970187
-0.07608297
-0.00025975873
0.031784546
-0.07631105
-0.10006707
0.004965882
0.052308954
-0.06410927
-0.061954316
-0.043783423
0.07809881
0.0899237
-0.10066156
-0.077882394
0.02470493
0.04818523
-0.0280125
-0.07061067
-0.03338581
0.025484597
0.06977655
-0.0728107
-0.08528637
0.06016757
0.06554796
-0.05291856
-0.027765844
-0.0025314365
-0.045919973
-0.12994573
-0.047371022
0.013185234
0.039261896
-0.024992043
-0.05518215
-0.03482659
0.06736972
-0.03176295
-0.050777696
-0.08483341
-0.0147778485
0.06564604
-0.03432206
-0.06662149
-0.027523573
0.005998701
0.024985816
0.041153375
-0.04491341
-0.01760737
0.004692018
0.018975886
0.010086366
0.038462143
-0.025450308
-0.07441251
0.024405472
0.042922143
0.029350402
-0.036336508
-0.06723163
0.029251102
0.07641134
-0.0039317366
-0.08216402
-0.038998857
0.08556878
0.02169198
-0.017346818
-0.08197091
-0.025094416
0.006531899
0.053950313
-0.016690383
-0.038086455
0.05970601
0.03089296
0.03231147
0.011648146
-0.082813025
-0.076526046
-0.06833065
0.040437363
0.010551435
-0.094779514
-0.060584486
-0.032932237
0.06589142
0.017282614
-0.06877636
-0.019151358
0.030967185
0.057849944
-0.06545267
-0.021456512
-0.008954216
0.017221447
0.03827295
-0.03914127
0.04073554
0.07487395
0.03399281
0.022520484
0.081968345
0.1951614
-0.10755731
-0.0074569806
0.1239278
0.1326569
0.13058487
-0.133694
0.009654581
0.12076073
0.06071336
0.032931842
-0.21947812
0.009675292
0.098889284
0.028915608
-0.059693262
-0.08036924
0.057413384
0.116526105
-0.017351663
0.0020017596
-0.027796987
0.08161141
0.028851008
0.034276444
0.055842195
-0.03173959
-0.0814999
0.11566745
0.042917605
-0.0074684205
-0.09959295
-0.060499217
0.13066399
0.023762904
-0.03372576
-0.13182202
0.04672483
0.09523714
0.047384176
0.009233781
-0.058550116
0.028328575
0.093890734
0.03201879
-0.019905157
0.06422384
0.049561877
0.057096906
0.0673869
-0.022834796
-0.1042119
0.024759313
0.014219131
-0.0061394945
-0.07954172
-0.06578547
0.10097976
0.014447873
0.048746374
-0.04476414
-0.0031592832
0.09356528
0.019711921
-0.004389996
-0.060214605
0.049325667
0.067764
-0.026446197
-0.06643865
0.023048041
0.025753802
0.06519644
-0.041002877
-0.040814646
-0.025339263
0.03300131
-0.13053831
-0.07398204
0.044600178
-0.030265147
-0.16612038
-0.26782992
-0.11283522
0.15603843
0.035519715
-0.1494609
-0.13393603
-0.024341939
0.07562679
0.060746655
-0.07433298
-0.0801615
0.023961207
0.031851307
-0.034119338
0.0002079939
0.033545814
0.04847448
-0.055514537
-0.03559682
0.12265985
0.16953017
0.11129171
-0.083391525
-0.10105596
0.09469543
0.13011546
0.004400944
-0.11556739
-0.08304477
0.07644145
0.06403888
-0.053991154
-0.12654786
0.039002936
0.05062544
0.16476157
-0.055086814
-0.02937102
0.0459563
0.05564617
0.14295593
-0.13693473
0.031699743
-0.09032494
-0.10132281
-0.023862952
0.07392485
0.025997872
-0.028430864
-0.04349297
0.0020104107
0.0475737
0.021371994
0.024464581
-0.012420047
-0.03544616
0.012127283
0.044270664
0.04932155
0.020359365
-0.055361003
0.048022732
0.014307154
0.059235103
-0.00031556297
-1.1594093e-05
-0.0022996604
0.030518407
0.047705702
0.06327746
0.024047352
0.027792247
-0.0027811835
-0.022670245
-0.0039167954
0.026262814
0.00044504047
0.0056132223
-0.05499009
-0.0686727
-0.03586496
-0.0040491247
-0.07982944
-0.070157975
-0.042823993
0.06401603
-0.02556054
-0.11894833
-0.06724168
0.049569424
0.023092741
0.014126856
-0.03279443
0.0026014512
-0.019795828
-0.007563258
-0.00926583
-0.039287217
0.038007814
-0.008768612
0.07308421
0.036415063
-0.09174073
0.04213088
0.021146515
-0.0052831946
0.034748964
-0.001850472
0.08271319
0.050268043
-0.0045248293
-0.015357333
-0.024567824
0.07175007
0.05203111
0.06510749
0.014659192
-0.0038793
-0.00966643
-0.106222495
-0.045627687
-0.08068585
0.13144025
-0.037674855
-0.08799332
-0.031285465
-0.034318287
0.006745576
-0.048512876
-0.092902005
-0.026202183
-0.039926227
-0.045400903
-0.08164364
-0.107788354
-0.044183545
-0.02063832
-0.09186528
-0.08690672
-0.08378529
0.029395783
0.04905949
-0.10754791
-0.008340609
0.04803331
0.030415123
-0.07787527
-0.02648692
0.042464547
-0.04574007
-0.09892142
-0.052381404
0.027546594
-0.030525845
-0.19411227
-0.13139291
-0.07653678
-0.03025646
-0.17369996
-0.13488747
0.0056290906
-0.029317657
-0.11831865
-0.19974342
-0.13672782
-0.06895237
0.029848646
0.023453195
0.04807791
0.074598834
0.012107978
0.055880275
-0.029701065
0.0048655043
0.066700846
0.027045673
0.056603767
0.027296688
-0.08183692
0.054486733
0.04891345
-0.014795087
-0.08801387
-0.025225393
0.12263699
0.07153973
-0.004879563
-0.0456273
0.08030876
0.032488324
0.065651745
0.08545127
-0.04114499
0.010784763
0.12531407
0.032947052
-0.04882766
-0.04586453
0.02784218
0.04102845
-0.034049865
-0.0051024165
-0.033165403
0.00416094
-0.053792942
-0.07003634
0.014018318
0.0072612376
-0.030285832
-0.009874863
0.0003085447
-0.009073006
-0.03706832
0.006257405
0.02486147
0.10695716
0.052321568
-0.028970452
0.0026431961
0.040549207
-0.042071287
-0.037387308
0.013832653
0.0666051
-0.018575486
-0.0015050737
-0.003741859
0.011048161
0.05219995
0.052115466
-0.058749165
-0.05559209
-0.004421218
0.054554436
0.04438758
-0.022230284
-0.04957994
-0.060523268
0.017736942
0.06675721
0.020373771
-0.037299056
-0.022268785
0.00018128345
0.09359977
0.0217693
-0.0024348348
-0.00990004
-0.011432096
0.0066309473
-0.027362268
0.033670995
0.007880622
-0.09721449
-0.09246302
0.030387092
0.049502928
-0.11573474
-0.12036914
0.037022516
0.07107708
-0.04382729
-0.1184242
0.003507195
0.0015239699
0.025503922
0.033419296
-0.043296836
0.00027193743
-0.06256196
-0.044017725
0.009924903
-0.008008849
0.07514587
-0.011529609
0.05684709
0.037103906
-0.06287305
0.014801651
0.074959435
-0.037598487
-0.0140219275
-0.031943567
-0.046271376
0.0060382355
-0.017092757
0.008674413
-0.047192775
-0.040435873
-0.041519172
0.01997572
0.034344457
0.024686504
-0.047933638
-0.1668805
-0.11770802
-0.027990121
0.013741737
-0.017339732
-0.075376116
-0.03983482
0.1172176
-0.09816547
-0.18472639
-0.2615577
-0.020942269
0.070582815
-0.15832514
-0.14794329
-0.086979724
-0.12256278
-0.042868186
-0.031864658
-0.013773165
-0.050054092
-0.029053405
0.00896634
-0.047271177
0.052648634
0.024855772
0.02040802
-0.005594263
0.0391096
0.010633502
-0.062156774
0.0072406423
-0.015625684
0.05032053
-0.058234267
0.026272928
0.08142733
-0.009024573
-0.017440984
0.004084274
0.010002538
0.013152715
1.6069214e-05
-0.023287065
-0.062452912
-0.019409798
-0.036110014
0.03267799
0.020116385
0.035064995
0.013217413
0.019379165
0.04487961
0.0148710525
0.012134029
0.021966936
-0.01140457
0.023502676
-0.0003897715
0.008138225
0.04467357
-0.017318524
-0.006011063
0.02199165
0.04080756
0.036337376
-0.037517145
-0.08208187
-0.015883688
0.060905814
0.037752707
0.04287955
-0.018666772
-0.0040942226
-0.044191673
-0.011898591
-0.017530544
0.037365336
-0.05633045
-0.023093944
0.056289088
0.045534305
-0.0017353119
0.010273305
-0.016914625
0.025439309
-0.029206926
-0.066244446
-0.040804584
-0.0022935027
0.0021631212
-0.015531336
-0.010627006
-0.055395525
0.03783108
0.056651752
0.041351326
0.04857882
0.0026776625
-0.015314367
-0.05866744
0.0208731
-0.017264625
-0.059628762
-0.023151096
-0.0035016972
-0.0039520212
-0.008732671
-0.016510382
0.03525076
-0.00446448
-0.027714824
0.011415841
-0.0047450135
0.018577265
0.04627044
-0.013771109
-0.061919477
0.04364772
-0.021901265
-0.0032434647
-0.008823007
0.044593807
0.025793193
0.037807945
0.024647009
-0.015642783
0.005408562
-0.08538054
0.0010114597
0.014429306
-0.06636148
-0.022416687
-0.028565178
0.041668195
0.05375393
0.03559037
0.06801281
-0.01261819
0.080338135
0.09502039
-0.021795014
0.116471045
0.03759339
0.043173768
0.02253958
0.02517114
0.063400336
0.0019978816
-0.0337866
0.020014057
0.06588481
0.030450752
-0.07575935
-0.06820885
0.11146337
0.017538179
0.015984602
-0.057253342
0.037791193
0.079371564
-0.0015204098
-0.028386991
0.031535957
-0.012998028
-0.032555785
-0.033886727
0.07130114
-0.034875482
-0.0066152643
-0.032338213
-0.015156952
0.063400134
-0.037696462
0.025693614
0.017068896
0.054520473
-0.005577107
0.0052489536
-0.020036526
0.0072990083
0.0045518065
-0.034124177
-0.039803486
-0.025742454
0.038164824
0.000805726
-0.04044944
-0.0371824
-0.03736436
-0.00616241
0.01767379
-0.0018702112
0.029080635
-0.048090965
0.017198086
0.06729097
-0.009523733
0.016359247
-0.0076044705
-0.05315023
-0.045904476
-0.01021218
0.03972905
-0.103792585
-0.11507802
0.049231254
0.06899913
-0.10504671
-0.18014057
-0.12211877
-0.01240348
0.019044388
-0.07331152
-0.13979678
-0.15760624
-0.06884447
-0.0030273697
-0.052829675
0.025125831
0.041176498
0.01495929
0.022890847
-0.05042352
0.010841077
0.0074484455
0.007236716
-0.068655275
-0.012758563
0.06925042
-0.002355999
-0.027676955
-0.010210237
-0.00043501897
0.074790105
0.030238135
-0.018415265
0.0059938
-0.02801158
0.07005404
0.048389398
-0.024512429
-0.08965938
0.018242124
0.04357691
0.086151674
-0.06276653
-0.086706884
-0.041553695
0.027100831
0.04537536
-0.019650027
-0.0006051403
-0.01767351
-0.030652435
-0.040498793
-0.029183675
0.06343721
0.017863948
-0.03531969
-0.011070649
0.03298866
0.014357594
-0.051004454
-0.023592304
0.08375484
0.05094248
0.036042396
-0.033257484
-0.035302147
0.03770667
-0.013536464
-0.007355647
-0.009869951
0.021473812
-0.0006230854
0.030858973
0.031689867
0.08825705
0.032504786
-0.03365987
-0.027698992
-0.089860946
0.024794793
-0.0074611986
0.082906105
0.08508008
0.08886569
0.007089886
-0.07435503
-0.05144029
0.1095781
0.14576611
-0.04743585
0.07088559
0.017754601
0.0023192656
-0.011831008
-0.010783537
0.00663758
-0.03318532
0.005854316
0.045795415
0.0585635
0.027163737
0.012165435
-0.020456439
0.003099401
0.005909637
-0.02836542
0.064395346
0.05271216
-0.029688312
-0.06242239
0.015966257
0.021886103
0.024616964
0.081900924
-0.037907798
-0.024556288
-0.032093603
-0.06574513
-0.034253515
-0.0075265174
-0.051557474
-0.06751296
-0.0251162
0.009165493
0.00960605
-0.03163128
-0.046218656
-0.028257944
-0.041417357
0.09134896
-0.05095437
-0.10583547
-0.10241951
-0.09945815
0.06999022
0.061174955
0.092847124
0.056866735
0.031104868
0.010356965
-0.045842953
-0.024000967
0.07382954
0.019777015
-0.04571492
0.039881777
-0.010625304
-0.0003136356
-0.039730974
-0.012370362
0.03453733
-0.01060332
-0.11033131
-0.15746081
-0.08354241
-0.06300118
-0.059410557
0.04135027
0.060853925
-0.04910954
-0.07790355
-0.13995136
-0.12976712
-0.033434834
0.013166319
0.006449476
0.054482717
-0.0011199033
-0.048055865
-0.03427341
0.033852704
0.0024081331
-0.0685551
0.07040209
0.004077376
0.025699144
0.0007655043
0.06529309
-0.036551267
0.06396886
0.04761584
0.060156815
0.13659093
0.119858675
0.047737736
-0.0254261
-0.030698897
-0.048158485
0.046049856
0.016505891
0.044764068
-0.05095603
-0.06370136
-0.10484203
-0.009965934
0.011337218
0.0007400348
0.005045856
0.016945621
0.012568168
0.066679195
0.001786048
-0.075566225
-0.07541672
0.050116643
0.054525476
0.091359004
0.06779481
0.090567075
0.038419742
-0.013805897
-0.0029039017
0.019515945
0.117679045
0.0129512595
-0.028209208
0.028245062
-0.06714245
-0.06902128
-0.046313327
-0.039739784
-0.025770323
-0.021269523
0.008673459
0.024240008
0.036423124
-0.023095947
-0.04128129
0.024723664
0.06568604
0.026158208
-0.033840265
-0.0027031796
-0.02078968
-0.017389536
0.041380327
0.0565619
0.029098907
0.03788344
0.0033712322
-0.0064737005
0.01576232
-0.017930897
0.031427823
0.021501768
0.019195039
0.046911683
-0.048651576
-0.036996752
0.047017794
0.030784704
-0.020821499
-0.009431719
-0.010397985
0.026190303
-0.014541681
-0.008318476
0.021420075
0.05922189
-0.04386486
-0.08100632
-0.0754437
0.03936509
0.06447869
0.005103205
0.0018175517
0.0059187007
-0.05578747
-0.044173494
-0.011632371
0.02975597
-0.010537578
0.023069225
0.008288384
-0.019493066
-0.011392928
-0.019885747
0.03579522
0.0011229216
0.033693843
0.042992227
-0.028773073
0.00078641565
-0.05702227
-0.033852883
0.023854896
0.028068392
0.064900555
0.047532707
-0.006029148
0.01617326
-0.023886451
-0.04758945
0.037322994
-0.039797734
-0.07848997
0.01881057
-0.065990716
-0.045728665
0.05558911
-0.062211767
-0.06813699
-0.0038459648
0.08769766
0.06639091
0.05044349
0.11110543
-0.058284145
-0.11224026
-0.07447898
0.0238799
0.1610575
0.12334583
0.07331318
-0.07825256
-0.0899254
-0.002938894
0.014360547
0.050396733
0.050888192
0.015598829
-0.012763686
-0.013103411
-0.049593136
-0.041490294
0.015048364
0.014280074
0.05894439
0.09928597
-0.03575742
-0.07893772
-0.07142996
-0.054410156
0.052227166
0.04370263
-0.012518174
-0.037199646
0.0074612186
-0.062907
-0.0155558
-0.002076415
-0.0059826784
0.03962218
-0.028941218
-0.01910769
0.0022775587
-0.022107188
-0.01511695
0.00071944564
0.029667815
0.022357762
0.051017582
-0.043606583
-0.008908018
0.04900011
0.030357506
0.029544692
0.06358828
-0.01988303
-0.023842977
-0.037524175
0.013150018
0.033770137
-0.005045374
0.041757073
0.032897886
-0.022689158
-0.06756275
-0.023812434
-0.026521135
-0.003304019
-0.057022028
-0.051994387
-0.042114593
-0.030728845
0.025474709
0.051296774
0.013221122
0.011778623
0.013036927
-0.008647731
-0.020441873
0.023640702
-0.007740263
-0.034945656
0.039920583
-0.03890812
0.023301914
-0.0020023906
0.02588154
-0.030249557
-0.0012127459
-0.052694567
-0.062112845
-0.018536692
0.014881554
-0.0038081058
0.005595569
0.038989335
0.02075424
0.007864961
-0.04391433
-0.063384496
0.026520126
-0.026223693
-0.0041555925
0.055348627
0.040723875
0.022037702
-0.03933914
0.03163443
0.028482309
0.014603421
0.0027312909
0.0012601994
-0.011195861
-0.047935132
-0.023889797
0.0019724139
0.03527832
0.067641795
-0.00786281
-0.018012615
-0.07121309
0.015602616
0.039471943
0.01452445
0.13568465
0.058336005
-0.044293575
-0.08768398
-0.11975322
-0.003341945
-0.0046318555
0.010330006
-0.039887898
-0.062644266
-0.07888722
-0.13194236
0.0045330394
-0.023080667
-0.02944902
-0.04798148
-0.020705495
-0.062219154
-0.072157905
0.0020932741
0.0013153951
-0.021989595
-0.049446728
-0.057993647
-0.013524014
-0.047387995
-0.0033541464
-0.0069010775
-0.021918742
-0.05450612
-0.0219326
-0.044715196
0.031695087
0.02279102
0.02600545
-0.067847766
-0.067660235
0.01663399
-0.057424642
-0.044021416
0.028084325
0.00407058
-0.055728994
-0.033558242
0.028381832
0.039214313
-0.01872101
-0.051411115
-0.03450931
0.052365903
0.030637555
0.00082178804
0.016301481
0.044890556
0.023366438
0.042201232
0.033995938
-0.023322145
-0.066890635
0.04409649
0.021898443
0.029181937
0.0092688175
-0.03704406
-0.029465452
-0.06485616
-0.028409008
-0.010403258
-0.009093154
-0.024307419
0.033966675
-0.026998138
-0.016347086
-0.01888019
-0.10279229
-0.080892585
0.033288646
0.092537105
-0.014807905
0.026820542
-0.07523034
-0.046154108
-0.081121214
0.012422566
0.100709386
0.09058867
0.061647538
-0.07329811
-0.08210143
-0.060514208
0.0088678105
0.038636345
-0.075030476
-0.06567542
-0.011304658
-0.08698572
-0.030851271
-0.06387515
0.03050986
0.02226365
-0.08311567
-0.16992214
-0.04986479
-0.018034661
0.014920519
-0.04397874
-0.13865243
-0.04558456
-0.026405968
0.0050554634
-0.0708467
-0.1614238
-0.020900693
0.036601454
0.0010979738
-0.015747102
-0.072437555
0.0025431016
0.054035615
-0.033375878
-0.0005818158
-0.04393987
0.04568489
0.032266356
0.021064177
0.06395325
-0.03127828
0.022123788
-0.015226931
-0.0452154
0.06572231
0.055303097
-0.058966834
-0.002704765
-0.009942599
0.003038725
-0.025599092
-0.0646412
-0.030160787
-0.008758945
0.0074670417
-0.04111423
0.055450756
-0.03189057
0.026820172
0.004566124
0.028905213
0.010121004
-0.08625548
-0.027727501
-0.0056412565
-0.0019810924
-0.06194605
-0.12993024
-0.089822784
-0.051838156
0.016683457
-0.031344388
-0.12897457
-0.12654409
0.0027181746
0.12125058
-0.0033387828
-0.030824315
-0.0468306
0.009884171
0.023229962
-0.01089594
0.007292568
0.033756025
-0.016000863
-0.029788308
-0.029837932
-0.0058540795
0.04466895
-0.0215001
0.0652376
-0.026840482
-0.062174164
0.051780507
0.0927171
0.07293262
-0.05445918
-0.08006708
0.023865348
0.0967386
0.08072191
-0.044550713
-0.050576482
-0.018447429
-0.008923107
0.07787491
0.034582686
0.052836817
0.05426401
-0.050084338
-0.061434187
0.05701749
0.080899805
0.048281863
-0.0006715756
0.053906873
0.0451164
0.03487138
-0.057694748
-0.047371484
0.022751579
0.033100646
-0.10242714
-0.0126205655
-0.0100383
0.031026095
-0.039206948
-0.06363151
0.0346555
0.014265886
0.10665985
-0.04381658
-0.07161107
0.018512182
0.019124316
0.049741585
-0.036742635
-0.027040819
-0.026332641
-0.06016306
-0.10369275
0.014168009
-0.031042581
-0.10270036
-0.17787029
-0.17536205
-0.009853798
-0.093307786
-0.2549952
-0.1537236
-0.041832265
-0.032008696
0.0018172635
-0.09070137
-0.19947155
-0.15973817
0.055481892
0.010204679
0.033612076
0.072482504
0.07868137
0.009352971
-0.01850206
-0.0024227935
-0.007807918
0.05751566
0.022380784
0.03228379
0.006551618
0.09347809
0.109749705
0.017085021
0.02537414
-0.0039671427
0.107219264
0.11337038
-0.0117310155
-0.036009263
-0.055373356
-0.057466503
0.07150079
0.018645627
0.035891797
0.007353157
0.06536643
-0.037239686
-0.05586512
-0.06853239
0.1073526
0.026966238
-0.051471323
-0.04340324
-0.050898004
-0.057227284
0.008356062
0.06794388
-0.03491603
-0.10216876
-0.11626505
0.047849897
0.15017943
-0.049255542
-0.042056322
-0.1307951
0.027474154
0.15968086
-0.003422028
0.018004382
0.05734731
0.08121466
0.01364876
-0.045745157
0.044490777
0.043976605
0.0049442253
0.04770298
0.014936468
-0.056395743
0.024115436
0.06222363
0.0029786695
-0.07617234
-0.07550816
-0.02441713
0.055035118
0.0752849
-0.032547064
-0.06491839
-0.03661488
0.05760966
0.039032884
0.039198056
-0.03605423
0.065175615
0.04325279
0.07433347
-0.049026348
-0.015359299
-0.010883021
-0.046042208
-0.0019415696
0.030705942
-0.08508329
-0.07002589
-0.096211165
0.05791677
-0.035073176
-0.09092416
-0.10483688
-0.034354296
0.04812007
0.032052793
0.045880627
0.00024851563
-0.065043665
0.023284204
-0.034670815
0.037151203
-0.024893183
-0.014191568
-0.046448156
-0.015250782
-0.0103880325
0.04917378
0.028960785
0.03708583
0.07655283
-0.0034678644
0.06809585
0.08416057
-0.028866079
0.025779147
0.017960047
-0.008512923
0.007924852
0.063570015
0.0036586174
-0.027887553
-0.0068557356
0.025375532
0.061460122
0.07477874
-0.027366946
-0.109826006
-0.12273181
-0.092685945
0.017002838
0.028399818
-0.15969172
-0.11673457
-0.15601452
-0.02453398
-0.0064974083
-0.098436326
-0.14275235
-0.091723695
0.08840723
-0.021099813
0.056311674
0.11519644
0.060208917
0.027211826
-0.0304901
-0.010067066
0.07869922
0.10103435
0.03401688
0.013531107
0.085027136
0.10793871
0.028146207
0.01941118
0.010999864
0.04476954
0.009223847
0.0034895914
-0.006328165
-0.050755735
-0.015800547
-0.009411661
0.09120806
-0.038913913
-0.12009904
-0.15169393
-0.05393233
0.07067279
-0.040595252
-0.040650938
-0.045356203
0.01874356
0.0054651205
0.004447705
0.017957402
0.0075882045
0.059225153
-0.045048628
-0.04824563
0.03245766
0.060273502
-0.024080247
-0.02189769
-0.044335756
-0.08671316
0.081952415
0.065817304
0.058356345
-0.08057087
-0.07059007
0.036360633
0.12273769
0.12670936
-0.041981872
-0.08266952
-0.08300843
0.00866691
0.03689243
0.01371542
-0.012296976
-0.015265514
0.0027664802
0.08426923
-0.0022832935
-0.06205617
-0.016739493
0.070069306
-0.004310686
0.01817083
-0.05836537
0.020862076
0.019733272
0.0059067
-0.0059846737
-0.055254053
-0.055585623
0.02986305
0.0010601802
-0.06393026
-0.10907635
-0.051565748
0.006026287
0.051930185
0.040538535
0.049037527
-0.006582252
-0.061867278
0.021023538
0.037591737
-0.031486657
-0.0010857855
0.014582802
0.058404274
-0.02923841
0.0030669242
0.021020085
0.017506275
-0.004445453
-0.031995796
-0.031659488
-0.01993458
0.08985374
0.07921137
-0.04052038
-0.11665009
-0.015886875
-0.020848729
0.09090098
-0.013918958
-0.07394364
0.0051424284
0.026076024
-0.035729006
0.0010866396
-0.057929385
0.0020007645
-0.014295085
0.044149347
0.053208202
0.03520611
-0.097073555
-0.011845579
0.039395686
-0.008196607
-0.006653311
-0.14280741
-0.12663847
-0.1560479
-0.07110898
-0.004361308
-0.18275629
-0.21114558
-0.026100002
-0.010352958
0.049786817
-1.4690586e-05
0.020360868
0.097273156
0.0578647
0.02318675
0.02562693
0.0778476
0.08348294
0.02586108
0.0024698034
-0.08835497
-0.048202917
-0.0065297824
0.0034638548
-0.016553182
-0.0703073
-0.039601736
-0.007398006
0.009669134
-0.041730367
-0.090921044
-0.13762897
-0.0741966
0.040315177
-0.027399236
-0.0020246631
0.043464087
-0.02354834
0.018838082
0.0039079
-0.014007706
0.04529913
0.025173914
0.037695043
0.005552871
0.0074398285
0.039669905
0.043409407
-0.0519
-0.037778758
-0.050451346
-0.023673547
0.072426856
-0.052369267
-0.06681625
-0.031315528
-0.045463532
0.07214058
-0.023063997
-0.046408735
-0.05756314
-0.05262857
-0.10099463
0.011066418
0.03639202
-0.20731224
-0.21139796
-0.11304891
0.019790793
-0.07105279
-0.12910394
-0.117867544
-0.053131264
0.01514585
-0.0011101711
0.062157325
0.098154865
0.00060668774
0.021442119
0.0012038174
0.036924027
0.12560527
0.051562425
-0.06850722
-0.016937107
0.06388135
0.0947897
0.017023997
-0.03393765
0.017844137
0.032885846
0.068059705
-0.080382295
-0.12717648
-0.008087304
0.06583263
0.06621646
-0.12389091
-0.08780537
-0.096308656
0.12841918
0.14722265
0.037036963
-0.08856716
-0.17485645
-0.010336048
0.11260303
-0.0333686
-0.038821477
-0.037474174
0.037557658
0.008371743
0.009502907
-0.046360552
-0.036025703
-0.0031785911
0.0066504325
0.0060040345
0.043525487
-0.019248314
-0.020301357
0.051826093
0.040648516
0.03162455
-0.06837061
-0.118687525
-0.02930613
0.070118316
0.02839689
-0.025407154
-0.03379588
-0.016751604
-0.0393067
-0.014743251
-0.006572674
0.029077368
0.025578227
0.004432126
-0.034721334
-0.10816429
-0.029094657
0.054526575
0.029531065
0.09495824
0.026745912
-0.038416363
-0.119656205
-0.07180874
0.018954568
0.14400344
0.09572807
0.065370165
-0.040065058
0.014792032
0.06327476
0.07380262
0.01638292
-0.04952055
0.025030915
0.0879928
0.02594501
-0.031018946
-0.035462752
-0.07586306
-0.08775803
-0.03896484
0.058028046
0.0044528237
-0.013220107
-0.029375691
-0.0022766967
-0.027108055
0.030623306
0.033255756
0.07636128
0.035374075
0.008232194
-0.04504287
-0.026214214
0.03555181
0.018563628
-0.043778338
-0.045719016
0.06392924
0.05432816
0.0005135512
-0.02470706
0.036837604
-0.01731945
0.013268767
0.07271938
0.053420562
0.07460727
-0.11418339
-0.02472314
0.007859743
0.119271174
0.026541395
0.028629696
-0.04695201
-0.053020045
-0.032709356
-0.038412422
0.032533716
0.011758229
0.06572133
0.0056458428
0.038372964
-0.032052714
-0.01842451
0.046146367
0.0038452276
-0.042743158
0.008964704
0.022783717
-0.04552589
-0.04877487
-0.013185843
0.03406278
0.107742935
0.08351606
-0.06509306
-0.11921087
0.06689588
0.120571025
0.20597915
0.11620897
-0.025707247
-0.03966024
-0.082647614
0.0015132409
-0.0007378861
0.029503241
0.035563134
-0.027250549
0.10289912
0.07133298
-0.0612708
-0.024982002
-0.013851114
-0.020291796
0.010810157
-0.0056100576
-0.043237314
0.00034413324
-0.019661069
-0.06413179
-0.053780366
-0.020809643
0.05689136
0.035578854
-0.043809187
-0.058778197
-0.019925613
-0.043295275
-0.00804731
0.038131066
-0.044724055
-0.0413879
-0.01205729
0.046963695
0.036673862
-0.045967717
0.049570765
-0.03280697
-0.081866905
0.007079306
0.048540246
0.013366742
-0.017273385
-0.0077767754
-0.10591882
-0.056324486
-0.012978366
0.07301046
0.108298264
0.022382991
0.012396383
0.04540217
0.046373565
0.041557085
0.096117444
-0.000939402
-0.0028402852
0.064224295
-0.0005783222
0.048382387
0.010255803
-0.05808636
-0.025148183
-0.040098827
0.012899112
0.05344306
-0.057259712
-0.028297747
-0.04410764
0.02263466
0.05285593
0.023241743
0.04406334
-0.06715473
-0.029316565
0.02448483
0.002621537
0.06272967
-0.015163471
-0.009568357
0.03193121
-0.03929377
0.001980573
0.0059168106
0.01483793
0.040803824
-0.05414569
-0.045858156
-0.032578655
-0.07367095
-0.08802834
0.048291303
0.006090014
-0.03584961
-0.031021092
-0.039930657
0.06954865
0.07136802
0.0069750547
0.059872404
-0.029242042
-0.024649292
0.069728106
0.026889062
0.0055577923
-0.044615
-0.036857598
0.048018742
0.035257302
0.01681079
0.00628171
-0.07391798
-0.07536346
0.018426612
0.043290798
0.019853298
-0.015869329
-0.021604322
0.05337232
0.06029662
0.026850462
0.051069688
-0.02327731
-0.031451177
-0.07063948
-0.049954608
0.0011511793
0.017941624
0.010604932
-0.010790634
0.025428005
0.19380252
0.14602819
0.025052452
-0.09705879
-0.068085745
-0.039158124
0.026382582
0.111568585
0.093722604
0.022719502
0.018316971
-0.049610473
0.084567815
0.07125704
0.100513175
0.13344602
0.106672935
0.029608749
-0.048078373
-0.07115374
-0.009121608
0.03535301
-0.0037540675
0.05524824
-0.049467694
-0.005611532
-0.009055616
0.019389419
0.0793798
0.029462012
0.03305585
-0.00678159
-0.020251768
-0.04314886
0.023396445
-0.021702474
0.05697273
0.100882486
0.07832727
-0.0071076946
0.030666826
0.039375942
-0.061206613
-0.033823922
0.041127007
0.046003863
0.038703915
-0.023029108
0.025399588
-0.0035833747
-0.04927476
0.036609158
0.04423786
0.0019372064
-0.0148454765
-0.068501264
-0.08305885
-0.054826863
0.015524531
0.044135597
0.0042673126
0.016707283
-0.025133776
0.00016255397
0.013675007
0.055972993
0.019108657
0.01825614
-0.019113807
-0.06223689
-0.02369067
-0.026466586
0.05750766
0.0002617751
-0.03577543
-0.018207833
0.01115198
0.016461698
-0.04535337
0.0077758343
-0.035672907
-0.053099472
0.0062385164
-0.047917172
-0.009311561
0.036017936
0.003330025
-0.023716781
-0.060303036
-0.028514799
-0.043174557
-0.021124141
-0.0025355392
-0.0053557935
-0.05360953
-0.044604342
0.039131317
-0.021539735
-0.04058223
0.030574122
0.032370064
0.0611038
0.013809205
0.039762404
0.057218786
-0.07338683
-0.0017258145
0.026435643
0.020299345
0.029173458
-0.026331607
-0.0037314778
-0.06492722
-0.040882472
0.007347054
0.029839301
0.051006
0.0057256888
-0.0024936348
-0.059252013
-0.004298692
-0.0019570945
-0.03256584
-0.059387866
0.025997128
-0.07027717
-0.07268314
-0.020008883
-0.020503629
-0.018884739
-0.06375369
0.009471542
-0.02322251
-0.17872553
-0.11272056
-0.040048122
0.05399195
0.07969146
-0.0091265375
-0.051112905
-0.025834361
-0.042448327
0.07714735
0.018574422
-0.0490485
0.017557397
-0.0153190885
0.034498867
0.00041007515
-0.034875657
-0.021429775
0.0115459245
0.021262597
0.009220285
0.019633515
-0.06077925
-0.0383075
0.02932025
0.028873842
0.0042428947
0.016754817
-0.028004274
-0.046887334
-0.03001321
-0.014896821
0.040490568
-0.058119945
-0.061432593
0.0167022
-0.049962144
-0.028632212
-0.037114095
0.012842989
-0.029284617
0.013679815
-0.014656908
-0.009351655
0.0061898613
0.024735777
-0.022674644
-0.026257979
-0.039823152
-0.06756387
-0.017219473
0.04161209
0.019796588
0.0012909635
-0.031136373
-0.045775563
-0.019022258
0.038081843
0.035066336
-0.02520083
-0.021566825
0.031300753
0.05352969
-0.022681989
0.04260453
0.029092817
-0.02778201
0.07924344
0.08875768
-0.005135726
-0.036328558
0.025346294
-0.06379526
-0.023292001
0.12680706
0.060001872
0.020584952
-0.024836436
-0.040787276
0.04031516
0.020379312
0.037161827
0.07839895
0.018796423
0.0007558762
-0.07251552
0.00061958807
-0.05250982
-0.0052696313
-0.054082394
-0.013260746
-0.037001897
-0.09441131
0.0086021
0.033461396
-0.015936656
-0.009956668
-0.02964364
-0.062371407
-0.03174164
-0.044937145
-0.024535097
-0.041838776
-0.09870774
-0.083233714
-0.0010423597
0.03293318
-0.011367645
-0.03989229
-0.078387134
-0.029170113
0.003683402
-0.033205
-0.025943177
0.05594597
0.012591924
-0.031226717
-0.05298519
0.00025137543
0.0121731395
0.0026246726
0.0110148955
0.010212765
-0.058821794
-0.015974801
-0.051888797
-0.0076132603
0.06854421
-0.004335261
0.05600499
-0.009720308
-0.003274095
-0.05539847
-0.010353139
0.064201586
-0.019294621
0.011533407
0.055783488
-0.03599777
0.029124225
0.0114697125
-0.0106236255
-0.025994428
-0.10682489
-0.13266934
-0.117659345
-0.091608204
-0.043546308
-0.039730202
-0.018989287
-0.028558273
0.01824117
-0.0025599946
0.031272423
0.0552008
0.03207084
0.04031069
0.052368026
0.04103125
0.03363443
-0.010663866
0.04433879
0.05846498
-0.023171818
-0.060647536
0.0060274415
0.033088833
-0.041836474
-0.009921499
-0.061795253
0.010594153
-0.025560824
-0.033578806
-0.02532422
-0.03180058
-0.012930597
-0.034511
-0.04029026
-0.018983502
-0.026352385
-0.079317465
0.05544618
0.0022247387
-0.012821857
0.040708646
0.061503798
0.04086092
-0.04723056
0.010180105
0.042656183
0.017451787
0.040525697
-0.004421676
-0.04742771
-0.06459327
-0.038903583
-0.09003561
0.032250278
0.0321333
-0.016432984
-0.09765051
-0.12442901
-0.009477022
-0.018957624
-0.06517368
-0.10165741
0.07666256
-0.003511115
-0.0053006588
0.049161088
0.10256077
0.116384156
-0.02309135
0.05476107
0.048978835
0.016514814
0.021412855
-0.036276415
0.0035251502
-0.08440966
-0.00087653485
-0.031396046
0.0016682463
-0.014066557
0.07259997
0.08613706
0.09108252
0.021008885
0.1170026
0.11984292
0.02686994
0.028908892
0.10586
0.1016377
0.0013036109
-0.023639424
0.03662433
-0.026274206
-0.13102895
-0.08765362
-0.093833685
-0.032146163
-0.148652
-0.03655211
-0.056838915
-0.06379921
0.011057573
-0.088422
-0.03584426
-0.0988662
-0.053847726
0.037912063
-0.06091962
-0.054185193
-0.055138405
-0.004748246
-0.05935371
-0.10315728
-0.056159806
-0.0476681
-0.036418743
0.0262752
-0.024053026
-0.0012749606
0.052824955
0.028013423
-0.074946545
-0.0532593
-0.057576608
-0.050340813
-0.089423455
0.0028662225
-0.030170593
-0.06251664
0.0042797043
0.006687539
0.000542794
0.018722113
0.038132895
0.08734392
-0.033891745
-0.024598528
-0.01023905
0.0518919
0.008542939
0.04222957
0.0064592846
-0.020309925
-0.0021758797
-0.013631558
-0.05841955
-0.041956577
-0.07664245
-0.050778095
-0.03444492
-0.051739577
-0.06747891
-0.061769396
-0.03987542
-0.02334245
-0.014938556
-0.07313825
0.029131468
-0.027707335
-0.057347834
-0.08400171
0.017951578
-0.014009986
0.025635112
-0.0033222334
0.044376794
-0.0016809403
0.0035024905
0.036817525
0.043494087
-0.012617138
0.022060571
-0.061636038
-0.027147219
-0.07817252
-0.10380457
-0.018081747
0.0098519595
0.01682209
0.04639921
-0.010495922
0.05916022
0.04701443
0.09315577
0.024775019
-0.0071331835
0.0054632616
0.0063729333
0.07145061
-0.019333484
-0.05120263
-0.0073641245
-0.054083385
-0.07646533
-0.06938207
-0.04962292
-0.015355531
-0.05239928
0.010692325
0.011011676
-0.02482357
0.0035218056
-0.029462937
-0.06941285
-0.04149099
-0.035853453
-0.04733577
-0.038468335
-0.08518968
-0.05345681
-0.09531973
0.069069006
-0.05454174
0.0359906
0.07657845
0.09190274
0.03480196
0.026597397
0.064926386
0.064966455
0.06510228
0.020645663
0.11068551
0.07725423
0.02560536
-0.028150957
-0.07726776
0.08867376
0.091353126
0.038803294
-0.036254264
-0.06806686
-0.06484161
-0.061892472
-0.0012569521
-0.03849776
0.014030807
-0.104275875
0.023977892
0.031522702
0.08439186
0.12330427
0.038847763
0.011670921
0.054051396
0.011894187
0.08747889
0.0009140201
-0.044440914
-0.094598226
-0.030364301
-0.025690027
-0.03439168
-0.016014853
0.02948116
0.049566712
0.03887395
0.00518179
0.06557334
0.085319206
0.031684402
-0.071573466
0.05390631
0.007229735
-0.010782191
0.0136379115
0.10035683
-0.016166748
-0.016253075
-0.016796386
0.0030400646
0.017424766
-0.07031781
-0.05001832
-9.211643e-05
-0.041868
0.008157099
-0.083534665
-0.035413172
0.013730998
0.010960375
-0.012252706
0.007092934
0.014715564
-0.01934521
-0.051249187
0.029084764
-0.023019418
0.014869708
-0.020334018
0.017773362
0.0448756
0.041708514
0.040877484
-0.015840596
-0.015153125
-0.07449938
-0.05973463
-0.05649289
-0.022392863
-0.021594748
-0.043045465
-0.08427965
-0.06349243
-0.038755495
-0.026847325
0.036526427
-0.0060070194
0.029542934
0.051089387
-0.0025737977
0.035411417
0.045979753
0.053885546
0.050679363
0.014420477
0.053262744
0.0059677456
0.06656297
0.05509776
0.0063398606
-0.07365903
-0.058476545
0.025900153
-0.040087704
-0.0375533
-0.0411808
-0.0683012
-0.03282171
-0.051998626
-0.0307531
-0.022076847
-0.07847074
-0.0323694
0.03562192
0.0693085
0.06804251
-0.033919316
0.072141394
0.07210796
0.0060629784
-0.013882632
-0.013791124
0.03001985
-0.027266646
0.02354875
-0.06925141
-0.14077483
-0.012342894
-0.050005157
0.011462708
0.030577688
-0.14181826
-0.10363627
-0.0181429
-0.025499236
0.052427016
-0.1428865
-0.048564292
-0.025256148
-0.010607979
-0.012838414
-0.12407552
-0.088404715
-0.010675934
0.012680158
-0.08392232
-0.10202342
0.0034856633
0.02270536
0.03817986
0.011073579
-0.00853957
-0.06165999
-0.0702402
-0.07436179
-0.020676475
-0.079270735
-0.09142656
-0.102868766
-0.09588033
0.010110608
-0.06526834
-0.10114557
0.011715645
0.06898019
0.06453281
0.04319597
0.046778683
0.048854403
0.073769026
0.017825514
0.026011925
0.01616962
0.037045244
0.05869241
-0.003335455
-0.0028537295
0.0016251504
-0.06778818
0.0015107528
-0.06407933
-0.021853875
0.0057757143
-0.03460396
0.019832646
-0.073674
-0.08136646
-0.050391465
-0.011342729
0.028728614
-0.041708324
-0.004445332
-0.002534261
0.05261213
0.063794345
0.026307177
0.031368572
0.0012409347
0.045875616
-0.058305327
-0.049543794
0.043999657
0.10359863
0.03738958
0.0461873
-0.02587653
0.044628646
0.07204861
-0.064569816
-0.025492953
-0.048158303
-0.104281776
-0.039503958
0.015645385
0.06264244
0.07425219
-0.07520461
-0.036815114
0.036234055
0.0795183
0.03564223
-0.050804645
0.01058267
0.006382038
0.003604013
-0.0150472475
-0.034099907
-0.014985304
0.01985085
0.008516813
-0.06278816
-0.014159153
-0.10097839
0.03348128
-0.0045781434
-0.09511493
0.052879866
0.018174706
0.04177572
-0.030840542
-0.13140844
0.017314063
-0.015007914
-0.06326156
-0.08431871
-0.07875737
0.035968695
-0.003233451
-0.070135206
-0.009976715
-0.012901362
-0.014705377
-0.06034493
-0.029706413
-0.06562417
-0.010407498
0.022746839
0.040350016
0.0015467615
-0.014619683
0.10547511
0.06223798
0.04780923
0.03166987
0.079838194
0.025252325
0.039274793
0.06366257
-0.03134562
-0.050832532
-0.019369937
-0.03683187
-0.045536164
0.0074319444
-0.009554393
-0.009575975
-0.073515415
0.003280541
0.027608171
0.010291717
-0.017176265
-0.085868195
-0.046997648
-0.0048407833
-0.031199686
-0.050468434
0.0026462441
0.014529655
-0.055703882
-0.026929202
-0.027182253
-0.0008671981
-0.010543879
-0.016787874
-0.03163157
0.0044525433
-0.017114025
-0.009542524
-0.028977871
-0.013031761
-0.05066287
-0.09794756
-0.010215239
-0.036738567
-0.03505784
-0.07002672
-0.06241218
-0.047851108
-0.036024384
-0.057092026
-0.04320504
-0.029356264
-0.045548465
-0.018273327
-0.031937294
-0.040071514
-0.045951366
-0.010706676
-0.024259945
0.014554889
-0.049338777
0.0018589017
-0.054480776
-0.0023796186
-0.003082018
-0.011957762
-0.0018592081
0.016884075
0.015253467
-0.061819598
0.0051999935
-0.052075986
-0.07381192
-0.019949047
-0.05888629
-0.060466427
-0.0367389
-0.02757552
-0.04054836
-0.037751906
-0.0010872027
0.020782592
0.013750423
-0.05726264
-0.09725653
-0.076565705
-0.0045264163
-0.043978997
0.0125186825
0.010053954
-0.0024931997
-0.050253857
-0.045129433
0.011892306
-0.0749221
-0.07804216
-0.026637368
-0.04695256
-0.065283604
-0.089528434
-0.06095587
-0.014297083
-0.0020110013
0.007451315
-0.008083459
-0.0062212064
0.001443235
0.009728579
-0.035170432
-0.009458592
-0.030669225
-0.0148595935
-0.04888311
-0.039416425
-0.09356671
-0.111607626
-0.07026109
-0.05635916
0.017092159
-0.037445147
-0.016977936
-0.06974681
-0.015347008
0.0057145143
6.664597e-05
-0.04085952
-0.059210703
-0.07936399
-0.031292032
-0.023915274
-0.058407426
-0.08945805
-0.041727383
-0.029512525
-0.03767971
-0.023673255
-0.021259382
-0.08498057
-0.05657202
-0.061310545
-0.0073664417
-0.0735318
-0.09098485
-0.04937328
-0.006314427
-0.047718342
-0.078737855
-0.013748533
-0.024499033
-0.06442896
-0.02986202
-0.03744344
-0.05215201
-0.05269225
-0.01141793
-0.025731297
-0.0005320903
0.022617923
-0.0055361167
-0.058723997
-0.028186373
-0.042851474
-0.07437553
0.017513953
-0.03051827
-0.03971515
0.014317111
-0.038249563
0.0015891151
-0.05165277
0.0032240185
-0.051749777
-0.020079905
-0.0013332261
-0.07020369
-0.031976722
-0.06259913
-0.073785745
-0.081105836
-0.08045061
-0.02614164
0.0029881396
-0.029640071
-0.039531257
-0.0087627
-0.05358415
-0.06110176
-0.048957765
-0.050723296
0.022400122
-0.06457295
0.0015993075
-0.012986921
-0.05927938
-0.013828885
-0.0019585325
-0.07557327
-0.030365184
-0.027020795
-0.031223588
-0.036827557
0.011434734
-0.040446073
-0.0539808
-0.0580325
-0.038989183
-0.026873743
-0.0050517935
-0.066207014
-0.029161256
-0.07483901
-0.07361952
-0.071730286
-0.004688724
-0.027459536
0.012881199
-0.032361455
-0.05875995
-0.027648244
-0.075632975
-0.028143285
-0.04253461
-0.047165856
-0.026671069
-0.028917424
-0.064881705
0.007511084
-0.04405188
-0.02238261
-0.028463654
-0.044608437
-0.07272362
0.008416667
-0.06223163
-0.019005915
-0.023230126
-0.0063824127
0.0010707201
-0.031013615
9.048942e-06
-0.001604553
-0.023393856
0.020667952
-0.03302001
0.0023511248
0.0034596808
-0.06613208
-0.073777206
-0.011737468
-0.008837025
0.0017371174
-0.05876701
-0.035010725
-0.034952417
0.00013894735
-0.05100724
0.017442623
-0.058660712
-0.0043153437
-0.06575871
-0.11165442
-0.02078288
0.0137924785
-0.04682921
-0.032229267
0.031289287
-0.030988507
-0.04709558
-0.04078385
-0.0014195716
-0.07771098
0.0024929992
-0.03939662
-0.012729131
-0.074168414
-0.08741951
-0.044767443
-0.024913052
-0.024583047
-0.051217433
-0.052182645
-0.061373286
-0.059341982
0.00011817727
-0.06467913
-0.08039432
0.0014136363
-0.041228343
-0.013824133
0.011896805
-0.07180261
-0.051654883
-0.028941631
-0.016234884
-0.03667666
-0.056054235
-0.040538687
0.00017557663
-0.03032451
-0.036420174
-0.016865222
-0.05183945
-0.016264655
-0.07128184
-0.022184243
-0.02258277
-0.059100773
0.010194219
0.0020368886
0.002756012
-0.0067455503
-0.065068185
-0.064640485
-0.04237213
-0.022875823
-0.025442388
-0.044128183
-0.012651675
0.0005269879
-0.00037079322
-0.056744795
-0.08312239
-0.026941307
-0.027355324
-0.0750199
-0.07450437
-0.0032279727
-0.06202349
-0.073211856
-0.042881843
-0.008168128
-0.020113198
-0.02936294
0.010911454
-0.06297735
-0.052738845
-0.0640936
-0.004313543
-0.010448657
-0.045868732
-0.015671585
-0.06832635
-0.024002736
-0.052982584
-0.027162952
-0.06459109
-0.046635605
-0.06320113
-0.06694482
-0.024522511
-0.055469174
-0.037508167
-0.04972225
-0.024392493
-0.0758118
-0.018107913
-0.06054451
-0.03362006
-0.047301404
-0.014806215
-0.029317077
-0.042874888
-0.006321016
0.018972622
-0.07210245
-0.00077048136
-0.033459183
-0.010687153
-0.032599952
-0.016672114
-0.07146923
-0.043557324
-0.06582622
0.01433601
-0.058994256
-0.044017334
-0.055541594
-0.052771542
-0.057541694
0.008682791
-0.025021862
-0.070523836
-0.055017423
0.000109514884
-0.009434489
-0.01767186
-0.05502791
-0.082868956
-0.00054448616
0.0108394055
-0.058397472
-0.039457846
-0.022467965
-0.04525954
0.00966805
-0.06274865
-0.008833722
-0.022805322
-0.04647803
-0.030123515
-0.05348462
-0.0913775
-0.04713922
-0.035608068
-0.06602416
-0.0570806
-0.0801688
-0.053444073
-0.083235316
-0.07111386
-0.0706146
-0.046442807
-0.05563738
-0.008573435
-0.07490867
-0.05436101
-0.043000676
-0.035575915
-0.060721863
-0.07151836
-0.07045877
-0.048878826
-0.06338936
-0.081107266
-0.06747991
-0.062085424
-0.03788301
-0.014552712
-0.024046388
-0.019956868
-0.0033177012
-0.043196123
-0.044666357
-0.02464477
-0.027342465
-0.060017332
-0.0430064
-0.06115665
0.0022017967
-0.06834746
-0.010777303
-0.026483763
-0.035329502
-0.040367708
-0.0019881413
-0.024135878
-0.05520032
-0.02659295
-0.02944156
-0.024377171
-0.020189459
-0.044480737
-0.028771602
-0.09085068
-0.0691405
-0.061509077
-0.049253847
-0.022662884
-0.04672259
-0.05199818
-0.09904063
-0.016267164
0.009060658
-0.06884711
-0.025503777
0.0047779325
0.0193284
0.00064054556
-0.036647543
-0.053852
-0.0037491298
-0.06119931
-0.026002316
-0.03047061
0.0015629444
-0.054805506
-0.050460987
-0.008831854
-0.06404133
-0.0019833227
-0.0048246374
-0.023960715
0.0039225365
0.0006142527
-0.04374667
0.00036570945
-0.058273483
0.019625043
-0.02123729
-0.058233388
-0.05072561
-0.077436194
-0.021326913
-0.02972565
-0.03127455
-0.043225113
-0.061898343
-0.0058551966
-0.068863355
-0.06416052
-0.011618419
-0.040266138
-0.036609393
-0.065663956
-0.0578972
-0.04328031
-0.074759856
-0.03991945
0.018930241
-0.03311577
-0.026139138
-0.020626886
0.007836209
-0.036964923
-0.07602226
-0.077185005
-0.04565509
0.0021230401
0.027178898
0.046007082
0.00028543547
-0.04319855
-0.013025891
-0.038372822
-0.011836336
0.07003839
-0.13229209
-0.065093614
0.0051888158
-0.021877192
-0.012300833
-0.10045414
-0.17519455
0.009984694
0.012391644
0.07618337
-0.048103403
-0.10483925
-0.062307503
-0.027635584
0.11070135
0.07469983
-0.03496732
0.04466941
0.015201799
0.06384848
-0.0034960406
0.045043513
0.06591863
0.036718484
0.048187066
-0.07382132
0.06807374
0.099005535
0.0140719535
0.023027059
-0.067613676
-0.04553139
0.08621268
0.063768186
0.049424883
0.003174281
-0.078274205
-0.009923071
0.0698979
0.01856872
0.13721305
0.069471434
0.02788872
0.093641326
0.037206993
0.011136453
0.04264224
0.019536855
0.024026955
0.05154409
0.05391347
-0.027341079
-0.035406176
-0.04112689
0.020391671
-0.04072928
-0.010897972
0.005081661
-0.017278926
-0.001933492
-0.019163242
-0.019059934
-0.045172427
0.024875319
0.066616654
0.010795928
0.0010452038
-0.025086466
-0.070467375
-0.03720519
-0.03610857
-0.01975549
-0.060904015
-0.039382372
-0.029826034
-0.12014999
-0.15509449
-0.15697111
-0.032929473
-0.13469444
-0.05446894
-0.13837643
-0.21972367
-0.085168056
0.02052213
-0.041603256
-0.04847976
-0.14701404
-0.12934667
0.015451383
0.03178519
0.0076638553
0.0003872558
0.052971974
0.029061839
-0.051993065
0.028715245
0.08482629
0.09191143
0.01963401
-0.07100684
0.005441384
0.041714277
0.16420187
0.07881763
0.13031864
-0.012521951
-0.011602155
0.0798778
0.10012456
0.10689333
0.054470975
-0.08529219
-0.005250313
0.083223216
0.022351258
0.0069489256
0.036634136
0.06362823
0.073016785
0.00046938364
-0.0029596102
0.023837198
0.025059849
-0.05929179
-0.087281056
-0.018489145
0.01960736
0.08106896
0.037001953
-0.081887335
-0.12321202
-0.025014741
0.08324898
0.11074982
-0.044968046
-0.01587705
-0.03549516
0.02631819
0.13750584
0.03594085
0.031362053
0.013556234
0.054418586
0.058549948
-0.045774527
0.04529052
0.047915615
-0.04693553
-0.022621714
-0.052883334
0.0077881454
0.06308259
0.005680339
-0.038381957
-0.024377434
-0.1026943
0.024318049
0.011371133
-0.031925507
-0.030826613
-0.053796757
-0.030732727
-0.006683879
0.0055795806
-0.062852964
0.030063825
-0.022932818
-0.003162958
0.036006395
-0.042746894
0.0033551543
-0.0648049
0.04457807
0.03787667
-0.12653346
-0.12006134
-0.0040847864
0.020600634
0.06795504
-0.075628094
-0.09502547
-0.018419426
0.040996693
0.0041657914
0.017046856
0.01676938
-0.008792463
-0.0060499157
0.040827997
0.07672499
0.051495194
0.033009384
0.04435933
0.08580145
-0.017270945
0.0073285983
0.031381764
0.025014728
0.04942518
-0.025129365
0.037788298
0.06273701
0.029929908
0.023671951
-0.02901208
-0.03723714
0.022916539
0.016938576
0.015747188
-0.0023797813
-0.10215842
-0.0520651
0.0311435
0.025750702
0.08093782
-0.009699601
-0.091631584
-0.02314096
0.015325391
0.0058601196
-0.12280774
-0.19840573
-0.04102541
-0.017247463
-0.02878072
0.061554275
-0.08255397
-0.14096999
-0.039731774
-0.08154276
0.029956114
0.03921562
0.032621436
-0.03712439
-0.016514616
-0.08570777
-0.0015794222
0.10608895
0.06328165
0.043747246
0.02639795
0.01910361
0.10943527
0.11220414
-0.08693671
-0.0326246
0.022716213
-0.000148833
0.08838137
-0.075418875
-0.014208435
-0.022547798
-0.012100834
0.06359552
-0.075653285
-0.031842187
-0.060716175
-0.06281521
0.017151045
-0.021756181
-0.03082013
0.013082297
-0.015705146
-0.07026136
0.049419913
0.064535275
0.021371951
0.024771586
0.04992769
-0.036883082
0.00216439
0.07034248
-0.01975223
0.04833912
-0.06391673
-0.00021979379
0.038921878
0.043568846
-0.018854093
-0.08685259
-0.06913757
0.086213425
0.113335796
0.028875567
-0.053842537
-0.04707696
-0.033045046
0.047435425
0.065223604
0.016874347
0.022295672
0.0050576217
-0.017590448
-0.012924062
-0.009568538
0.00032798402
0.041102804
0.0069153514
-0.034293108
0.00062303565
-0.035342928
0.01290476
0.04505052
-0.013585353
8.6534325e-05
-0.08840655
0.031328686
0.015794322
-0.009475333
-0.032939173
-0.07931463
-0.052677542
-0.040021375
0.037436143
-0.021838516
-0.0045572454
0.04950268
0.059225805
-0.0063059865
0.059592623
0.086547464
-0.021320513
0.006378914
0.06858009
-0.04040138
0.0028063448
0.0037033197
0.017664004
-0.05118006
-0.03040433
-0.069587305
0.008819054
0.08331978
0.034428187
-0.057682518
-0.065629
-0.05801483
0.06872407
0.06482879
0.0032256306
0.017397514
0.04887515
-0.014191775
-0.030804927
0.0038947735
-0.021526642
0.0044201273
0.062160157
-0.07797829
0.14354141
0.123513386
0.012704206
0.10253102
0.08234984
0.09047692
0.025921877
-0.1675478
-0.0004520829
0.0029104296
0.05072917
-0.028992817
-0.087658904
-0.059932213
0.013521614
-0.03649597
0.044288773
0.06296187
0.03308279
-0.005646708
-0.022655092
0.047558997
0.01650598
0.065736964
0.028846739
0.06367373
-0.0003258073
-0.053756442
0.020104686
-0.0062125414
0.07116316
0.0072858487
-0.1363393
-0.06723192
0.03277667
-0.051488034
-0.031049157
-0.09338607
-0.008185896
0.013499919
-0.0073038675
-0.0066977646
0.007058194
0.031874064
0.036074817
-0.027801268
-0.004999009
0.07379252
0.033578616
-0.0026346159
-0.012468102
-0.03670326
0.0127363335
0.059221685
0.015132635
-0.04383317
-0.07791607
-0.0155263655
0.041080784
0.056285754
-0.045109916
-0.047887288
-0.056984156
-0.024984285
0.011958923
-0.03778033
-0.046949904
-0.04259821
-0.04948212
0.038316317
-0.044421397
-0.105124265
-0.21870355
-0.08504751
0.08603451
-0.039056413
-0.01682568
-0.13358025
-0.16499096
0.013011411
0.008686076
0.019768761
0.009287487
-0.022253176
0.025746638
-0.043406885
-0.05064468
0.043252744
0.01017784
0.043470487
0.04709883
0.073687814
-0.00036365824
0.0043345145
-0.033962738
0.02853162
0.036704157
0.06331886
-0.05405592
-0.014033848
-0.0456123
0.07889374
0.085470855
0.009885689
-0.033131033
-0.11189037
-0.015313905
0.08994348
0.01921588
-0.09226362
-0.042576347
-0.08344283
0.09719169
0.057908624
-0.042750802
-0.01950188
-0.04193568
0.0011897928
-0.020470547
-0.0031580983
-0.0044249813
-0.065590136
-0.0432821
-0.012954428
-0.018199952
-0.04106772
-0.05755242
0.003910414
0.026048033
0.03700614
-0.028330702
-0.10350978
-0.01696937
-0.010624949
0.046073813
0.040133443
0.036554776
0.0020145064
-0.047966458
-0.020717878
0.012139319
-0.0029926205
-0.02019774
-0.025380291
-0.049214818
-0.031644247
-0.10541
-0.028293911
-0.0895375
-0.02567027
-0.042945705
-0.029984685
0.0015056189
-0.03792801
0.015689926
0.0076905256
0.008142983
0.030655306
0.057997793
0.04689908
0.032752734
0.056144077
0.10262456
0.060358673
0.009869948
0.03504985
0.027538998
-0.007573692
-0.013320676
-0.058038846
0.03787827
-0.015169322
-0.01102413
-0.041362572
-0.043867704
0.0064499816
0.05498171
0.0025633413
-0.023693949
-0.044746432
-0.008301814
0.02005489
-0.016442632
0.036821768
-0.036507893
0.039663427
0.061243087
0.02133116
0.008377596
0.00026896675
-0.13489722
-0.13167861
-0.08651201
-0.08074392
-0.09921547
-0.115389474
-0.063209735
-0.035937365
-0.05639377
-0.02561945
-0.16529578
-0.14026664
-0.114733115
-0.08383523
-0.033701092
-0.13433751
-0.11252783
-0.07210579
-0.056730684
-0.054998808
-0.017039502
0.036967628
0.021360876
0.026615717
0.019089434
0.04964602
-0.03610039
-0.060526997
0.05954401
0.030914303
0.028801747
-0.06706976
-0.11487456
0.010356932
0.018916642
-0.08526574
-0.13096595
-0.103673466
0.017416948
0.018700844
-0.20024718
-0.0332089
0.008185154
0.04409932
-0.035696715
-0.114647254
-0.01948087
0.07421135
0.0127895605
-0.06336936
-0.10093749
-0.07796029
-0.01879697
0.07778294
-0.025877183
-0.07815818
-0.00839969
0.053533662
-0.03008158
0.033686068
-0.050088808
0.067882046
0.10568097
-0.05297843
-0.03398293
0.02674221
0.029180033
0.05899892
-0.03143928
-0.042756032
0.008059161
0.013674694
0.04062835
0.008050067
-0.05762333
0.01570815
0.0013001262
-0.048891228
0.018081807
0.0028635473
0.013693739
-0.047907375
-0.057525855
-0.05548787
0.043660965
0.014888479
0.033581693
-0.04425597
-0.039677843
0.023937862
0.0050627696
0.06684259
-0.0038395785
0.033320017
0.038496394
-0.021793542
0.027386243
0.09520168
-0.013290065
0.036233332
-0.004721594
-0.050166234
-0.008241048
0.004662223
-0.045611322
0.041059304
0.03517745
-0.037994005
-0.021179976
0.009712765
0.030140825
0.021157136
-0.072276056
-0.059583556
-0.038703527
0.06692901
0.0400996
-0.015105172
-0.013240576
0.032809604
0.04300806
0.006563733
0.01437574
-0.032453086
-0.010837487
-0.018227648
-0.019603834
0.011599462
-0.059149396
0.035173684
0.0068804994
0.0067753126
0.0035363606
0.022755673
0.04756908
-0.04439023
0.047924247
0.042847667
-0.017108468
0.04091165
0.02433994
0.016303586
0.071350664
0.05957868
0.025983125
-0.035577916
0.058184233
0.0056727887
-0.027049499
-0.052856218
-0.040681407
-0.046810016
-0.05651722
-0.074768186
-0.055924952
-0.027321124
-0.06466868
-0.08255736
-0.055661175
-0.01939156
-0.03693059
-0.002188644
-0.07242696
-0.06097124
-0.03783013
0.0114945965
-0.019111207
-0.07883109
-0.044033773
-0.042837128
-0.016731009
-0.021909093
0.017450642
0.028272998
0.07606215
-0.1742679
-0.24379927
-0.14173487
-0.083570704
-0.050568912
-0.2465094
-0.23488568
-0.07167595
-0.091149375
-0.10168842
-0.23603421
-0.16267344
-0.11404868
-0.14402054
-0.02583261
-0.11036159
-0.10715856
-0.10342621
-0.06491858
-0.028021956
0.02238222
0.080974184
0.05169801
0.051444743
0.048921626
0.0054006004
-0.057380248
-0.04322157
0.012018642
0.016081888
-0.020655103
-0.0657897
-0.08008978
0.01661029
0.040328853
-0.014119126
-0.076170385
0.00628074
0.042903263
-0.003010176
-0.0382365
-0.014521816
0.07415629
0.07893398
-0.023080304
-0.061682098
-0.0007867109
-0.03825727
-0.05651536
-0.07811376
0.0021774673
-0.007870355
-0.061099544
-0.017234266
-0.054879192
0.064349644
-0.020177865
-0.054703705
-0.06593683
-0.020054402
0.029792625
-0.01931995
-0.014256295
-0.053257443
-0.038497694
0.062181577
0.044148207
0.033866234
0.0439726
0.04616755
0.0011797375
0.014048077
0.062952936
0.03500243
-0.032503806
-0.036092386
0.034412403
0.019128982
-0.04980172
-0.06130342
0.03218085
0.07223029
-0.049112722
0.010228381
-0.040145334
0.06455664
0.083925955
-0.039342504
-0.0026495068
0.037364624
0.045271892
0.060003616
0.06714969
0.034523457
0.04673603
0.04644254
0.07667913
0.038025208
0.031197755
0.052489195
-0.04219986
0.024307137
-0.0031636711
-0.023550157
0.010656618
0.01590458
0.022500755
-0.0143961245
0.012308711
0.028387126
-0.02153332
0.012608702
-0.021496436
-0.012762503
-0.009092746
-0.030836673
-0.028269053
0.023564944
-0.025039563
0.021201981
-0.004601085
0.037392665
0.049146697
0.030581672
0.056615938
0.043575514
0.06804016
0.03689363
0.050484505
0.015928917
-0.021529598
0.090195775
0.031300493
0.0034181941
-0.016658895
-0.013031065
0.0461383
-0.0019834228
0.0011572012
0.049257997
0.0011347608
0.03476517
0.05414407
0.047107723
0.09434314
-0.039649986
-0.07167403
0.010629877
0.009865415
-0.014317015
-0.065684855
0.03794065
0.072957784
-0.017923638
-0.012181881
-0.028580256
0.086774215
0.023628656
0.0038169038
0.021999346
0.035423502
0.06394346
-0.031135414
-0.00747325
-0.0037864957
-0.027476065
0.0141616035
-0.044070184
-0.01802165
0.07444723
-0.032784685
0.025873808
0.04812815
0.01950836
0.056842532
0.005304288
0.028757129
0.005156858
-0.012543698
0.024960775
0.038075656
0.06801277
-0.05047075
-0.04904423
0.047217883
0.05441409
-0.027190724
-0.019672643
0.04629436
0.029827762
0.070070446
0.0072591333
-0.021205433
0.044481494
0.05178977
-0.003727603
0.01583551
0.0004144791
0.026829222
-0.012796626
-0.1609562
-0.14663096
-0.069924876
-0.060985617
-0.04426024
-0.17316623
-0.122717574
-0.063552245
-0.122944996
-0.04438691
-0.19908206
-0.13233922
-0.086896636
-0.16616611
0.00016345707
-0.07666364
-0.018962672
-0.034983438
-0.015200868
-0.014092399
0.025266996
0.09995115
0.09132829
0.07869125
0.11512696
0.038809408
0.056333613
0.0047064787
-0.020454796
0.05471509
0.083897315
0.036690746
-0.024828818
0.036889933
0.028770328
0.11080001
-0.03278763
-0.08559942
0.012200679
0.07665204
0.14128655
-0.04101388
-0.044433605
0.050016597
0.040865965
0.095248535
-0.039266143
-0.08716443
0.008691611
-0.04484069
-0.055363484
-0.06089717
-0.058172837
-0.019086875
0.027871728
-0.023175798
0.0033186635
0.029147606
-0.037645064
-0.03479654
-0.047406673
-0.038451172
0.03582692
-0.018117892
0.040927917
-0.026822852
0.073064566
0.083150454
-0.0035593763
0.06533766
-0.03639477
-0.024374288
-0.041995533
-0.05246888
-0.07522715
-0.030077849
-0.022166118
-0.00046419378
0.06619464
0.059415296
0.0045618024
0.020491302
-0.031811982
-0.08262416
-0.07327221
-0.0055413754
-0.057980284
-0.019666022
0.04608877
0.060462963
-0.02708527
0.08159702
0.00830466
0.0708756
-0.013400924
0.061369833
0.04724444
0.0120794065
0.044008695
0.0150180925
0.034925744
0.0059306105
-0.055719495
0.02175242
0.043117076
-0.01576974
-0.0046233414
0.024683505
0.09039267
0.013405434
-0.010549831
0.10995002
0.00095742475
0.05225683
-0.008273457
-0.0706669
0.04200495
0.0072913277
0.033311382
0.008706087
0.0079179555
0.018575534
0.04127904
-0.04034584
-0.04770695
0.007742392
0.016061109
-0.1478684
-0.030782508
0.013835598
-0.023848968
-0.0452004
0.06260261
0.056302015
0.00049085775
-0.07134707
-0.027290758
0.017366452
0.038481206
-0.034778398
0.034503862
0.07618694
0.004789679
0.016533813
0.08683618
-0.051591758
-0.02368279
0.0024072994
0.0074129445
0.05345448
-0.041812375
0.022284623
0.013120098
-0.0074495897
0.0067093205
0.013798732
-0.073514625
-0.18567836
-0.096584186
-0.07747104
-0.12588716
-0.09570871
-0.11067487
-0.08813855
0.052257303
-0.077340975
-0.111709446
-0.0050478163
0.03318256
-0.0027110558
-0.031612594
-0.042558424
0.017753335
0.13045403
0.06958918
0.025878103
0.14583749
0.015207173
-0.014909981
-0.032413032
0.10547688
-0.029078644
-0.028227659
0.111399844
0.104208186
-0.04559644
0.0091263065
0.13225889
0.025393568
-0.0036717867
-0.0146960085
-0.0088425875
0.047555413
0.03188423
-0.002534583
0.041373793
-0.05756439
-0.0014508157
0.014259846
-0.024780668
-0.0012618165
0.088591106
0.0690266
-0.03768972
-0.008459667
0.073147655
0.03155361
-0.07711766
-0.04453294
0.033273727
-0.0150116095
-0.017876474
0.032426447
0.013071192
0.052654278
-0.008772215
-0.07320795
0.062837645
0.031469848
0.00018304061
-0.0037608002
-0.047100484
0.051668923
0.04358298
-0.051300086
0.011863951
-0.00879512
-0.0008406399
0.046059676
0.08082185
0.024676193
-0.0646908
-0.0036348568
0.040016484
-0.013367234
0.028342748
0.07801761
0.02705317
-0.0024725825
-0.0031636402
-0.032454934
0.051161703
0.0035557116
-0.010685479
-0.01730318
-0.07841992
-0.0062883124
0.0043195365
-0.049416322
0.014866069
-0.024830611
0.021455716
0.0007752575
-0.05577847
-0.019764561
0.047011502
0.0027135431
-0.020041076
0.002073547
0.08464415
0.005250534
-0.04675747
-0.020043764
0.028341204
0.033575643
-0.03517936
0.020050786
0.030177519
0.041816242
-0.021673705
0.05824013
0.03578805
0.046852075
0.0135447355
-0.04121473
0.06341717
-0.026140952
-0.105799474
-0.005312086
0.11498705
-0.090904005
-0.03515611
0.0343059
0.062388025
0.02176408
0.07068224
0.07229753
-0.0036158739
0.042999245
-0.01708688
-0.03051771
0.0097559
0.011317002
-0.0059080953
-0.033816725
-0.09237841
-0.092261165
-0.049427122
-0.014978897
-0.0068105557
-0.11038361
-0.12906341
-0.17567575
-0.19774708
0.008597928
-0.06746062
-0.11949683
-0.034394894
0.10321318
0.08143006
0.04124286
0.051735424
0.038999945
0.05325185
0.07385009
0.003174163
0.12149779
0.013530833
0.06814549
0.059825066
-0.04472806
-0.010804138
-0.019899223
0.011892828
-0.08726577
0.029557746
0.04638959
0.112563394
0.015727872
0.056449372
0.00048995356
-0.02789912
-0.0019111696
0.07153429
0.08214201
-0.12544268
-0.0923649
0.07556701
0.06982617
-0.0033025665
0.0022372955
-0.021897597
-0.0002156529
0.034360457
-0.036394816
-0.083706565
0.00274779
-0.0063872454
-0.055597734
-0.045634687
0.02435514
0.025204282
-0.0152095985
0.038043637
0.032289024
-0.01668498
-0.012317291
-0.0051319143
0.08222007
0.061300784
0.031903107
0.07975165
0.011027722
0.037255444
0.050383057
-0.0112573765
0.033171218
-0.021984836
0.041028675
0.019714246
-0.057458587
-0.0011996805
0.022267848
-0.033205323
-0.0437021
-0.012016366
0.03287321
-0.023511888
0.042631168
0.0470364
-0.0049154675
-0.023111722
0.013528181
0.015835498
-0.013997263
-0.048127566
-0.0035928164
-0.022305466
0.025342984
-0.04320841
-0.056852918
0.0073178783
-0.07272138
-0.03561788
-0.041479025
0.018150222
-0.069210805
0.004414354
-0.026518103
-0.039164837
-0.08643029
-0.0540601
0.056897026
0.09133571
0.059429754
0.03823952
-0.009945267
0.05177614
0.06929312
0.03760096
0.047694437
-0.0033669933
0.0029292593
0.03182081
0.054631237
-0.012389655
-0.03841851
-0.021946754
-0.07647497
0.01983419
-0.03989487
-0.04037864
-0.0485123
-0.048966937
-0.041357808
0.08769299
-0.076822706
-0.12389707
-0.062399104
0.07066746
0.01025528
-0.02520863
0.007863097
0.058178127
-0.0032943108
-0.030604176
0.03226385
0.06513874
0.0044706627
-0.04722045
-0.035380684
-0.03204919
-0.040917702
-0.02606283
-0.024181755
0.008633086
-0.03987907
0.004814721
-0.06507454
0.005112713
0.044604186
-0.09173672
-0.02105253
0.11239772
0.105436504
-0.008421908
0.030570334
0.07478924
-0.022379257
0.018159354
0.0002900734
0.005714882
0.038007256
-0.007980832
-0.038252585
-0.07693446
-0.07131332
-0.0028501486
-0.08222601
-0.062169172
-0.013499197
-0.0015330473
-0.044679172
-0.07271291
-0.014273078
0.05407855
-0.009255798
-0.008804608
0.06835545
0.007503397
0.016826876
-0.0065567032
0.07363068
0.054726057
0.016032526
-0.0014464246
0.039194316
0.060431488
0.004650545
-0.035723664
-0.06294977
-0.05078748
-0.03123381
0.022585763
-0.040175032
-0.051811814
-0.019687532
-0.041618396
0.021131938
-0.05445297
-0.0681141
-0.15225442
-0.101841316
-0.0034397433
0.099419355
-0.12047254
-0.074465625
0.034575593
0.07856587
0.01403231
0.09020824
0.015857272
0.060436234
0.04631377
0.03531113
0.0040173014
0.068613715
-0.00959023
-0.011522411
0.03224778
-0.032278784
0.018373955
0.008171696
-0.051183123
-0.09765602
0.03647117
-0.043586444
-0.03755204
-0.09803198
-0.15638024
0.042444117
-0.015501569
-0.024482798
-0.09778498
-0.06688661
0.034152687
0.015297735
-0.05776797
-0.06945618
-0.10499813
0.041053824
0.050178662
-0.038217463
-0.0045975656
-0.087320045
-0.035332195
0.006804679
-0.007465854
-0.049770784
-0.0781724
-0.021779403
0.0477156
0.019069985
0.0443981
-0.045269582
0.011197311
0.011199043
-0.06435778
-0.0067015705
0.05136179
-0.026533978
-0.057317372
0.009583486
0.031695016
0.004551325
-0.030249316
-0.0114062335
-0.021635361
-0.0025416876
0.03679243
0.00039346635
-0.05800357
-0.0356773
-0.014175968
-0.044815417
-0.060996544
-0.07552851
-0.051558245
0.05566186
-0.006063546
0.014268012
-0.0932278
-0.019277941
-0.04823015
-0.03338231
0.08834255
0.031748995
0.07499073
0.0792946
0.08462164
-0.06722647
-0.07736612
0.080897935
0.044929434
-0.16712666
-0.14297919
0.055041444
0.10191526
-0.028536268
-0.043331467
0.027040955
-0.064195566
-0.04493842
0.021489603
-0.00079162704
0.019703677
-0.023734631
0.04728127
0.059365675
-0.02558297
0.026517969
0.021075394
0.03059933
-0.035970885
-0.006240393
0.043090716
-0.004097718
0.028075648
0.02567147
0.036338232
-0.025898201
-0.08059916
-0.0001983508
-0.1070579
-0.043068796
-0.08337197
-0.095320545
-0.112628214
-0.053301547
0.023625197
-0.13446753
-0.20867178
0.0007542762
-0.031239014
-0.04159797
-0.14782125
-0.16546729
-0.15554921
-0.060145754
0.031277943
0.07517417
0.11352965
0.1447579
0.1675355
0.05774107
0.022959009
0.041817397
0.15859798
0.070319384
-0.022027005
-0.006329821
0.065251686
-0.05593838
-0.05222316
-0.039029304
0.018076748
-0.06951475
-0.0867757
0.0021016817
0.020255905
-0.061904985
-0.09621605
0.021069452
-0.015478272
0.013188827
-0.17764564
-0.07880328
-0.117755555
-0.033599325
-0.074670814
-0.08704621
0.04246237
0.17226672
0.10735834
0.080175176
-0.01894478
0.08022891
0.027809545
0.00054294145
0.07271539
0.029381763
0.069392696
0.026310463
0.073064
0.0016753143
0.0723484
0.08143477
0.15896848
0.08920625
-0.08274502
-0.101467155
-0.05343604
-0.0564588
-0.09935046
-0.013659693
-0.032815125
-0.005364471
-0.065129384
-0.040132377
-0.11111235
0.040156122
0.0014299926
-0.022455212
-0.070364386
0.0448537
0.021732692
0.0032216334
-0.081724405
-0.0011682025
-0.038438875
0.05402258
0.00012738048
0.083835386
0.042915236
-0.05561534
-0.03551983
-0.032183688
0.08077652
0.001219173
-0.03877778
-0.117869064
-0.08332158
0.045537185
0.011469557
-0.077972256
0.034771346
-0.009164085
-0.0936472
-0.01655536
-0.00035151522
-0.021885835
-0.0063830246
0.023931932
0.050801285
-0.0073405695
0.028701857
0.02962165
0.056734644
-0.0013108666
-0.004216717
0.0006926309
-0.018473674
0.0356834
0.11270445
0.041943442
-0.028004438
-0.08444469
-0.04405794
-0.08804699
-0.11610291
0.044315
0.021206925
0.012427115
-0.042005006
-0.0554656
0.029302517
-0.0070506516
0.03175611
0.0864717
0.041958015
0.013973033
-0.027632942
0.06398603
-0.0006076903
-0.09334045
-0.12927313
-0.081800885
-0.113557234
-0.13579918
-0.17719957
-0.04864988
0.034668572
-0.017496258
-0.09886662
-0.065865815
-0.03742707
-0.01868575
-0.046220474
-0.03687011
0.028807074
-0.07434154
-0.04802787
-0.009310895
-0.0029290095
-0.019797966
0.009466372
0.010077339
-0.008433279
-0.017502721
0.03721768
0.04878984
-0.0051793423
0.10460181
0.13018188
0.12594664
-0.03441097
-0.0073370165
-0.019154709
-0.022997007
-0.13915658
-0.19981897
-0.2220856
-0.13740754
-0.009693272
-0.07157435
-0.09689089
-0.14049022
-0.11205259
0.014678762
0.023771606
-0.015496718
0.021442449
0.09336277
0.00136869
-0.012602586
0.014365822
0.18347594
0.18419692
0.12489062
0.12081658
-0.03481241
-0.021690572
-0.03156307
-0.0054704174
-0.046218798
-0.0070384676
-0.042976677
-0.04715362
-0.050807796
0.008889766
-0.008587861
-0.04665346
0.07856818
0.13271235
0.11356823
-0.16106479
-0.109913595
0.015869202
-0.031428054
-0.13629355
-0.09701073
-0.07903602
0.08032538
0.08778735
0.11124723
-0.15232852
-0.05351773
0.03258934
0.082183525
-0.019977747
0.02450125
0.028158976
-0.0700126
0.003041835
0.0578733
0.0017868007
0.0076674
0.01922759
0.015890418
0.022857655
0.03587902
0.042571504
0.017448295
-0.040505346
0.024623642
0.00074984296
-0.0389585
-0.049045224
0.02589879
-0.01743175
-0.0017442415
-0.02065056
-0.07017097
-0.06742706
-0.119717315
0.030410588
0.020289723
0.001504679
-0.010843432
-0.041065987
0.004957446
0.034991074
0.027187161
0.037825394
0.03850862
0.015182641
0.007859557
-0.022496134
0.029291157
0.023883669
0.03202724
0.027098458
-0.043065313
-0.034505896
0.013439013
0.022334164
-0.015547783
-0.005523526
0.0033985605
-0.06134339
-0.08120644
-0.07155152
0.018856842
0.057310916
0.035404235
-0.05882052
0.03531204
0.032308195
-0.0020123604
-0.0035287766
0.03027504
0.01486276
0.05827091
0.11763926
0.105175294
-0.004337797
-0.014899542
0.0014661874
-0.0036078799
-0.07492456
-0.06238539
-0.100687094
-0.05686546
-0.042738393
-0.038274765
0.060032528
-0.02303051
-0.012899427
-0.07900441
-0.11389232
0.10604485
0.005696115
-0.010080263
-0.0052646585
0.053420484
-0.016271409
-0.051533308
-0.080772236
-0.04655967
-0.015852273
0.0017640033
0.0069814315
-0.11451768
-0.0375484
-0.034949783
-0.06443009
-0.049514048
-0.06459519
-0.101852655
-0.016208515
0.022240413
0.08553299
0.04365145
-0.031753726
0.0045401864
-0.061446387
-0.009915631
-0.0183756
-0.07725547
0.035630245
-0.08619993
0.0014135408
-0.022890517
0.07507137
0.093488716
-0.07018268
-0.036163285
-0.04622789
0.0112497555
-0.0065189553
-0.028596476
-0.056975015
-0.0928399
-0.07572165
-0.023757534
0.012969675
0.031849775
-0.023477675
0.009364367
0.0613002
0.008685441
0.036795445
0.01893968
0.021653278
0.016060546
-0.002569892
0.037074056
-0.023030879
0.038745053
0.023688206
0.032940127
-0.024180962
0.074054234
0.115980834
0.054227665
-0.059140418
-0.09980461
-0.038764533
-0.009657448
-0.14325623
-0.17033252
-0.119401604
-0.004762549
-0.03214295
0.005781537
-0.101396576
-0.13653593
-0.10014497
-0.046423808
-0.042177297
-0.0439519
-0.007235123
0.043178547
0.0972347
0.09904537
0.06493539
0.10380188
0.13115105
0.15012094
0.10152784
-0.14516042
-0.00072078116
-0.02720103
-0.115182035
-0.16153984
0.040306114
0.0618263
-0.0130565595
-0.03414536
-0.07620126
0.06400895
-0.0019780572
0.013037914
0.011846539
0.003542541
0.059584998
-0.05366538
0.011258925
-0.0038194912
-0.074192576
0.0052587334
-0.07020274
0.032273874
-0.12043608
-0.14962289
0.070173025
-0.06580778
0.054429203
-0.048781484
-0.11451054
-0.04619786
0.006268345
-0.0068301116
-0.009435784
0.038472332
0.008967369
0.08837211
0.09558491
0.10164201
0.05932746
0.007493265
0.00948968
0.058757216
0.02345916
-0.058070965
-0.10160846
-0.10689605
-0.09718743
-0.0893483
0.0027283977
-0.049338084
-0.0890249
-0.018683173
0.04661359
0.08022424
-0.079469174
0.016773418
0.02410561
0.014173211
-0.049053833
0.048728213
0.0437109
0.06870123
-0.02945413
-0.0629202
0.012467012
-0.008774982
-0.14114715
-0.11804411
-0.043630905
-0.01827394
-0.028696917
-0.07806957
-0.047508337
-0.099935316
0.005952632
-0.05294751
-0.12451373
-0.11808877
-0.033758897
-0.052651152
-0.06622226
0.04293496
-0.03270755
-0.025980951
-0.03494114
-0.04214889
0.055448648
0.043454185
0.019009
-0.040381897
0.003091474
0.020637678
-0.0032340668
0.00090754376
-0.07439973
-0.07193249
-0.034728993
0.07231427
0.030481145
-0.099189535
-0.0808939
0.016136412
0.039312016
-0.004757992
-0.1278566
-0.12079132
-0.18179013
-0.19418707
-0.13366297
-0.07023924
0.03500667
-0.063065425
-0.061892204
-0.018210083
0.15155843
0.13451475
-0.08396888
-0.018857492
0.01845359
0.18261985
-0.01849059
-0.1629227
-0.057504263
-0.017862864
-0.006026741
-0.12229765
-0.07461571
-0.05827365
-0.017792704
0.021682126
-0.005928995
0.0053708022
-0.0039805486
0.024555141
-0.004527234
-0.053610872
-0.05545799
-0.04536826
-0.053313438
-0.07746512
-0.016097192
-0.092754126
-0.07328613
0.009686372
0.021128902
0.06479487
-0.09379894
-0.22856843
-0.014484218
0.038118713
-0.039488036
-0.20680654
-0.076332614
0.07132771
-0.016217943
-0.026143894
-0.10599185
-0.0008410158
0.06503868
0.036113232
-0.05838743
-0.110800974
0.028250331
-0.003651937
-0.0076429453
-0.12940237
-0.11907014
0.04626916
0.029711153
-0.051734857
-0.07790805
-0.16445382
0.09609285
0.06302891
-0.06155822
-0.13266346
0.012624732
0.038231105
0.033288367
0.023419524
0.008101662
-0.039072745
0.0034783182
-0.0559525
-0.012369102
-0.0057704886
0.06320081
0.056754198
-0.08640661
-0.06310203
-0.050617315
0.036177706
-0.08123784
-0.09302986
-0.067652814
0.05289285
-0.053036515
-0.100949064
-0.047585953
0.038220916
-0.017465694
-0.054966945
-0.035088256
-0.013544888
-0.091807134
-0.031218275
0.05456648
0.017262118
-0.11800992
-0.074535355
-0.0056592915
0.11095635
0.057270143
-0.053602044
-0.016608458
-0.0043711024
0.09568814
0.015444201
-0.11129374
0.020823672
-0.0074493275
-0.015037468
0.028607363
-0.07517753
-0.07626093
0.01562517
0.052343223
0.013192698
-0.07703447
0.004276452
0.008405846
0.017265843
0.033301324
-0.009493551
-0.02019094
0.017758567
-0.006060231
-0.012210356
0.01688025
-0.025406083
-0.058886908
-0.14667693
0.0073288255
0.036585853
0.02343427
-0.025783816
-0.13246481
0.037023965
0.07083941
-0.0027656355
-0.059763495
-0.06750374
0.04054385
0.087778576
-0.13007237
-0.098003924
-0.0018391773
-0.050091036
-0.12748621
-0.05398197
0.037134163
0.068788365
0.055387102
-0.047038928
0.104041494
0.051216763
0.042448435
-0.007507271
-0.03946662
0.055240143
-0.042162944
-0.013895929
0.022967013
-0.053237356
-0.01714589
-0.049601648
0.05483557
-0.013002705
-0.023229377
-0.13277781
-0.14093475
-0.20349768
-0.28213742
-0.16537353
-0.005523061
-0.047365803
-0.031714313
-0.008065409
-0.009990208
0.061704054
-0.051184244
-0.08852614
-0.11305686
-0.00999225
0.049649533
-0.17394514
-0.2172779
-0.08060414
-0.04888784
-0.08840564
-0.110981144
-0.0034009472
0.08605791
0.030465504
0.013206814
0.022493877
0.040816978
-0.06305328
-0.07994157
-0.07692364
-0.02432401
0.03482032
-0.18545702
-0.21681657
-0.042326663
0.12194748
0.08846667
-0.12577145
-0.08317294
0.12327066
0.048039023
-0.08439717
-0.13580035
-0.058321726
0.06529902
-0.083100185
-0.10192914
-0.030031243
0.018519513
-0.00011212312
-0.021335628
0.054263126
0.027037898
-0.060816843
-0.026865197
0.019154634
0.0849075
0.07826203
-0.11425431
-0.013579231
0.009422466
0.062854476
0.0037114222
-0.0809627
-0.031155443
0.0003741999
-0.013019658
0.05301602
-0.012136393
-0.019184005
-0.015471774
0.059178
-0.016324475
-0.06118727
0.006345027
0.013979223
0.023028674
0.059354477
0.061113242
-0.008243892
-0.026724113
0.0030720213
0.051984254
0.06820248
-0.0347481
-0.014818451
0.035865493
0.0880139
0.023935053
-0.06987661
0.008599489
0.08162052
0.084763646
-0.055302802
-0.056513947
-0.027294679
0.067841
0.052792136
-0.052720964
-0.06398823
0.048290975
-0.003351825
0.005090406
-0.019939171
0.06892519
0.0746779
0.061177604
-0.014384265
0.018588565
0.019797722
0.00053792715
-0.008144443
0.04820033
-0.05541213
-0.08537498
-0.019709513
0.006294761
0.029636778
-0.095560744
-0.010790148
-0.0008640278
0.053080626
-0.029300194
-0.01946033
0.041020043
-0.052705433
-0.024051324
0.030381719
0.09359296
0.043553263
-0.14921124
0.0201998
0.14406227
0.12913685
-0.15124126
-0.2235457
0.088219695
0.09704883
0.08695829
-0.20622712
-0.13634373
0.040576402
0.07348996
0.056090236
-0.13369365
0.084139265
0.13439867
0.05409366
0.007673414
-0.042431854
-0.1270224
-0.09749961
-0.02552709
0.025637291
-0.007759964
-0.01465758
-0.08506403
0.051059224
0.055695016
0.007114029
-0.108258106
0.0054055834
0.08662857
0.06444744
-0.069403626
-0.09516653
0.05241497
0.06925798
0.008534518
-0.06090332
0.043392044
0.06452142
0.054096576
0.03385138
0.0039199134
-0.016410353
-0.03584364
0.06435463
0.030321559
-0.041962054
-0.017307607
0.012914311
0.060874294
-0.034897726
-0.01065695
0.008996853
0.020148383
0.013077946
-0.0604359
-0.090968445
-0.030196369
0.08987917
0.03449528
-0.075437054
-0.022921756
0.07409597
0.0675562
-0.03169757
-0.031392142
-0.11696601
-0.112632066
-0.16721085
-0.21592349
-0.08287669
0.030953305
-0.0029851508
-0.059617996
-0.046649605
0.074470624
0.158206
-0.04101566
-0.16932341
-0.0823429
0.070245996
0.07737008
-0.13533583
-0.12967171
-0.023077343
-0.011868643
-0.02514334
-0.04581197
0.06177296
0.078361124
0.014705233
-0.047643404
0.05231483
0.07585197
0.07408662
-0.0978355
-0.059721153
0.054587573
0.13308094
0.091008484
-0.08918439
-0.11507939
0.04337853
0.13733102
0.112413734
-0.09678587
-0.037501127
0.07451008
0.15337309
0.03639248
-0.07661808
-0.040931694
-0.007622807
0.10169971
-0.040324077
-0.011409934
0.050286256
0.05884123
0.05755835
0.07477902
-0.050004154
0.08454831
-0.032422297
-0.04709397
-0.019453138
-0.1105176
-0.044156007
-0.03991345
-0.02593729
-0.025301607
-0.02293484
0.05312276
0.038048144
0.006627942
-0.04804765
0.0039123367
0.045054134
-0.0044067856
-0.05189917
-0.013572977
-0.025072485
0.03601289
-0.017080698
-0.08646411
-0.108151704
-0.04363241
0.058639262
0.009561616
0.04030702
-0.07878875
-0.08321668
0.0022065782
0.04827721
0.03312239
0.03605503
0.0020773797
-0.082864
-0.058411427
0.00553309
0.086653024
0.03781633
-0.018672269
-0.050353155
-0.02406215
0.055708293
0.048519235
0.055416197
0.012133603
-0.031670045
0.006557967
0.0066341343
0.05501935
0.115941554
-0.03386992
0.010017598
-0.049064457
-0.020505635
0.10410002
0.027474059
0.03653696
0.011984638
-0.0021125183
0.04821747
0.05688115
0.048163995
-0.026540173
-0.04056496
-0.010880078
-0.016610788
0.09944585
0.058412556
-0.03162636
-0.09491931
-0.023577042
-0.014567799
0.013761933
0.028691005
0.0038450402
-0.017340496
-0.014335835
0.06339782
0.0606003
-0.03535014
-0.11980486
-0.04493477
-0.0571536
0.064506575
0.0003805593
0.025401497
0.004589152
-0.060907133
-0.021373123
0.018033782
0.035952464
-0.027529035
0.0028503109
-0.059850235
0.00040494694
0.005952218
-0.07404868
-0.019944448
-0.0460372
-0.037470564
0.035763506
0.007343768
-0.109007835
-0.09757287
-0.09887582
0.003361853
0.028582279
-0.068026766
-0.016128665
-0.19215126
-0.12951848
0.02830508
-0.010982906
0.07139161
-0.07171103
-0.119664796
-0.12694788
0.03625154
0.03991224
0.11450004
-0.023490267
-0.0037645272
0.01319673
-0.05159553
0.110774405
0.072840646
-0.029085977
-0.039776515
-0.055396717
0.02096581
0.114879556
0.092921406
-0.017727917
0.02639904
-0.02294668
0.07296237
0.086940005
0.07896326
0.04549414
-0.097905986
-0.049570728
-0.021576067
0.033351846
-0.029648544
0.04741597
-0.024193069
-0.022127103
0.007127744
0.017718062
0.10574578
0.10377909
-0.011136487
-0.032720573
-0.0026632713
0.070362434
0.12640657
0.073464945
-0.025804002
-0.05745426
-0.05416444
0.051050156
0.06570719
0.018631134
0.03831883
-0.008438904
-0.0022508674
0.06918702
0.11165699
0.033302497
-0.00851738
-0.06233249
0.01863803
0.013156138
0.054579332
0.0060902936
-0.021211829
-0.07353424
-0.008233104
0.033876374
0.07192434
0.033503395
0.025021933
0.008647564
-0.003573584
0.012573781
0.04093652
0.008787966
-0.007798113
-0.052806355
0.010708639
0.046808727
0.008238395
0.037633933
-0.007784402
-0.022978533
0.032256667
-0.080597885
-0.07318488
-0.0052248584
0.07255243
0.02149732
-0.015013557
-0.023069965
-0.013378811
0.048764378
0.079783686
0.018063048
-0.033676736
-0.059934396
-0.0831745
0.10963246
0.065078445
0.062339734
-0.049349476
-0.052739188
0.030391438
0.07012921
0.058271524
0.025933519
0.0061894124
-0.02914533
-0.015977224
-0.027754383
-0.013506567
0.066722296
-0.066860706
0.014880044
-0.028090145
0.04726902
0.025633952
-0.003473686
-0.025655458
-0.023844138
-0.023999738
-0.032260455
0.019760696
-0.040696796
-0.05934964
-0.04276697
-0.005589004
0.0059016496
0.057208434
0.037837774
-0.0020869498
0.012132574
0.039554033
0.05130731
-0.029138247
0.089368865
-0.08075156
-0.1259631
0.0264026
0.035156876
0.06416142
0.08038185
-0.0748681
-0.10903787
0.0009989012
-0.04613807
0.04646548
0.08731548
-0.05698102
-0.027985053
-0.059731886
-0.03967121
0.11685224
0.045440122
0.029516025
-0.03256302
-0.022798814
-0.0024002285
0.023790587
-0.007751045
-0.04828079
0.004294548
-0.012746577
-0.009451832
-0.001375109
0.059794337
-0.030276602
-0.03141916
0.032613833
-0.014072908
-0.005690205
0.028826958
-0.022156358
-0.0279593
0.0053850664
0.016199598
0.0056396984
0.0055005685
0.0033668028
0.048773788
0.028687699
-0.014944966
-0.022712363
-0.028031727
0.02611061
0.066899315
0.029286893
-0.0037126353
-0.0011455392
-0.029317329
-0.0027471497
0.00613068
0.02290904
-0.0077110915
-0.015312481
-0.047980648
0.01326336
0.09354371
-0.00015580072
0.0008743295
-0.030838877
-0.05260241
-0.00012069547
0.06040926
0.018445253
0.035259258
-0.028521737
0.006106994
-0.026058046
-0.03755408
-0.02118892
-0.030497473
0.014101609
-0.050100483
-0.06437856
0.02032304
-0.02837395
0.045080718
0.027923234
-0.0546684
-0.03678319
0.040385406
-0.0024762414
-0.01750699
0.0007778018
-0.066092305
-0.04846397
0.023157071
-0.02175458
0.042203814
0.020965103
-0.021119727
-0.063271016
-4.1656232e-05
-0.002674402
0.04906029
0.014626968
-0.06426161
-0.04258153
-0.007893387
-0.006553591
0.028536974
-0.01772762
-0.04425268
-0.0074478528
-0.01583232
0.009213862
0.050522465
0.008423771
-0.03522717
-0.0021598067
-0.0443843
0.010503985
0.047051396
0.05539829
0.026635334
0.1035662
0.04024236
-0.055682488
0.0058184955
-0.06254377
0.036377247
0.06925192
-0.014114932
0.047818907
-0.04987439
-0.11259024
-0.013428143
0.10115413
0.01483205
-0.022755228
-0.07056203
0.02235825
0.02637663
0.046876427
-0.019459974
-0.0027819374
-0.013851414
-0.009751692
-0.018762212
-0.02527072
0.018133393
0.013329091
-0.018917488
-0.026194114
-0.037567258
-0.06547216
-0.0026251911
0.019772517
0.011014169
-0.030693881
-0.10050696
0.0035587288
0.021570818
-0.0015853642
-0.05374246
-0.06962113
0.019723102
-0.021689225
0.049543098
0.04868583
-0.020737294
0.03167373
0.006634966
-0.007216376
0.017220095
0.040790122
-0.020722415
0.0032654477
0.023631753
-0.00034159012
0.014889893
0.0032280728
0.0030816456
0.013845197
0.007097631
-0.026259076
-0.0017924102
-0.022928564
-0.016387047
-0.020878147
0.008597892
0.015194008
0.003734471
-0.018869756
-0.037201867
0.004254595
-0.04449509
0.0064510005
-0.0029672831
-0.0524792
-0.08837868
0.01283429
0.0015730308
-0.061320197
0.11579847
-0.12811677
-0.1422477
-0.031389225
-0.031062301
0.081433564
0.011434067
-0.09486406
-0.12132347
-0.07140997
-0.019683724
-0.0365309
-0.011004747
-0.031431586
-0.049111918
-0.020991685
0.015309554
0.04825195
0.06766454
0.019282857
-0.08640394
-0.10397722
-0.041163698
-0.01746578
0.012576632
3.2222277e-05
-0.04666201
-0.09946974
-0.02324158
0.013063486
-0.014995187
0.032619797
-0.05793894
-0.11612096
-0.0154604055
-0.037788603
0.008936357
0.045020852
-0.089102015
-0.07764563
-0.037636455
-0.01771958
0.032735147
-0.022192629
-0.09154982
0.012717308
0.03509208
-0.009389364
-0.039948262
-0.014743376
-0.07575879
0.06334149
-0.017981257
-0.041729074
-0.051333986
-0.03473458
0.029340189
0.056378674
-0.015041299
-0.023728013
0.017211298
-0.057381023
-0.023392363
0.015498791
0.057166327
0.00827817
-0.018695593
-0.055108175
-0.041778862
0.0006523048
0.038275197
-0.017669626
0.026177656
-0.006753475
0.026307616
0.022182988
-0.050904103
-0.027578952
-0.0231221
0.008682446
0.013638187
-0.021921942
-0.054947823
0.006464722
-0.045315485
-0.05302349
0.025207179
0.031227509
0.036684584
0.037801243
-0.04092545
-0.041816745
-0.004580067
-0.021426436
-0.038555313
0.003173438
0.034527864
-0.030373048
-0.015024946
0.031392932
-0.041786935
0.016939623
-0.043044165
-0.01925336
-0.039474122
-0.042176414
-0.03346597
0.027953114
0.037316047
-0.019815385
-0.020624274
-0.011246744
-0.03486353
-0.008725597
-0.0016402176
-0.021786984
-0.03138677
0.015098302
-0.04852404
-0.0019947616
-0.044623185
0.035486966
-0.0059428443
0.029462794
0.0102453455
0.004351797
-0.039662886
-0.039002426
-0.013267201
0.011761893
-0.0077851
0.00859795
-0.027460784
0.0027551185
0.012350204
-0.008552783
-0.050903603
0.00965484
-0.010132527
0.019991765
0.010576648
-0.005718546
0.0071007814
0.005891507
-0.01588048
0.03143961
-0.036336035
0.042468134
-0.0023708858
0.003979653
0.005968502
-0.022100683
-0.04870454
-0.03383405
-0.020563425
0.0068658423
-0.031458657
-0.042199768
-0.021899616
-0.025306644
-0.020298457
0.0028793716
-0.013300357
0.037607994
-0.025254693
-0.04737192
-0.01252396
-0.009532092
-0.031535804
0.02979084
-0.010039771
0.00726723
0.0030619758
-0.020205274
0.0013760127
-0.016856927
-0.03162955
-0.024909887
0.03322959
-0.025555596
-0.013451505
-0.04606569
0.013402788
-0.0054877303
-0.02721503
-0.010055438
-0.015929095
-0.040460315
-0.00822062
-0.050981946
0.023889966
-0.036834713
-0.010392045
-0.024789048
-0.040020943
-0.004027456
-0.009071303
-0.023668885
0.0341107
-0.051845044
-0.034093976
-0.04334616
8.1840626e-05
0.0071917446
-0.04026293
0.018186295
0.00020846073
0.030075088
-0.05207007
0.0041318275
0.02189148
-0.01572785
0.0066866362
-0.020205135
0.014060055
-0.01466992
-0.016440902
-0.04835435
0.027362768
-0.0010897301
0.029382674
-0.0033948126
0.002312895
0.014602485
-0.00656942
-0.025967503
-0.044115793
0.0077582803
0.029009629
0.037271623
-0.05111314
-0.04920296
-0.007834729
0.009719241
-0.052813284
-0.03977679
-0.025312092
-0.039504204
-0.05096667
-0.025927184
-0.04910581
-0.03543304
-0.04719261
-0.020479599
-0.006997377
0.034132376
0.030797658
0.000996695
-0.036907353
-0.022569478
0.030751877
0.010190085
0.015270353
0.030332476
-0.017596012
-0.036984567
0.0031125247
0.0014150407
0.01557092
0.014935379
-0.03144262
-0.03323402
-0.043007925
-0.011725644
0.021301035
-0.022831425
-0.038000595
-0.008316628
-0.052181873
-0.028169213
-0.034045275
-0.034389473
0.006958975
0.007036571
0.033048376
-0.017433412
-0.034675747
0.027479786
-0.009392117
-0.039253157
-0.03858313
0.004745312
-0.010315828
-0.040571313
-0.02421483
-0.026720027
0.012476968
-0.0034795715
-0.041692477
-0.041398928
-0.006029659
-0.0103699425
0.012195913
0.018235099
0.010003338
0.003348986
-0.0032635666
-0.037869032
0.017489882
0.0017182729
0.020450573
0.058206603
-0.025405115
0.012447993
0.0014557204
-0.009001069
-0.02691294
0.020107288
-0.01835743
0.044915963
-0.0080940705
0.0028984726
0.03293916
0.0076122517
0.016805284
-0.01769675
0.01515386
-0.005169274
0.029414864
-0.039401855
-0.0067232186
0.029106386
0.017396957
0.014549818
-0.0018942893
0.029631577
0.032730896
-0.04200625
-0.002060803
-0.02860522
0.014187102
-0.032645263
-0.039632916
-0.0076118317
-0.012882384
-0.034473285
0.002926678
-0.0028697671
0.023829004
-0.0348183
-0.022033548
0.0018649523
-0.0051257103
0.025284795
0.014851421
-0.0042746263
-0.028836818
-0.02411987
0.021639926
-0.04230774
-0.03745561
-0.028317347
0.024690533
-0.024619443
0.005460386
-0.018992173
0.005477736
-0.036928162
-0.016751766
-0.053319614
-0.03953033
0.025388934
-0.033680823
0.017359389
0.027904663
-0.01812175
-0.044815462
-0.013722728
-0.03163586
-0.034115855
0.020021629
-0.0361157
-0.018566152
0.004204698
-0.00909218
0.030948624
-0.016619049
0.026630063
0.033273745
-0.049056515
-0.02875303
-0.04204301
0.039457656
-0.021969054
-0.02141363
0.014834731
0.018751118
-0.037144516
-0.014456684
-0.0224508
-0.015894834
-0.05044196
0.009328576
-0.038283292
-0.00290648
-0.037176266
-0.039212294
0.025384484
0.03199475
-0.029932108
-0.036688507
-0.034893036
0.03948599
0.018516326
-0.04380506
0.007009334
-0.03963341
0.026602507
-0.018223908
0.0036422706
-0.035845824
-0.0031108498
0.03399482
-0.036695544
-0.03381857
-0.023635458
-0.031197578
-0.014413247
-0.004268121
-0.04561164
-0.02637734
0.023147982
-0.03186373
0.01314004
0.01582241
0.004495607
0.030100534
0.02590489
-0.0022661213
-0.044055186
-0.013208532
-0.051029783
-0.042595636
-0.015025302
-0.0068239016
-0.0509146
-0.020003706
0.0027940616
-0.008554438
0.0064941375
-0.039165214
-0.04994422
-0.04314282
0.022951463
-0.018818963
-0.017884051
-0.008130421
0.013023053
-0.030541325
0.035688777
-0.013461677
-0.02660451
-0.014880916
0.029649451
-0.01170745
-0.017675431
-0.038450196
-0.037051566
0.0051857764
0.0054789265
-0.022229219
0.024148641
-0.005585661
-0.04257631
0.014543428
-0.03306411
-0.04897283
-0.025864163
-0.018220318
-0.050519545
0.026972147
0.016063243
0.020839162
-0.02876756
-0.021997465
-0.022809206
-0.020962767
-0.036679983
-0.0038776654
-0.010209638
0.03116371
-0.0459504
0.035106253
-0.009152914
0.03190697
0.01986453
0.017173985
-0.0346355
0.026957484
0.00742234
-0.0076341615
0.025448823
-0.05188746
0.0060242787
0.018739194
-0.042174082
-0.025203262
-0.016256496
0.010373176
0.0004764649
-0.040138368
0.045789555
0.026866453
-0.0034312413
-0.0051984605
0.018276922
-0.02680476
-0.03577463
0.024465606
-0.01707552
0.009254493
-0.026678022
-0.0049594617
0.023781287
0.03054848
0.027976781
-0.02289916
-0.015658112
-0.009418283
-0.030681327
-0.039628673
0.018566819
0.015305945
0.023205845
-0.028913325
-0.034391034
-0.018786646
-0.032789394
-0.011616913
-0.005835557
-0.03453639
-0.010425407
-0.004551051
-0.009737281
0.01493901
0.011790923
0.03555096
-0.027523134
0.029725168
-0.044387843
-0.010742908
-0.051619176
-0.029242082
-0.03840513
0.026070325
0.00872343
-0.03302213
0.042129427
0.02549861
-0.004043291
0.033815876
-0.039441165
-0.03244
-0.04480235
0.03321607
-0.02871631
-0.024815148
-0.049027357
0.003972719
0.030064346
0.012971675
-0.035181645
-0.021468638
0.032326147
0.031565044
-0.013076713
-0.0067795715
0.03264778
0.0027615358
-0.044852454
-0.009439704
-0.028815394
0.0067864573
-0.00031704543
0.06678135
-0.014927468
-0.03894019
0.015163953
0.025290743
0.04762929
0.07301973
0.0054390216
0.01025397
-0.015942097
-0.05780983
0.137644
0.0721286
0.07988546
0.07340897
0.022430036
0.07681641
0.0808413
0.07220142
0.067160875
0.018213311
-0.017029613
-0.008554668
0.027618218
-0.05960323
0.051974464
-0.063582025
-0.031867698
0.022535546
-0.04493122
0.00015037881
-0.02853895
-0.012995811
-0.055051625
0.0035219986
-0.021449303
0.010911134
0.043409124
-0.031848975
-0.044325113
-0.037738193
0.011518348
0.09467076
0.008036997
0.010952092
-0.03372412
0.062284525
0.051750004
0.031032942
0.014684175
0.06193499
-0.057364397
-0.024303412
-0.026980223
0.07055329
0.07046928
-0.04194309
0.012840205
0.14937548
0.1641814
0.11461541
-0.05204926
-0.030909644
-0.061233032
-0.11618416
-0.10240661
-0.012029568
0.0017021023
0.005559703
0.058319237
-0.025237693
0.035480496
-0.0137994625
0.02502916
0.020826036
-0.025011124
0.027627619
-0.021676408
-0.024848295
-0.11031648
-0.14121187
0.084904276
-0.018286651
0.018236559
-0.061481193
-0.033598997
0.120975256
0.07478893
0.12518229
0.10415924
0.16516094
0.027574636
-0.06215589
-0.01145736
-0.024344014
0.052621502
-0.09180088
0.027644161
0.124139324
0.07847934
-0.084969714
-0.059833925
0.02436498
0.013847584
-0.04085808
-0.04863838
-0.063631564
-0.12031618
-0.055177946
-0.015597148
-0.04904133
0.040885806
0.009247081
0.004166219
-0.10242046
-0.0596242
-0.0051333345
-0.036026
0.025713611
0.02544695
-0.01116487
-0.02186381
-0.006000737
0.052350506
0.062269263
0.01419562
0.00020607858
-0.05017929
-0.029201567
-0.038828343
-0.030048266
0.017470889
-0.038969517
-0.024956869
-0.06722202
-0.071138754
0.074330926
0.09841106
0.09565211
0.031184584
0.027146991
0.08132336
0.06544529
0.08747336
0.063428625
-0.023251683
-0.016953902
-0.023751518
-0.007017487
-0.022992615
0.044965707
-0.0756258
-0.034211487
-0.057751182
0.008127101
0.0320656
-0.067431115
-0.03385114
0.036284626
-0.021169452
-0.031633668
0.04907291
0.01240909
-0.069478005
-0.03485901
-0.08110083
-0.038707763
0.016153218
0.06210062
0.038843445
0.03188066
-0.029005082
0.010459453
-0.009241452
0.033070885
0.02527001
0.0084922165
-0.034553315
-0.001316737
-0.12378141
-0.05619108
0.071824685
0.030308764
-0.021635545
-0.013430426
-0.03500011
0.047828924
0.03639191
0.03981672
0.015028911
0.019444115
0.01591427
0.0726139
-0.012295602
0.027166504
-0.039125428
-0.021070676
0.01861972
-0.0025327846
0.040247828
0.008614867
-0.02711377
-0.008473772
0.030579137
0.084565215
0.115497574
-0.023675894
0.0362018
0.026202083
0.1054319
-0.013580113
-0.05372891
-0.072230354
-0.108139694
-0.05976617
-0.12201427
-0.06602478
-0.01583387
0.01435471
0.06674055
0.041234396
-0.040626615
0.04567819
-0.011630119
0.024462795
0.06590761
0.002184759
0.103227794
0.1315808
0.10275261
0.10198304
0.010797447
0.107607186
0.18545344
0.14922519
0.077272564
0.04060525
-0.023128942
-0.08960146
-0.039861254
-0.119021565
0.038486626
-0.0009902072
-0.05024802
0.014396015
0.02583496
0.04194878
0.08586443
0.08530864
0.101331286
0.08014364
0.027523266
0.00030709273
-0.07160785
-0.069261834
0.0667363
0.00612978
0.03315587
0.087870836
0.12707385
0.113427915
0.026893329
0.0044128243
-0.032745536
-0.039859593
-0.061665185
-0.0017794701
-0.07473763
-0.06489593
-0.045021683
-0.045348465
-0.03843858
-0.021458758
0.02783353
0.011769912
-0.024830807
-0.06468664
-0.05131609
-0.047386292
-0.006524185
-0.029049538
-0.005760085
-0.07176953
-0.022587463
0.026673783
-0.042575713
0.067245536
0.039858215
-0.042924985
-0.031538583
-0.032289255
0.009622617
0.05875142
0.07170146
0.030022305
0.019790247
-0.03030094
-0.012159785
0.045430664
0.035585556
0.039695513
0.0045048227
-0.037162058
-0.01994683
-0.052037857
-0.04775712
-0.000449032
0.013323585
-0.059264068
-0.050990663
-0.0041495096
-0.0010268178
0.0300605
-0.020796338
-0.020675877
0.0026559953
0.07265645
0.008828227
0.030672701
-0.030676434
0.02548529
0.026030416
-0.036814604
0.03186819
0.025295528
0.054507185
-0.057433568
-0.0068584117
0.025203217
0.05236567
0.054855336
-0.031189896
-0.0745694
-0.0039851055
-0.03939329
-0.09141929
-0.032114238
-0.02562864
-0.051618334
-0.035080187
0.012776104
0.040550772
0.033356007
0.0594766
-0.04050787
0.002123901
-0.07579378
0.0069705783
0.020981539
-0.07314013
0.0038318567
0.029965665
-0.07466838
-0.11931382
-0.15195882
-0.04559569
-0.01710341
0.012157823
-0.006784716
-0.07614293
-0.04114628
-0.039980285
0.049269445
0.036858454
0.023453975
-0.046211783
-0.010005934
0.030290976
0.063083254
0.0908665
-0.065212056
-0.012185609
-0.042806156
-0.00018103921
-0.03352604
0.052051514
-0.032346394
-0.014665904
0.01805019
0.03329516
0.009848318
-0.0856521
-0.07595066
-0.016477544
-0.044138797
-0.09781358
-0.06560322
-0.04077726
-0.052071102
-0.042779777
-0.031078555
0.04682964
0.026125811
-0.0025319187
0.04524392
-0.03649968
0.0029143959
0.0015714671
-0.00961387
-0.02347753
-0.0021252758
0.015828593
0.01759079
0.0055171805
0.00066376873
0.026184116
-0.018924685
-5.893415e-05
-0.034015708
0.01640136
-0.025049236
0.019359425
-0.00772825
-0.057827022
-0.071831055
-0.03596828
0.002459777
0.012300357
0.05253444
-0.009917617
-0.014580915
-0.007908756
0.014611382
-0.0668671
-0.012283437
0.10018128
0.023629498
0.021005195
0.0753271
0.09258504
0.10980574
-0.018063087
0.049947076
0.06787098
0.101693705
-0.036944702
-0.049792048
-0.16312338
-0.10733927
-0.047556918
-0.11136633
0.008005244
-0.022699108
-0.0016795415
0.027051993
-0.025505777
-0.04978438
0.032452255
0.018131217
0.060760055
0.013800235
-0.08008795
-0.03311398
-0.09273053
-0.11613462
-0.07621516
-0.12497223
-0.054880243
-0.13510299
-0.022637652
-0.055950727
-0.00019450847
-0.030409003
-0.035483077
-0.060357444
-0.031174183
0.01584019
0.014155411
-0.008748785
-0.044154275
-0.08146319
-0.061665848
-0.008655216
0.007422532
0.0483896
0.06933212
-0.022204373
-0.0078074937
-0.01562705
-0.04980021
-0.049913723
-0.0013203692
0.0044017015
0.026218066
0.043219723
0.050959833
0.0041765943
0.0255251
0.013021644
0.035888493
-0.009968891
0.03261642
-0.0135787865
0.030918086
-0.061214175
-0.0156236505
-0.024677195
-0.07047671
-0.15445562
-0.14801204
-0.061798204
0.03713725
0.08986896
-0.0206266
-0.07468184
-0.121939935
0.009325033
0.07396289
0.096433885
0.11618772
0.094541706
0.0066448944
0.016863981
0.029290002
0.10522644
0.05352596
-0.053627018
-0.059697095
-0.030746533
-0.0003724366
0.012448016
-0.050114445
-0.08872999
-0.06234591
-0.04677883
0.029862314
-0.04239766
0.0322653
0.008192348
-0.08292493
-0.02012563
-0.014233354
0.02074248
0.05651694
0.023973096
-0.022732992
-0.023515651
0.013247081
0.04316946
0.052520256
0.012742497
0.024839059
-0.070006244
-0.04205926
-0.0054126703
0.051598664
-0.026523847
-0.115433626
-0.020533111
-0.058189906
-0.03334145
-0.01512904
-0.029472733
-0.00657072
0.0077818725
-0.02896027
0.053623654
-0.044094764
-0.14436288
-0.11978118
-0.0738734
0.14833485
0.1159118
0.12494436
0.090414844
-0.018051092
-0.027825626
0.032600548
0.021093179
0.028882323
0.019859312
0.07446523
0.047028292
-0.1324299
-0.19183056
-0.17140411
0.020863822
0.10294569
-0.019717684
-0.08434971
-0.05925562
0.014673181
0.012056563
0.034818716
0.08308721
0.058436796
-0.06937679
-0.032449704
-0.08087927
-0.010863947
0.064783275
-0.11651025
-0.0033030258
-0.08537283
-0.036657404
-0.04925121
0.035835307
0.007254432
-0.084878355
0.01249052
0.035174835
-0.06530902
-0.029733023
0.026550198
0.030933706
-0.013829096
0.042838924
-0.031563412
-0.01509557
0.009249822
-0.0078487415
0.039621286
-0.03249157
-0.044050504
0.055152234
0.034825157
-0.013970599
0.008956863
-0.041408736
-0.06481157
-0.05688333
0.0434084
-0.007364856
-0.06777954
-0.07481145
0.0054273
0.015047855
0.0024462917
-0.028852949
-0.12239609
-0.10645622
-0.001960353
0.07483166
0.108144455
0.09199831
0.1168518
0.003962652
0.010726709
0.06164026
0.06138305
0.12661074
-0.07393775
-0.029264642
-0.002827036
-0.030133337
-4.0575847e-05
-0.040333603
-0.044311818
-0.055213425
-0.015047998
-0.012436961
0.02283004
0.022434922
-0.00015376986
-0.09071021
-0.03420934
0.0023430013
-0.00026997173
0.0036564851
-0.0024211786
